-0.03727908432483673,
-0.015818243846297264,
0.043273523449897766,
0.07155617326498032,
-0.0266330037266016,
0.08022439479827881,
0.17608331143856049,
0.05474895238876343,
0.10604491829872131,
0.10687101632356644,
-0.13092948496341705,
-0.003272613976150751,
0.04663408175110817,
0.07543814927339554,
-0.0824688971042633,
-0.10682687163352966,
-0.1350158452987671,
-0.021526485681533813,
0.018033409491181374,
-0.10416974127292633,
0.2239299714565277,
0.055309537798166275,
0.07227487862110138,
0.0029460194054991007,
0.0897618755698204,
0.04358547180891037,
-0.02503064088523388,
-0.10782022774219513,
0.022373972460627556,
0.00804115366190672,
-0.1607217639684677,
-0.16142892837524414,
-0.14342953264713287,
-0.07662689685821533,
0.10295017808675766,
-0.1492382287979126,
-0.12118024379014969,
-0.12803278863430023,
0.07624784111976624,
0.01818704605102539,
0.012152769602835178,
-0.02163960039615631,
0.010148854926228523,
-0.055552419275045395,
0.13314610719680786,
-0.061747509986162186,
0.03757845610380173,
0.01532979030162096,
0.037726663053035736,
0.0567750558257103,
-0.15558403730392456,
-0.19429296255111694,
-0.11414409428834915,
-0.17768248915672302,
-0.02364295907318592,
0.0814836174249649,
-0.06325234472751617,
-0.03883463516831398,
0.05020078644156456,
0.07012253254652023,
0.3596636652946472,
0.4153244197368622,
0.30847978591918945,
0.15427431464195251,
0.15487578511238098,
-0.13652318716049194,
0.011766600422561169,
0.12577751278877258,
0.0807114839553833,
-0.008061094209551811,
-0.2242901474237442,
-0.2003745138645172,
-0.14392106235027313,
0.11299623548984528,
0.05559416487812996,
-0.015697842463850975,
-0.07463154941797256,
-0.026486780494451523,
-0.05464411899447441,
-0.07238943874835968,
0.09773513674736023,
0.1719556301832199,
0.23792797327041626,
0.08965981751680374,
0.10096269845962524,
-0.22790102660655975,
-0.05423470586538315,
0.0805654376745224,
-0.03606777638196945,
0.017607571557164192,
-0.41047075390815735,
-0.2756038010120392,
-0.18978816270828247,
-0.03165213763713837,
-0.008272774517536163,
-0.02093670330941677,
-0.07991263270378113,
0.11551602184772491,
-0.038554903119802475,
-0.04116155207157135,
-0.06859666854143143,
-0.18336798250675201,
-0.10636357218027115,
-0.08607318997383118,
-0.06674180924892426,
0.5157753229141235,
0.31665533781051636,
0.10930130630731583,
0.06541625410318375,
0.01417005155235529,
0.03955497220158577,
0.2060609757900238,
0.11465910077095032,
-0.00017417383787687868,
-0.1639421135187149,
-0.3143397569656372,
-0.2620437443256378,
-0.02026042528450489,
-0.15735647082328796,
-0.17964868247509003,
-0.0760175809264183,
-0.06237933039665222,
-0.07271690666675568,
-0.10443247109651566,
-0.0815635472536087,
0.12457899004220963,
0.061685267835855484,
0.1152406558394432,
-0.055244315415620804,
0.06724141538143158,
-0.019952964037656784,
0.07564007490873337,
-0.04334033653140068,
-0.059416841715574265,
-0.08325418084859848,
0.05216485634446144,
-0.041523195803165436,
-0.09681688249111176,
0.03398711979389191,
0.045400988310575485,
-0.11141441762447357,
-0.012221969664096832,
-0.041453029960393906,
-0.08307091891765594,
0.0003923250187654048,
-0.05079614743590355,
-0.10194381326436996,
0.05286628380417824,
0.05121177062392235,
0.036234766244888306,
0.05671245977282524,
0.032960981130599976,
-0.05575309321284294,
-0.01151657197624445,
-0.10263437777757645,
0.14664039015769958,
-0.06238362565636635,
-0.12797416746616364,
-0.11998770385980606,
-0.3419950306415558,
-0.023070305585861206,
-0.04288184642791748,
0.05136897787451744,
-0.028511470183730125,
-0.22559477388858795,
0.050313275307416916,
0.23180419206619263,
0.06194690987467766,
0.15365289151668549,
0.060189224779605865,
0.03983409330248833,
-0.0005576047697104514,
-0.09688927978277206,
-0.12863044440746307,
-0.012551791965961456,
0.045912183821201324,
-0.0003966705407947302,
0.06248420104384422,
0.12701644003391266,
0.06719552725553513,
0.060701169073581696,
-0.0831485241651535,
0.05940017104148865,
0.05327553302049637,
0.0005695135914720595,
-0.061613779515028,
-0.03549480810761452,
0.01013890653848648,
-0.0579901747405529,
0.03791194409132004,
-0.048059042543172836,
-0.16265085339546204,
-0.06263761222362518,
-0.12446673959493637,
-0.07200226187705994,
-0.13746918737888336,
-0.1438239961862564,
-0.13055676221847534,
-0.0929831713438034,
-0.07888257503509521,
-0.20394682884216309,
-0.2367297261953354,
0.004840757232159376,
0.06945264339447021,
0.1283155381679535,
-0.2120278924703598,
0.015081804245710373,
0.09031713753938675,
0.02354271523654461,
0.027916276827454567,
0.10440582782030106,
0.11977623403072357,
0.02499951422214508,
-0.11491140723228455,
-0.19330140948295593,
-0.025435147807002068,
0.08833126723766327,
0.25864335894584656,
0.05410166457295418,
-0.20666997134685516,
0.04281248524785042,
0.06990514695644379,
0.12180951237678528,
0.05983230471611023,
0.06648324429988861,
-0.07068362832069397,
-0.09917482733726501,
0.01775338500738144,
-0.02222808264195919,
0.15452523529529572,
0.10729410499334335,
-0.0744985044002533,
-0.2801702320575714,
-0.1879880279302597,
-0.17096607387065887,
0.03045673854649067,
-0.043386053293943405,
-0.060365479439496994,
-0.013268986716866493,
-0.3406391441822052,
0.019178738817572594,
0.07443661242723465,
0.11483325809240341,
0.11186879128217697,
-0.17776300013065338,
-0.041322994977235794,
-0.025642912834882736,
0.07127874344587326,
0.09553425759077072,
-0.028255023062229156,
0.017620615661144257,
-0.01759215258061886,
-0.19198626279830933,
-0.15406624972820282,
-0.034821175038814545,
0.04486018419265747,
-0.04809088632464409,
-0.11570227891206741,
-0.22267088294029236,
-0.35502734780311584,
0.16054847836494446,
0.08353138715028763,
0.05838287994265556,
0.09647718816995621,
-0.21732622385025024,
0.1293116956949234,
0.08731182664632797,
0.2654950022697449,
0.3468497693538666,
0.3223120868206024,
-0.023409537971019745,
0.07226929068565369,
-0.10258269309997559,
-0.04133165255188942,
0.3784438371658325,
0.06900058686733246,
0.008020409382879734,
0.029305163770914078,
-0.02902076579630375,
0.04739363119006157,
0.03855166584253311,
0.09253523498773575,
-0.03870672360062599,
-0.0034916759468615055,
0.01936975307762623,
-0.004242330323904753,
-0.01711955852806568,
0.01066132728010416,
0.0336666963994503,
-0.061771657317876816,
-0.06882130354642868,
-0.07454007118940353,
-0.07767753303050995,
0.029218686744570732,
-0.09200887382030487,
-0.0066070836037397385,
0.00041926754056476057,
-0.055482134222984314,
-0.02082282118499279,
-0.10562953352928162,
0.06155870482325554,
0.005874129012227058,
-0.07284852862358093,
-0.12927623093128204,
-0.17233364284038544,
-0.016883309930562973,
-0.022715270519256592,
-0.11845359206199646,
0.15790008008480072,
0.200031116604805,
-0.12471634149551392,
0.045773450285196304,
0.17026108503341675,
0.22694166004657745,
-0.010402748361229897,
0.07651009410619736,
0.007407745346426964,
0.08626150339841843,
-0.13765636086463928,
-0.0015947980573400855,
0.017129534855484962,
-0.06822239607572556,
-0.1454383283853531,
0.004168755374848843,
0.2364581972360611,
0.06672220677137375,
-0.05877387523651123,
0.035553574562072754,
-0.11117127537727356,
-0.061411045491695404,
-0.03578823059797287,
0.005222693085670471,
0.0814763680100441,
0.0227952990680933,
0.01104783732444048,
0.021086713299155235,
0.10724328458309174,
0.0365704670548439,
-0.031914371997117996,
-0.0042666662484407425,
-0.04526372626423836,
-0.05676620826125145,
-0.0741247907280922,
-0.06882006675004959,
-0.058542147278785706,
0.07558384537696838,
-0.004100442864000797,
-0.03483995795249939,
0.01799582690000534,
0.01714375615119934,
0.03462656959891319,
-0.05672066658735275,
0.05510263890028,
0.11950825154781342,
0.11533382534980774,
0.014063759706914425,
-0.002234072657302022,
0.0658392682671547,
-0.11172738671302795,
-0.1423584520816803,
-0.10404302924871445,
-0.09459420293569565,
-0.06738987565040588,
0.06248145550489426,
0.3085557818412781,
-0.07281645387411118,
-0.12089496850967407,
0.053094759583473206,
0.1642153263092041,
0.17717257142066956,
0.03997635468840599,
-0.056664079427719116,
0.10929849743843079,
0.016316942870616913,
-0.056052446365356445,
-0.14316053688526154,
-0.125357523560524,
-0.18267208337783813,
-0.20420873165130615,
-0.09012436866760254,
-0.05454690381884575,
-0.17740994691848755,
-0.19815674424171448,
0.0048065525479614735,
-0.05214579030871391,
-0.04657851159572601,
-0.10102981328964233,
0.03742755204439163,
0.12209780514240265,
0.15210367739200592,
-0.08536026626825333,
-0.05540918558835983,
0.12903858721256256,
-0.01265789195895195,
-0.12318076193332672,
0.08352947980165482,
0.11480262875556946,
-0.10056334733963013,
-0.24406655132770538,
-0.0074560269713401794,
0.05200359225273132,
0.003004151862114668,
-0.1619768887758255,
-0.2811910808086395,
-0.18348199129104614,
-0.10849719494581223,
-0.047767918556928635,
-0.1490110456943512,
0.04657064750790596,
0.07682515680789948,
-0.15232035517692566,
-0.1131172776222229,
0.037607066333293915,
0.03614480420947075,
0.037834275513887405,
-0.10968209058046341,
-0.04680567979812622,
-0.07833443582057953,
-0.01923198625445366,
0.0916934683918953,
0.0009856674587354064,
0.05411980301141739,
-0.03905869275331497,
0.0675092488527298,
0.0022670819889754057,
-0.06965470314025879,
0.06913740187883377,
-0.04884277656674385,
-0.06518246978521347,
-0.0013039647601544857,
-0.001140154548920691,
-0.05051135644316673,
0.010495830327272415,
-0.06117350980639458,
-0.07273099571466446,
-0.02042059227824211,
-0.04348086193203926,
-0.05683781951665878,
0.0961151123046875,
-0.01297363918274641,
-0.06159230321645737,
-0.021297669038176537,
0.11389892548322678,
0.098957359790802,
0.06726306676864624,
-0.06757605820894241,
0.011689768172800541,
0.06115495413541794,
-0.09141908586025238,
0.03155459091067314,
-0.04631354287266731,
0.026756776496767998,
0.09213350713253021,
-0.06993909925222397,
-0.04186197742819786,
-0.1078253760933876,
0.04314199462532997,
0.08451616019010544,
0.05397588014602661,
0.039968643337488174,
-0.04752252623438835,
-0.06964385509490967,
-0.05056091770529747,
0.09943683445453644,
0.022254174575209618,
0.03584377467632294,
-0.08710646629333496,
-0.04353954643011093,
0.011911610141396523,
-0.06371939182281494,
0.04859863221645355,
-0.016386795789003372,
-0.10378293693065643,
-0.06969205290079117,
-0.12162241339683533,
-0.054419420659542084,
-0.05520714819431305,
-0.08870232105255127,
0.062254976481199265,
-0.014053368009626865,
0.029847972095012665,
-0.0011242461623623967,
-0.010787640698254108,
0.05869726091623306,
0.030869491398334503,
-0.0324249193072319,
0.015845887362957,
0.03427891433238983,
-0.11043953895568848,
-0.03349301964044571,
-0.04989836737513542,
0.0664648562669754,
0.018357722088694572,
-0.07499134540557861,
-0.010324337519705296,
-0.08708455413579941,
0.06624318659305573,
0.012022741138935089,
0.03594283014535904,
-0.018534298986196518,
-0.05426010861992836,
-0.171153724193573,
-0.07071685791015625,
-0.09398694336414337,
-0.05416269600391388,
-0.01872118189930916,
-0.10411881655454636,
-0.07746762037277222,
-0.09290377050638199,
-0.06895045191049576,
-0.1445351541042328,
-0.05394882708787918,
-0.07088453322649002,
-0.07700377702713013,
0.03567203879356384,
-0.10755427181720734,
-0.08651889115571976,
0.06644346565008163,
0.07811743021011353,
0.12117484956979752,
-0.056455209851264954,
-0.07847200334072113,
-0.031936950981616974,
-0.0605340301990509,
-0.055314917117357254,
-0.07159103453159332,
-0.022307997569441795,
-0.05255793407559395,
-0.08036886155605316,
-0.08862504363059998,
-0.07274989038705826,
0.16942070424556732,
0.05895236134529114,
0.04395110905170441,
0.050362665206193924,
-0.10516475141048431,
0.1714428961277008,
-0.00912382174283266,
0.039322543889284134,
0.04390900954604149,
-0.008563477545976639,
0.12746797502040863,
0.09079262614250183,
-0.07019811123609543,
-0.002903224900364876,
0.07045835256576538,
-0.030493250116705894,
-0.04231606796383858,
-0.06553803384304047,
-0.15826667845249176,
-0.17871485650539398,
0.14632463455200195,
0.1270236372947693,
-0.09519581496715546,
-0.05171176791191101,
-0.18584580719470978,
0.0475725494325161,
0.10907664149999619,
-0.006249731872230768,
0.08806075900793076,
-0.10833229869604111,
0.005861903075128794,
0.1298544853925705,
0.09189338237047195,
0.025007372722029686,
0.03812558203935623,
-0.006188634783029556,
0.12687097489833832,
-0.021119756624102592,
0.1023617833852768,
-0.007621055468916893,
-0.006535458378493786,
-0.030310917645692825,
-0.028646523132920265,
-0.0675068125128746,
-0.0862332209944725,
0.0017988360486924648,
0.004074530676007271,
-0.0044947052374482155,
-0.027354400604963303,
-0.06593819707632065,
0.04887130483984947,
0.04825115576386452,
-0.001278154319152236,
-0.02704131044447422,
-0.08862119913101196,
0.02430455945432186,
-0.07388438284397125,
-0.00600980082526803,
0.0785566121339798,
0.010619660839438438,
-0.012667695991694927,
0.05761934816837311,
-0.01690218225121498,
0.02502940408885479,
0.0229884572327137,
-0.00988174881786108,
-0.08272666484117508,
-0.005112351384013891,
-0.027929993346333504,
0.03288697823882103,
0.09116081893444061,
0.019672947004437447,
0.009879437275230885,
0.04229649156332016,
-0.083753801882267,
-0.04696580022573471,
-0.03194589912891388,
-0.06561709940433502,
-0.15113118290901184,
-0.09428466111421585,
-0.12606161832809448,
0.056833747774362564,
0.13879132270812988,
0.027143122628331184,
-0.008108937181532383,
-0.15188120305538177,
-0.2119825929403305,
0.08655917644500732,
-0.030720259994268417,
0.09780627489089966,
0.2715980112552643,
0.06229913607239723,
-0.1043228879570961,
-0.05276558920741081,
0.016413459554314613,
0.012750827707350254,
-0.02092696726322174,
-0.03295440599322319,
0.03713664785027504,
-0.004864674527198076,
-0.06086483597755432,
-0.08535780012607574,
-0.21289215981960297,
-0.22913898527622223,
0.09598749130964279,
-0.05671296641230583,
-0.2664155662059784,
-0.295949786901474,
-0.16455768048763275,
0.04555358737707138,
0.06636926531791687,
-0.19423699378967285,
-0.2824143171310425,
-0.09766009449958801,
0.05898989737033844,
-0.02705656737089157,
-0.04398074373602867,
-0.012562032788991928,
0.046806301921606064,
0.0515035055577755,
-0.16434384882450104,
-0.19520825147628784,
0.08607962727546692,
0.24738238751888275,
0.1124291867017746,
0.015502569265663624,
-0.15679766237735748,
-0.22067399322986603,
0.057554662227630615,
-0.008313976228237152,
0.04029718413949013,
0.021481376141309738,
-0.0697103962302208,
-0.09282689541578293,
-0.050529636442661285,
-0.0942886620759964,
0.00471180584281683,
0.07370910048484802,
0.024857914075255394,
-0.04566416144371033,
-0.024432839825749397,
-0.1549578458070755,
0.010879486799240112,
-0.010443376377224922,
0.12492907792329788,
0.028189029544591904,
0.06531228125095367,
-0.12765878438949585,
-0.09747207164764404,
0.004419681616127491,
0.04676763713359833,
0.06104658544063568,
-0.13270969688892365,
-0.25870251655578613,
-0.036005422472953796,
-0.05871899798512459,
0.12467366456985474,
0.006310841999948025,
-0.20660057663917542,
-0.2210489958524704,
-0.22376301884651184,
-0.06723925471305847,
0.16810861229896545,
-0.1728959083557129,
0.022330718114972115,
-0.02731066569685936,
-0.20706787705421448,
0.14661377668380737,
-0.022484026849269867,
0.08660119771957397,
0.029360421001911163,
0.020604074001312256,
-0.21518853306770325,
-0.14666447043418884,
0.012315912172198296,
0.06640369445085526,
0.43145444989204407,
0.30297043919563293,
-0.2946249544620514,
-0.1331014782190323,
-0.089849554002285,
0.30142664909362793,
0.8669665455818176,
0.13173234462738037,
-0.17231374979019165,
-0.23500530421733856,
-0.32797300815582275,
0.21679161489009857,
0.5399551391601562,
-0.11626005172729492,
-0.042431458830833435,
-0.3627561330795288,
-0.2967653274536133,
0.1484459787607193,
0.054628580808639526,
0.036039818078279495,
0.07260943949222565,
0.07115530222654343,
0.02034064196050167,
-0.0742192342877388,
-0.0853981077671051,
0.010005651973187923,
0.0889839455485344,
0.08760584890842438,
0.05055375024676323,
-0.01819630339741707,
-0.04299907013773918,
0.008031544275581837,
0.08357294648885727,
-0.054726868867874146,
-0.06851673126220703,
-0.024130066856741905,
0.02919011004269123,
0.010813605040311813,
-0.03698237985372543,
0.00637892447412014,
0.0251133032143116,
-0.0999523177742958,
-0.074366495013237,
-0.09370145201683044,
0.01584365963935852,
-0.051172103732824326,
0.0030016840901225805,
0.003009130246937275,
-0.16520065069198608,
-0.12547411024570465,
-0.23291637003421783,
-0.24007025361061096,
-0.09892909228801727,
-0.08909714221954346,
0.04585888981819153,
0.028582485392689705,
0.1358344852924347,
0.13274525105953217,
0.09765202552080154,
0.2025386393070221,
0.2306733876466751,
0.16633673012256622,
-0.040778983384370804,
-0.039046697318553925,
-0.07169396430253983,
0.06323963403701782,
-0.13356609642505646,
-0.12340861558914185,
0.051403120160102844,
0.07951176911592484,
0.00664297491312027,
-0.0314796082675457,
-0.06216747313737869,
-0.0028272781055420637,
0.06743118166923523,
0.02290526032447815,
-0.04341818019747734,
0.019712397828698158,
-0.02390817180275917,
-0.060204681009054184,
-0.03374400734901428,
-0.020760852843523026,
0.03886613994836807,
-0.0012446314794942737,
-0.047619543969631195,
-0.05492164194583893,
-0.12070357799530029,
-0.04104792699217796,
-0.08273922652006149,
-0.030487651005387306,
-0.04031183570623398,
-0.06292431056499481,
-0.006130519323050976,
0.016964435577392578,
0.016109485179185867,
-0.0638316199183464,
-0.020786471664905548,
0.1830826699733734,
0.1642904132604599,
0.1133885532617569,
0.2028820812702179,
0.329278826713562,
0.17942607402801514,
0.01741746999323368,
-0.028505409136414528,
-0.15978720784187317,
-0.22349588572978973,
-0.16087813675403595,
-0.1429237574338913,
-0.07313738763332367,
-0.09003853797912598,
0.18334634602069855,
0.17468054592609406,
-0.0395042784512043,
0.02675347588956356,
0.07094725221395493,
0.06581635773181915,
0.00313895964063704,
-0.052428945899009705,
-0.042342182248830795,
0.09278188645839691,
0.15205301344394684,
0.09065991640090942,
-0.2214820384979248,
-0.2953389286994934,
-0.25245290994644165,
-0.13547027111053467,
-0.14778444170951843,
-0.20748862624168396,
-0.2948295772075653,
-0.2583372890949249,
-0.10397802293300629,
-0.011585895903408527,
0.04817010089755058,
0.08924538642168045,
0.17559024691581726,
0.2283235490322113,
0.06279047578573227,
-0.0042707836255431175,
0.19390742480754852,
0.1958518773317337,
-0.007650654297322035,
-0.2327180653810501,
0.043729014694690704,
0.04576663672924042,
-0.06563986092805862,
0.10309550166130066,
-0.00494723953306675,
-0.1591465026140213,
-0.031145257875323296,
-0.22873909771442413,
-0.24931824207305908,
-0.051075685769319534,
-0.24371443688869476,
-0.2298392355442047,
-0.05083379149436951,
-0.13541047275066376,
0.03540269285440445,
-0.01046784408390522,
0.06343443691730499,
0.10015138983726501,
0.009635021910071373,
-0.0476243793964386,
-0.03843546286225319,
0.07108798623085022,
0.13807368278503418,
0.12773743271827698,
0.0954982340335846,
-0.037275586277246475,
-0.05175255611538887,
-0.05400390177965164,
-0.007187786046415567,
-0.004391604568809271,
-0.050013456493616104,
-0.048873864114284515,
0.004617330152541399,
-0.05167858302593231,
0.029140358790755272,
-0.08801177144050598,
-0.10052584111690521,
0.015983616933226585,
-0.10020754486322403,
-0.03525490686297417,
0.07384269684553146,
-0.06187167018651962,
0.012291205115616322,
0.08650398254394531,
0.02266802452504635,
0.057669498026371,
0.08155853301286697,
0.03278928995132446,
0.02066550776362419,
-0.0658557116985321,
-0.00011188600910827518,
-0.12938272953033447,
-0.13291272521018982,
-0.05019007623195648,
0.10394500195980072,
-0.09173431992530823,
-0.14986194670200348,
-0.012022878043353558,
0.04311055690050125,
0.13043951988220215,
-0.004180805757641792,
-0.03590616583824158,
-0.1343744695186615,
-0.020323997363448143,
-0.08231590688228607,
-0.05833970382809639,
0.004016461316496134,
-0.011598963290452957,
-0.029867753386497498,
-0.054972417652606964,
0.059337977319955826,
0.14739787578582764,
0.15301798284053802,
0.12710008025169373,
0.12497062236070633,
-0.029494520276784897,
0.09407436102628708,
-0.00959000550210476,
0.08853565901517868,
-0.0033792024478316307,
0.011330503970384598,
0.09869978576898575,
-0.02590285986661911,
0.08934678882360458,
-0.01058934535831213,
0.17707109451293945,
0.002326391404494643,
-0.004933701828122139,
-0.06190130487084389,
0.03613331913948059,
0.11324917525053024,
-0.0071898773312568665,
-0.014289669692516327,
0.020233875140547752,
-0.06931480020284653,
0.0810992643237114,
0.013057145290076733,
0.024731876328587532,
-0.10449628531932831,
0.009291679598391056,
-0.06925857067108154,
0.08174940198659897,
-0.08602502197027206,
0.04569145664572716,
-0.05216322839260101,
0.016525594517588615,
0.08822201192378998,
-0.08957422524690628,
0.014967216178774834,
-0.05098604038357735,
-0.0012365082511678338,
-0.05892167240381241,
-0.10290305316448212,
-0.0338176004588604,
0.08797582983970642,
-0.060515400022268295,
-0.05450049042701721,
-0.10572467744350433,
-0.11669327318668365,
-0.07613376528024673,
0.06755557656288147,
-0.06528344005346298,
0.021410183981060982,
-0.028289368376135826,
-0.17123693227767944,
0.19525456428527832,
-0.04112297669053078,
-0.0018244722159579396,
0.1097492128610611,
0.22770333290100098,
0.009227563627064228,
-0.11775466799736023,
-0.07953627407550812,
-0.022417902946472168,
0.10981779545545578,
-0.13927526772022247,
-0.0412428081035614,
-0.152984619140625,
-0.07016555219888687,
0.06331060826778412,
-0.11826059222221375,
-0.010311033576726913,
-0.09453443437814713,
-0.21951401233673096,
-0.1501140296459198,
-0.025674257427453995,
0.10325223952531815,
0.10587022453546524,
-0.06017129868268967,
0.028068892657756805,
0.04162391275167465,
0.06487473845481873,
-0.0033891103230416775,
-0.028306856751441956,
-0.0026944493874907494,
0.10630282759666443,
0.05798192694783211,
-0.14035846292972565,
-0.09209168702363968,
0.1188899502158165,
0.0711047574877739,
-0.08086207509040833,
-0.14549620449543,
-0.05040980130434036,
0.02631307765841484,
-0.12854619324207306,
-0.055273085832595825,
-0.033981118351221085,
-0.02961239032447338,
-0.21112845838069916,
-0.018500681966543198,
0.18415352702140808,
0.20244286954402924,
0.13681626319885254,
0.10718100517988205,
-0.005394395906478167,
-0.05050056800246239,
-0.06375647336244583,
-0.02777872234582901,
0.012902646325528622,
-0.02301306650042534,
-0.01563081704080105,
-0.04376320540904999,
0.04453977197408676,
-0.05702360346913338,
0.01668618619441986,
0.0611707977950573,
0.05045712739229202,
-0.04621550813317299,
0.019236959517002106,
-0.06394585967063904,
0.010658415965735912,
-0.016759680584073067,
-0.10008791834115982,
-0.0016038278117775917,
-0.07126632332801819,
0.0341351293027401,
-0.010809711180627346,
-0.08873962610960007,
0.054038118571043015,
0.07382659614086151,
0.041584312915802,
-0.006774586625397205,
-0.0008636711863800883,
0.0012693946482613683,
-0.06237504631280899,
-0.12417581677436829,
0.03035053238272667,
0.015543920919299126,
0.045359160751104355,
0.09375739097595215,
0.2847241163253784,
0.23043881356716156,
0.10624273866415024,
0.008476430550217628,
-0.11110907793045044,
-0.01910577528178692,
-0.03365463390946388,
-0.11952131241559982,
-0.07731953263282776,
-0.06505130231380463,
-0.02994575724005699,
0.14450551569461823,
0.044084589928388596,
0.006366999354213476,
0.05834255740046501,
-0.008424218744039536,
0.08292932063341141,
0.026168683543801308,
0.03238679841160774,
0.07014334946870804,
-0.01483701542019844,
0.10312724113464355,
-0.023891769349575043,
-0.043682605028152466,
0.06167520955204964,
-0.06140432134270668,
-0.09096801280975342,
-0.15842217206954956,
-0.07411500811576843,
-0.08013281971216202,
-0.10476157069206238,
-0.08256421238183975,
-0.009199490770697594,
-0.029248295351862907,
0.029050687327980995,
-0.04567631334066391,
-0.07082032412290573,
-0.028825417160987854,
0.006410706788301468,
0.01726525090634823,
-0.06684271991252899,
0.15472173690795898,
0.14900518953800201,
-0.0017807974945753813,
-0.05838586390018463,
-0.020240066573023796,
0.03428220748901367,
0.02793084643781185,
-0.08954742550849915,
-0.04180814325809479,
-0.09072646498680115,
-0.16507461667060852,
0.024123281240463257,
-0.017182055860757828,
0.08544117212295532,
0.3916209042072296,
0.5046401023864746,
0.3304445147514343,
0.1397767961025238,
-0.15974661707878113,
-0.19544827938079834,
-0.1358548402786255,
-0.14253441989421844,
-0.07731781154870987,
0.000488573219627142,
0.13108471035957336,
-0.07027140259742737,
-0.05406699702143669,
-0.19415384531021118,
0.02511141635477543,
-0.038206715136766434,
-0.14186438918113708,
0.02160453423857689,
0.05513675883412361,
0.07585939764976501,
-0.03562508523464203,
0.14478574693202972,
0.13171406090259552,
-0.044508226215839386,
-0.1271953582763672,
-0.16560712456703186,
-0.05560944601893425,
-0.07457924634218216,
0.014966647140681744,
-0.08037113398313522,
-0.24267961084842682,
-0.17511619627475739,
0.015842141583561897,
0.05349628999829292,
-0.04217012599110603,
-0.036520376801490784,
-0.04401616379618645,
-0.06814169883728027,
-0.008019574917852879,
-0.11833559721708298,
-0.14214719831943512,
-0.1333790421485901,
-0.1088012307882309,
0.017164431512355804,
0.13295122981071472,
0.31889429688453674,
0.14035828411579132,
0.11874090135097504,
-0.04630393162369728,
-0.01827412098646164,
-0.14338158071041107,
-0.038800131529569626,
-0.00807924009859562,
-0.048334408551454544,
0.048841264098882675,
-0.041376665234565735,
-0.10299938917160034,
-0.12696996331214905,
0.00661011878401041,
0.006516437511891127,
0.011532342061400414,
0.04677356034517288,
-0.006468455772846937,
-0.02956545166671276,
0.008852423168718815,
0.1030099168419838,
0.019586216658353806,
-0.03710934519767761,
-0.03996730595827103,
0.0475786030292511,
-0.03705126419663429,
-0.005971070844680071,
0.04716121777892113,
0.0224327202886343,
0.06308482587337494,
0.11010445654392242,
-0.018802855163812637,
-0.004630866460502148,
0.0145103232935071,
-0.06927075982093811,
-0.0852859616279602,
-0.040446244180202484,
0.0037963222712278366,
-0.04618684947490692,
-0.03562333062291145,
0.04260741174221039,
-0.0520034097135067,
-0.06263966858386993,
-0.08651690930128098,
0.06344297528266907,
-0.010853338055312634,
-0.14491932094097137,
-0.14785610139369965,
-0.10963757336139679,
0.1020975410938263,
-0.09495957940816879,
-0.20468570291996002,
-0.06772473454475403,
0.018412193283438683,
-0.08193260431289673,
-0.1443801075220108,
0.013302771374583244,
0.012997252866625786,
0.11807220429182053,
-0.033107317984104156,
0.01910456456243992,
0.032047905027866364,
0.12175755947828293,
0.06524915993213654,
-0.11486067622900009,
-0.07600122690200806,
-0.08768612146377563,
-0.0018518120050430298,
-0.06374940276145935,
-0.07080856710672379,
-0.0706837996840477,
0.18053103983402252,
0.16305403411388397,
-0.02949032559990883,
0.011539235711097717,
0.09114997088909149,
0.22518840432167053,
0.10791651904582977,
-0.010170848108828068,
-0.0404193252325058,
0.2272055745124817,
0.08858955651521683,
-0.05299589782953262,
-0.059412118047475815,
0.034819670021533966,
0.027108529582619667,
0.025199905037879944,
-0.05813919007778168,
-0.07796098291873932,
0.07545790821313858,
-0.1293877214193344,
-0.09673330187797546,
0.07325170189142227,
0.07184987515211105,
-0.11700154840946198,
-0.02171405777335167,
0.09525210410356522,
0.036486368626356125,
-0.20168551802635193,
-0.12230996042490005,
0.14607621729373932,
0.007896353490650654,
-0.28151246905326843,
-0.13717272877693176,
-0.03374508395791054,
0.041630182415246964,
-0.08064659684896469,
-0.15058690309524536,
0.017611004412174225,
-0.12681826949119568,
-0.11624763906002045,
-0.18412216007709503,
-0.18352550268173218,
-0.08114125579595566,
-0.23414315283298492,
0.15960507094860077,
0.18143843114376068,
0.010594943538308144,
-0.1765018105506897,
0.08467372506856918,
0.37841588258743286,
-0.027774017304182053,
-0.2037830948829651,
-0.15851867198944092,
0.3127348721027374,
0.3344690501689911,
-0.32723385095596313,
-0.15935499966144562,
0.008543659932911396,
0.2245764136314392,
-0.039261989295482635,
-0.32376810908317566,
0.11779754608869553,
0.08419977128505707,
0.00206681783311069,
-0.13567674160003662,
0.06605211645364761,
0.19660283625125885,
0.18374113738536835,
-0.04914706572890282,
0.013994023203849792,
0.11010480672121048,
-0.18035775423049927,
-0.19304914772510529,
-0.08782784640789032,
0.04159999266266823,
-0.05935664102435112,
-0.10437323153018951,
-0.14744289219379425,
-0.12838950753211975,
-0.007425799500197172,
-0.02569657564163208,
-0.25383031368255615,
-0.06698233634233475,
-0.0020861634984612465,
0.11463732272386551,
-0.233244851231575,
-0.1275094747543335,
0.06647307425737381,
0.09041644632816315,
0.0632554292678833,
-0.0952090322971344,
0.039128053933382034,
0.07878431677818298,
0.037868682295084,
-0.027191024273633957,
0.058868397027254105,
0.0015314604388549924,
0.026034241542220116,
0.03075830638408661,
0.05346935614943504,
0.10574112832546234,
-0.016877418383955956,
-0.05161592736840248,
0.025129210203886032,
0.16023318469524384,
-0.0005109708872623742,
-0.07245447486639023,
-0.026118746027350426,
0.06367183476686478,
-0.015138222835958004,
0.027754785493016243,
0.02705683745443821,
0.005688968114554882,
-0.025108786299824715,
0.07462780177593231,
-0.05502971634268761,
-0.051878783851861954,
-0.041119884699583054,
0.02157406508922577,
0.15634824335575104,
0.09496622532606125,
-0.0028176396153867245,
0.040416646748781204,
0.026769675314426422,
-0.05929286777973175,
-0.14075924456119537,
-0.14658278226852417,
-0.08005562424659729,
-0.10813197493553162,
-0.02006375789642334,
-0.02803697995841503,
-0.08970459550619125,
-0.015347621403634548,
-0.04622446745634079,
0.04312442988157272,
0.07412106543779373,
-0.022473523393273354,
-0.1120319738984108,
-0.037723127752542496,
0.08956900238990784,
0.016163840889930725,
-0.05952327325940132,
-0.02694089151918888,
-0.08409157395362854,
0.014542562887072563,
-0.07228729873895645,
-0.004550365265458822,
-0.08367834985256195,
-0.07306575030088425,
-0.05889814347028732,
0.10078944265842438,
0.08289093524217606,
-0.054674673825502396,
-0.08995919674634933,
-0.07941306382417679,
-0.06294024735689163,
0.021882442757487297,
-0.0820881724357605,
0.025746190920472145,
0.009251163341104984,
-0.12346093356609344,
-0.10678363591432571,
-0.10118792951107025,
-0.05639522150158882,
-0.11706651002168655,
0.05467907711863518,
0.03268294408917427,
0.04525095969438553,
-0.14503231644630432,
-0.019462481141090393,
-0.06279753148555756,
0.13013780117034912,
-0.016000082716345787,
0.11571617424488068,
0.15799173712730408,
0.18395012617111206,
0.16013318300247192,
0.016851799562573433,
0.08667204529047012,
-0.023089298978447914,
-0.005482446402311325,
-0.06203510984778404,
0.06666744500398636,
-0.03878171369433403,
-0.02730533480644226,
-0.11268235743045807,
-0.016972750425338745,
-0.03770524635910988,
-0.025261608883738518,
0.03870667889714241,
0.04776893928647041,
-0.00582600524649024,
-0.027230586856603622,
0.12607307732105255,
0.18249782919883728,
0.022494757547974586,
-0.002617401536554098,
0.004637387115508318,
0.15033936500549316,
0.08643719553947449,
-0.10497850924730301,
-0.03952677920460701,
-0.08015686273574829,
-0.041557371616363525,
-0.12455249577760696,
-0.17875343561172485,
-0.19728955626487732,
-0.10871400684118271,
-0.09969479590654373,
0.010659809224307537,
-0.020027579739689827,
-0.10351529717445374,
-0.14925242960453033,
-0.04325112700462341,
0.022979507222771645,
0.07812117040157318,
-0.1092214360833168,
-0.04053552821278572,
0.19482994079589844,
0.06569164246320724,
0.05137175694108009,
0.03220013529062271,
0.06113054230809212,
0.14337971806526184,
-0.1139368787407875,
-0.025738418102264404,
-0.05776546522974968,
-0.0522652268409729,
0.015724143013358116,
-0.029492298141121864,
-0.10659699141979218,
-0.2088889479637146,
-0.17488329112529755,
-0.09952454268932343,
-0.016101764515042305,
0.013481422327458858,
-0.07496495544910431,
-0.1530771553516388,
-0.07438923418521881,
0.005435118917375803,
0.1603514403104782,
-0.007866640575230122,
-0.13285225629806519,
-0.04522294923663139,
-0.03735507279634476,
-0.08145804703235626,
-0.05306582525372505,
-0.04989819973707199,
-0.05904676765203476,
-0.0005211408133618534,
0.030382875353097916,
-0.08253223448991776,
0.020022213459014893,
-0.020019590854644775,
0.04072127118706703,
0.012639716267585754,
-0.09184233099222183,
0.010486028157174587,
0.030555762350559235,
0.05584577098488808,
-0.027590429410338402,
-0.05716850608587265,
-0.011255309917032719,
0.021252697333693504,
0.04732128232717514,
-0.026285648345947266,
-0.08092506974935532,
0.02493688091635704,
-0.06705421954393387,
-0.1548975557088852,
-0.012877002358436584,
0.14692305028438568,
-0.10260435938835144,
-0.021408824250102043,
-0.02960384078323841,
0.1546059101819992,
0.11188700795173645,
-0.141586571931839,
-0.03497106954455376,
-0.08156538754701614,
0.10198839008808136,
-0.07430136203765869,
-0.07904054969549179,
-0.07788030803203583,
-0.16290932893753052,
0.033176809549331665,
-0.05857572704553604,
-0.05657777935266495,
0.0018049735808745027,
-0.05635495111346245,
0.01776914857327938,
0.03934208303689957,
-0.026857541874051094,
0.004659340716898441,
0.07382843643426895,
0.03712155669927597,
0.062256041914224625,
0.032808803021907806,
0.04760366678237915,
0.1255219280719757,
0.09393946826457977,
-0.03428026661276817,
0.04930216446518898,
-0.005744842812418938,
0.11952506750822067,
0.10123737156391144,
-0.03463339805603027,
0.24409137666225433,
0.08045215904712677,
0.13586094975471497,
-0.09322493523359299,
0.1551322340965271,
0.20612312853336334,
0.026394126936793327,
0.07009516656398773,
0.07589305192232132,
0.07267583161592484,
-0.018802883103489876,
-0.002458946080878377,
0.02248716913163662,
0.003966853022575378,
-0.11622566729784012,
-0.01425799448043108,
0.032775722444057465,
-0.02809145860373974,
-0.1612042784690857,
-0.10564477741718292,
0.20157533884048462,
-0.11116161942481995,
-0.04758821427822113,
-0.24312885105609894,
0.010953014716506004,
-0.02369137480854988,
-0.06591760367155075,
-0.14403270184993744,
-0.12240586429834366,
-0.11986924707889557,
-0.10359837114810944,
-0.052988987416028976,
-0.12961113452911377,
-0.19548417627811432,
-0.05797713249921799,
-0.12782908976078033,
0.007467331364750862,
-0.017156342044472694,
-0.1399490088224411,
0.12679383158683777,
0.062312062829732895,
-0.02534763142466545,
-0.1861954778432846,
0.19806931912899017,
0.18528565764427185,
-0.2082614302635193,
-0.18055199086666107,
-0.07777034491300583,
0.3510452210903168,
0.1654656082391739,
-0.3361915946006775,
-0.2376423329114914,
-0.052360065281391144,
0.2875613868236542,
-0.05304946005344391,
-0.1033322885632515,
-0.019525714218616486,
-0.03459649905562401,
0.2293054610490799,
-0.11462236940860748,
-0.11544855684041977,
0.01568017341196537,
-0.14744438230991364,
-0.0666830837726593,
-0.10470183193683624,
-0.04804995283484459,
0.014158482663333416,
-0.20096446573734283,
-0.11725577712059021,
0.014000101014971733,
-0.10594547539949417,
0.011331742629408836,
-0.24609071016311646,
-0.07469791173934937,
0.11516383290290833,
-0.11487248539924622,
-0.04825501888990402,
-0.24355009198188782,
-0.008228417485952377,
0.3359675407409668,
-0.1844867467880249,
0.044351402670145035,
-0.14266593754291534,
-0.04279211163520813,
0.29560837149620056,
-0.14209294319152832,
0.03883470222353935,
-0.07418079674243927,
0.06725561618804932,
0.05276933312416077,
-0.03658151626586914,
-0.04673076793551445,
0.04521726444363594,
0.014423091895878315,
0.11525731533765793,
0.06334026157855988,
-0.0490836575627327,
-0.021972984075546265,
0.14669713377952576,
0.18147329986095428,
0.005669682752341032,
-0.04896889254450798,
-0.032081637531518936,
0.06676056981086731,
0.00148765929043293,
-0.009825162589550018,
0.027067286893725395,
0.04483205825090408,
0.022086644545197487,
0.0663222149014473,
0.05383925884962082,
-0.11378450691699982,
-0.09302428364753723,
-0.08969762921333313,
-0.004972371272742748,
0.03551804646849632,
0.004810911137610674,
-0.1760486513376236,
0.17636246979236603,
0.15683983266353607,
0.01349675003439188,
-0.004359884653240442,
0.19343703985214233,
0.1932578831911087,
-0.06472180783748627,
-0.04732856526970863,
0.20589613914489746,
0.14213362336158752,
-0.1996065378189087,
0.0297629963606596,
0.04822329804301262,
-0.08909037709236145,
-0.14076410233974457,
0.08777680993080139,
0.020456690341234207,
-0.1553668975830078,
-0.02488379180431366,
0.029701650142669678,
0.002891586860641837,
0.09521038085222244,
-0.023499540984630585,
-0.02206629328429699,
0.023765137419104576,
0.022798581048846245,
-0.1194172352552414,
0.005740492604672909,
-0.11707189679145813,
0.08221385627985,
-0.03976335749030113,
-0.13256986439228058,
-0.01688907854259014,
0.03799434378743172,
-0.03568517789244652,
-0.1325935572385788,
-0.11309278756380081,
-0.008594498038291931,
-0.09918443858623505,
-0.040602702647447586,
-0.051520951092243195,
-0.03484064340591431,
-0.014147729612886906,
-0.051336780190467834,
0.008280414156615734,
0.0063459426164627075,
0.1011187881231308,
-0.11741309612989426,
-0.1685522049665451,
0.020194856449961662,
-0.034061942249536514,
-0.16228604316711426,
0.14605067670345306,
0.018415391445159912,
-0.14660301804542542,
-0.08043785393238068,
0.18426842987537384,
0.06324025243520737,
-0.2099820226430893,
-0.08048790693283081,
0.24957206845283508,
0.1838260143995285,
0.03814199939370155,
-0.10948871821165085,
0.09607532620429993,
-0.03126116096973419,
0.03483736887574196,
0.07806910574436188,
-0.09882091730833054,
-0.03034118376672268,
-0.18390698730945587,
-0.1640537828207016,
-0.10035885870456696,
-0.1891675889492035,
-0.25228795409202576,
0.022534985095262527,
-0.02080402709543705,
-0.053183700889348984,
0.02194679155945778,
0.05771857500076294,
0.1693163812160492,
0.04724184423685074,
-0.10211260616779327,
0.2225853055715561,
0.15784665942192078,
0.08655949681997299,
-0.2453889399766922,
-0.10032960772514343,
0.22263585031032562,
-0.054292161017656326,
-0.23057718575000763,
-0.155668243765831,
-0.03008265234529972,
-0.07142014056444168,
0.03125236928462982,
-0.18446534872055054,
-0.07729776948690414,
-0.08092110604047775,
-0.0814705565571785,
-0.16003936529159546,
0.05544999614357948,
0.1046176478266716,
-0.031331632286310196,
-0.05358774587512016,
0.12848222255706787,
0.05097644031047821,
0.09337708353996277,
0.1254735291004181,
0.17038001120090485,
0.02305435575544834,
0.10463305562734604,
0.18776094913482666,
0.11124105751514435,
-0.061230551451444626,
0.05309608578681946,
0.027403326705098152,
-0.05657278746366501,
-0.16303320229053497,
0.0745115578174591,
-0.03102666512131691,
-0.05244496837258339,
0.0696820542216301,
-0.0644516870379448,
0.06390063464641571,
-0.029880980029702187,
0.04082673043012619,
0.06409107148647308,
-0.005013232119381428,
-0.04581691324710846,
-0.008035341277718544,
-0.035483211278915405,
0.08124475926160812,
-0.030014323070645332,
-0.07865171134471893,
0.06616827100515366,
0.0783732533454895,
-0.05049041658639908,
-0.04012585058808327,
0.06684451550245285,
0.0765753984451294,
0.030862094834446907,
-0.011881593614816666,
0.047353241592645645,
0.09174928814172745,
-0.004894939251244068,
-0.14034852385520935,
-0.1519431173801422,
-0.044879429042339325,
0.11245471984148026,
-0.0942251980304718,
-0.19415810704231262,
-0.10688794404268265,
0.04830055311322212,
0.041194021701812744,
-0.023692918941378593,
-0.16805501282215118,
-0.06202968209981918,
-0.13770027458667755,
-0.042693089693784714,
0.02724483609199524,
-0.015672530978918076,
-0.15171796083450317,
-0.031184999272227287,
-0.0874079018831253,
0.03727036714553833,
-0.12395161390304565,
-0.09418728202581406,
0.005152757745236158,
-0.06133747100830078,
0.022834675386548042,
-0.0705694928765297,
0.060300737619400024,
-0.012183040380477905,
-0.0009900241857394576,
-0.010988572612404823,
0.1408640593290329,
-0.06323439627885818,
0.04922376945614815,
-0.033347468823194504,
0.08613089472055435,
0.12033005803823471,
-0.0859794095158577,
0.03854471817612648,
0.08051853626966476,
0.018245546147227287,
-0.0024620930198580027,
-0.01796257123351097,
0.002995442831888795,
-0.026335785165429115,
-0.04487814009189606,
0.03370489925146103,
0.08823083341121674,
-0.08083199709653854,
0.050264645367860794,
-0.01307486928999424,
-0.017150238156318665,
-0.04877519607543945,
-0.15232647955417633,
0.0840747207403183,
0.12707141041755676,
-0.06359127908945084,
-0.25205332040786743,
-0.28213003277778625,
0.10551679134368896,
0.01179998554289341,
-0.15505020320415497,
-0.29413124918937683,
-0.2638203203678131,
0.23398038744926453,
0.10591261088848114,
-0.1662961095571518,
-0.2135571390390396,
-0.18040308356285095,
-0.040116239339113235,
-0.08670230954885483,
-0.07925485074520111,
-0.14292564988136292,
-0.11619202047586441,
0.07060469686985016,
0.0231783464550972,
-0.004252641461789608,
0.14940890669822693,
0.25741544365882874,
0.18849603831768036,
0.021685095503926277,
-0.2106657773256302,
0.20600861310958862,
0.3062955439090729,
0.14648877084255219,
-0.11196055263280869,
-0.11980006843805313,
0.2828048765659332,
0.17176517844200134,
0.018721358850598335,
-0.042927686125040054,
0.06723809242248535,
0.22669920325279236,
0.011186481453478336,
0.050443463027477264,
0.039287034422159195,
0.05814381688833237,
0.03771313279867172,
-0.11423453688621521,
0.020409973338246346,
0.07229072600603104,
-0.19352830946445465,
-0.14191769063472748,
0.10669644176959991,
0.052201468497514725,
0.08153708279132843,
-0.14776773750782013,
-0.14317560195922852,
0.05611339956521988,
-0.0585901103913784,
-0.05725122615695,
-0.17721599340438843,
-0.22936706244945526,
0.13908953964710236,
-0.0834549143910408,
-0.06518671661615372,
-0.14310504496097565,
-0.08178756386041641,
0.23006302118301392,
-0.05161324888467789,
-0.017218006774783134,
-0.16558194160461426,
-0.00659446744248271,
-0.013812728226184845,
0.007926019839942455,
-0.037038836628198624,
-0.030639545992016792,
0.049781035631895065,
0.03554282337427139,
-0.0790959969162941,
-0.0011413710890337825,
-0.08782565593719482,
-0.0651189461350441,
0.1265154778957367,
-0.053452733904123306,
-0.004420334007591009,
-0.09406997263431549,
-0.03582993522286415,
0.02487984113395214,
0.041450146585702896,
0.004241815768182278,
0.0636044293642044,
0.05660513415932655,
0.056231316179037094,
0.07866345345973969,
-0.04387988522648811,
-0.031159240752458572,
0.015877997502684593,
0.013157919980585575,
0.002211574465036392,
-0.02371879667043686,
0.09449875354766846,
0.07596385478973389,
-0.0759848952293396,
-0.1453852504491806,
-0.13660936057567596,
0.09035694599151611,
-0.12440444529056549,
-0.09926264733076096,
-0.06586933135986328,
-0.03297749534249306,
-0.022065332159399986,
-0.13124217092990875,
0.019250506535172462,
-0.11453954130411148,
-0.040339287370443344,
0.10263220220804214,
0.07477587461471558,
0.018650177866220474,
-0.02416662499308586,
-0.11642590165138245,
0.004152051173150539,
-0.04700418561697006,
-0.04505583271384239,
0.006557163316756487,
-0.04124992713332176,
-0.045277539640665054,
-0.019956206902861595,
-0.06124904751777649,
-0.0545249804854393,
-0.032234128564596176,
-0.007683494593948126,
0.050680045038461685,
0.1082269698381424,
0.031061675399541855,
0.023484094068408012,
0.008855889551341534,
0.05086291953921318,
0.09487884491682053,
-0.02712950110435486,
-0.03509540483355522,
-0.06697964668273926,
0.04385889321565628,
-0.021329639479517937,
0.05781461298465729,
-0.027489131316542625,
-0.05830208212137222,
-0.03920375555753708,
-0.14412899315357208,
-0.06207677349448204,
-0.028810208663344383,
-0.05665402486920357,
0.05724851042032242,
0.11807791888713837,
-0.03142582252621651,
-0.1353563815355301,
-0.23988381028175354,
-0.12574051320552826,
0.17478759586811066,
-0.20087310671806335,
-0.16740694642066956,
-0.13180573284626007,
-0.1474519520998001,
-0.018374735489487648,
0.10156185925006866,
-0.008152597583830357,
0.07981805503368378,
-0.004709368571639061,
0.02114865742623806,
-0.07561017572879791,
-0.12219379097223282,
-0.020212575793266296,
-0.10032732039690018,
0.06270816922187805,
-0.02556338533759117,
0.11628495901823044,
0.0430438295006752,
-0.08150035887956619,
-0.13996919989585876,
-0.082212433218956,
0.16041351854801178,
0.26679953932762146,
-0.04704933986067772,
-0.27979061007499695,
-0.1324259638786316,
0.1488294154405594,
0.3083506226539612,
-0.1794189065694809,
-0.13442692160606384,
-0.10515983402729034,
0.08524999022483826,
0.2769961953163147,
-0.247954860329628,
-0.13219252228736877,
0.020405879244208336,
-0.021961001679301262,
0.040177855640649796,
-0.02292521484196186,
-0.12205507606267929,
-0.08120483160018921,
0.06447119265794754,
0.056535858660936356,
-0.00019136432092636824,
-0.045137085020542145,
-0.1773443967103958,
-0.09429015219211578,
0.18603217601776123,
0.04273343086242676,
-0.21232475340366364,
-0.2835591733455658,
-0.1958058625459671,
0.15966127812862396,
0.23020994663238525,
-0.2718517482280731,
-0.1825075000524521,
-0.11923297494649887,
0.27972641587257385,
0.2738457918167114,
-0.1568678766489029,
-0.16391786932945251,
-0.19009901583194733,
0.0557321161031723,
0.18457543849945068,
-0.0602041594684124,
0.05050266534090042,
-0.07821836322546005,
0.06620419025421143,
0.03314543887972832,
0.06212097406387329,
-0.0874495580792427,
0.01776519976556301,
-0.03448004275560379,
-0.024247080087661743,
-0.06140263006091118,
-0.0641922876238823,
0.01624375954270363,
-0.04790182039141655,
0.05832427740097046,
0.0467495359480381,
-0.04103882238268852,
-0.06993786245584488,
-0.035307083278894424,
-0.02760452777147293,
0.04824640601873398,
-0.02955683134496212,
-0.06798863410949707,
0.049798816442489624,
0.02266526408493519,
0.0777478739619255,
-0.02168322540819645,
-0.0849175751209259,
-0.033075883984565735,
0.07997478544712067,
0.06840592622756958,
0.03449127450585365,
-0.1113291010260582,
-0.03249001502990723,
0.04035518318414688,
0.12784259021282196,
0.11542081832885742,
-0.028623640537261963,
-0.024553515017032623,
0.05108879879117012,
-0.05489476025104523,
-0.016437362879514694,
-0.1402912586927414,
-0.15310566127300262,
0.029136227443814278,
0.000766331737395376,
-0.11237753182649612,
-0.012174195609986782,
-0.001808654866181314,
-0.02823830023407936,
-0.1154596135020256,
-0.0993562638759613,
-0.010920005850493908,
-0.01784452423453331,
-0.06746219843626022,
0.003743315814062953,
-0.0013278818223625422,
-0.0632067397236824,
-0.07841382920742035,
-0.06976553797721863,
0.04200221598148346,
-0.0943833589553833,
-0.05968726426362991,
0.041300445795059204,
-0.0869453027844429,
0.07489436864852905,
-0.056329768151044846,
-0.01399950496852398,
-0.02911757118999958,
-0.031460896134376526,
0.03711295872926712,
0.027871841564774513,
-0.017688846215605736,
-0.11965396255254745,
-0.02992236614227295,
0.06671907007694244,
-0.026446007192134857,
0.004774315282702446,
0.018422694876790047,
-0.02961178496479988,
-0.03533653914928436,
-0.04429283365607262,
0.02541946806013584,
-0.1821574717760086,
-0.25865378975868225,
-0.06952884793281555,
0.030414996668696404,
0.07301819324493408,
-0.20248055458068848,
-0.2923926115036011,
-0.04499182105064392,
0.142938494682312,
0.10608302056789398,
-0.14642620086669922,
-0.11412186920642853,
0.008173519745469093,
0.0026830846909433603,
-0.1451299786567688,
-0.06041743978857994,
-0.03265906870365143,
-0.03619828820228577,
-0.09503176063299179,
0.013143600896000862,
-0.05068766325712204,
0.002496622269973159,
-0.02776332013309002,
-0.12343583256006241,
-0.05626596137881279,
0.09698865562677383,
0.23256205022335052,
-0.030221203342080116,
0.08969885110855103,
-0.1258433610200882,
0.10864509642124176,
0.3481844961643219,
-0.09365422278642654,
-0.05073846876621246,
-0.15246093273162842,
0.18301914632320404,
0.27691587805747986,
-0.25582611560821533,
-0.04678187519311905,
-0.10521461814641953,
0.12349753826856613,
0.14371319115161896,
-0.2610056400299072,
-0.08857900649309158,
-0.025312818586826324,
-0.03487023338675499,
0.10096751898527145,
-0.031525012105703354,
0.03189613297581673,
-0.16324613988399506,
-0.17838747799396515,
0.0934380367398262,
0.0860552191734314,
0.30466601252555847,
-0.02918184921145439,
-0.13548322021961212,
0.012324674986302853,
0.14485494792461395,
0.10560540109872818,
-0.008915037848055363,
-0.10620062053203583,
0.1480282098054886,
0.10286486148834229,
-0.05161762982606888,
-0.18625284731388092,
-0.08791609108448029,
0.15749086439609528,
0.08350247144699097,
-0.021267004311084747,
0.012640837579965591,
-0.07329447567462921,
-0.011657617054879665,
0.04803561419248581,
0.01657680794596672,
-0.006676740013062954,
-0.02622220478951931,
-0.012369483709335327,
0.08642665296792984,
0.05143100768327713,
-0.05422332137823105,
0.03938686475157738,
0.03050045110285282,
0.07330013811588287,
-0.07345157861709595,
0.03371443226933479,
-0.012703699991106987,
0.08100155740976334,
0.07251536846160889,
0.023810075595974922,
0.019464682787656784,
0.08792965859174728,
-0.03720390424132347,
-0.05289074406027794,
-0.10801675170660019,
0.059057485312223434,
0.1377020925283432,
-0.025477884337306023,
-0.02173604629933834,
0.14177602529525757,
0.13334213197231293,
0.071294404566288,
-0.11663679033517838,
-0.1004570797085762,
0.14414232969284058,
-0.051309872418642044,
-0.10118576139211655,
0.007821565493941307,
-0.0033412075135856867,
-0.09051171690225601,
-0.1149556040763855,
0.012470593675971031,
-0.05188210681080818,
0.0005669458187185228,
-0.04911583289504051,
0.08129075169563293,
0.08831917494535446,
-0.09322653710842133,
-0.12389649450778961,
-0.04899872466921806,
-0.05918600782752037,
-0.059042900800704956,
-0.10170631110668182,
0.026229780167341232,
-0.07199183851480484,
-0.040140122175216675,
0.0039062434807419777,
0.11004766076803207,
0.08463025838136673,
-0.04716571792960167,
-0.08481445163488388,
0.00982588529586792,
-0.025726208463311195,
-0.08695271611213684,
-0.05349240452051163,
0.013855612836778164,
0.09753934293985367,
-0.0680728331208229,
-0.1363448053598404,
-0.10063032805919647,
-0.13084861636161804,
-0.057994697242975235,
-0.2109193503856659,
-0.12873981893062592,
0.1393296867609024,
-0.14810670912265778,
-0.18006175756454468,
0.0001285106409341097,
0.18376031517982483,
-0.124139703810215,
-0.2290000170469284,
-0.09039962291717529,
0.182703897356987,
0.13522709906101227,
0.0028656760696321726,
-0.0012205606326460838,
0.2336362600326538,
0.03984344005584717,
-0.027587229385972023,
0.1418953388929367,
0.12147757411003113,
0.010461290366947651,
0.021297773346304893,
0.006857918109744787,
-0.020039595663547516,
0.05448911711573601,
-0.081061452627182,
-0.02000567875802517,
-0.049285709857940674,
-0.2141059786081314,
0.029665160924196243,
0.25709831714630127,
0.100860096514225,
-0.028704367578029633,
-0.10840144008398056,
0.28734883666038513,
0.24091285467147827,
-0.018171081319451332,
-0.18334725499153137,
0.19784118235111237,
0.18996866047382355,
0.05646399408578873,
-0.18277211487293243,
-0.15179996192455292,
0.035541556775569916,
-0.07147858291864395,
-0.18938255310058594,
-0.05772705376148224,
-0.18479463458061218,
-0.10413017868995667,
-0.12594929337501526,
-0.17779067158699036,
-0.0679331123828888,
-0.1607459932565689,
-0.07445274293422699,
-0.10451923310756683,
0.0072492025792598724,
0.11799594014883041,
-0.04163675010204315,
-0.061577245593070984,
-0.037708524614572525,
0.025459835305809975,
-0.05615648254752159,
-0.06683049350976944,
-0.02324530854821205,
-0.13810855150222778,
0.1071062833070755,
0.08502824604511261,
0.01849885657429695,
-0.04808179661631584,
0.19788192212581635,
-0.038392458111047745,
-0.011093885637819767,
0.05212371423840523,
-0.04583463817834854,
0.04096521437168121,
0.019263410940766335,
-0.08036589622497559,
-0.12651212513446808,
0.02288837917149067,
0.0377337709069252,
-0.0409073568880558,
-0.050605498254299164,
-0.003936106339097023,
-0.043711189180612564,
-0.036731503903865814,
-0.0040427944622933865,
-0.026489991694688797,
-0.043097689747810364,
-0.041891325265169144,
-0.02228877879679203,
0.01998419314622879,
-0.011104712262749672,
0.036626026034355164,
0.06038038805127144,
0.08753231912851334,
-0.08635063469409943,
0.034126196056604385,
-0.08482566475868225,
0.05460221692919731,
0.008265375159680843,
-0.008097539655864239,
-0.06948953121900558,
0.049526944756507874,
