0.0021049962379038334,
-0.023094018921256065,
0.00977408979088068,
0.0317375473678112,
-0.09692603349685669,
-0.004807446151971817,
-0.013074062764644623,
-0.05740337818861008,
0.004589943215250969,
-0.06526797264814377,
-0.01943046599626541,
-0.048886749893426895,
-0.020858000963926315,
-0.04278865084052086,
-0.03352988511323929,
0.03217229247093201,
0.0366133414208889,
-0.07480324059724808,
-0.05785783752799034,
-0.03623390197753906,
0.04402370750904083,
0.009549947455525398,
0.07408002763986588,
0.05149475112557411,
-0.028361188247799873,
-0.04117794334888458,
-0.0019338810816407204,
-0.0065298243425786495,
0.020279884338378906,
0.10693400353193283,
-0.033654507249593735,
-0.005738245788961649,
-0.0925079807639122,
-0.07330840080976486,
0.0718667134642601,
-0.0743134543299675,
-0.018529437482357025,
-0.06904655694961548,
-0.08782238513231277,
-0.00258697010576725,
-0.019650498405098915,
-0.012025263160467148,
-0.05004175007343292,
-0.07618935406208038,
-0.01879357360303402,
-0.012563384138047695,
0.03014775551855564,
0.055226754397153854,
0.01739756390452385,
-0.04686222970485687,
0.010242123156785965,
0.012565189972519875,
0.03180406615138054,
-0.038569480180740356,
-0.05358953773975372,
0.04034940153360367,
-0.06573164463043213,
0.05136924609541893,
-0.06346026808023453,
-0.01923288404941559,
0.017158811911940575,
0.016722790896892548,
-0.011139674112200737,
0.021192366257309914,
-0.005329397972673178,
-0.017867695540189743,
-0.05738602578639984,
0.03176107257604599,
-0.000736899790354073,
-0.03778916597366333,
0.029734786599874496,
0.023385901004076004,
0.011792328208684921,
-0.04201072081923485,
-0.032999854534864426,
-0.007721773348748684,
-0.017194541171193123,
-0.047891125082969666,
-0.06290626525878906,
-0.018699273467063904,
-0.039339758455753326,
-0.010028278455138206,
-0.049755316227674484,
-0.01767272874712944,
0.04826176539063454,
-0.0206795334815979,
-0.058207761496305466,
0.0073705147951841354,
0.04815766215324402,
-0.003704485949128866,
0.014105472713708878,
0.05500030890107155,
0.018678557127714157,
0.00917629711329937,
-0.02299172803759575,
0.008216586895287037,
0.01651998981833458,
-0.010493154637515545,
0.0207255557179451,
-0.018695643171668053,
0.052972208708524704,
0.017857665196061134,
0.08416321128606796,
0.05336858704686165,
0.032552991062402725,
0.010567854158580303,
-0.016774699091911316,
-0.0027500560972839594,
-0.028290076181292534,
0.04301828891038895,
-0.05828612670302391,
0.0033038128167390823,
-0.04757191985845566,
-0.08906184881925583,
-0.06241372600197792,
-0.08599802851676941,
0.040999021381139755,
-0.0910474956035614,
-0.12840743362903595,
-0.02662540413439274,
0.03381425142288208,
0.029569102451205254,
0.009526713751256466,
-0.07398388534784317,
0.007381784729659557,
0.040564123541116714,
0.008780105970799923,
-0.06185527518391609,
0.08270592242479324,
-0.05149506404995918,
-0.027734527364373207,
0.024498745799064636,
0.01700764335691929,
-0.08713952451944351,
-0.06520605832338333,
0.017035597935318947,
-0.013065342791378498,
-0.062041234225034714,
0.028177201747894287,
0.0506422333419323,
0.00973594281822443,
0.03729066252708435,
0.03505844622850418,
-0.0008696240256540477,
-0.006733153946697712,
-0.006257644854485989,
-1.9284856534795836e-05,
0.045256998389959335,
0.04938296973705292,
0.0243182685226202,
-0.05095638707280159,
-0.030915625393390656,
-0.007524176500737667,
-0.041355349123477936,
0.006254298146814108,
-0.04469752311706543,
0.01541377417743206,
0.009035435505211353,
-0.02287156879901886,
0.003323222044855356,
0.008545062504708767,
-0.016423644497990608,
0.011865686625242233,
0.006298300810158253,
-0.022704698145389557,
0.05008974298834801,
-0.018672235310077667,
-0.020711688324809074,
-0.048843130469322205,
-0.021916178986430168,
0.011240394786000252,
0.017995253205299377,
0.03358804062008858,
-0.04016948118805885,
0.025041773915290833,
0.019635172560811043,
0.06334835290908813,
-0.03799532353878021,
0.012074260041117668,
-0.027240199968218803,
0.033463623374700546,
0.021754439920186996,
0.00029520157841034234,
-0.10925629734992981,
-0.0187675803899765,
-0.05658916011452675,
0.002724261488765478,
-0.013837876729667187,
-0.05016365274786949,
-0.0014296891167759895,
0.03130655363202095,
-0.012185315601527691,
0.023861674591898918,
-0.025908514857292175,
-0.007152849808335304,
0.045207779854536057,
0.019622795283794403,
0.036963704973459244,
-0.004177019000053406,
0.0032114919740706682,
0.0038350853137671947,
-0.045482032001018524,
-0.04699113219976425,
-0.04640724137425423,
0.02134520374238491,
0.05811877176165581,
-0.06036088615655899,
-0.03322484716773033,
0.06528546661138535,
-0.01577618345618248,
0.04882640764117241,
-0.02086259238421917,
-0.003706925315782428,
0.012957736849784851,
0.0059577361680567265,
0.044099241495132446,
0.02404153347015381,
0.025216784328222275,
0.08202992379665375,
-0.007778083439916372,
0.034659042954444885,
-0.011181560344994068,
-0.02016972377896309,
-0.003922067116945982,
0.0074560372158885,
-0.04154737666249275,
0.027420250698924065,
0.03262490779161453,
-0.02196880616247654,
-0.009506619535386562,
-0.0076452032662928104,
-0.006186159793287516,
0.0033310330472886562,
-0.07177403569221497,
-0.00010402428597444668,
-0.014021393842995167,
0.023526951670646667,
-0.05576944351196289,
0.004212513566017151,
0.006259043235331774,
-0.02768315002322197,
-0.02719590999186039,
0.007784034125506878,
0.013944425620138645,
0.003274540649726987,
0.018220046535134315,
0.04991025850176811,
0.04042134806513786,
0.011826686561107635,
0.012467329390347004,
-0.030249135568737984,
0.04454241693019867,
-0.05655117705464363,
-0.02037961781024933,
-0.025883378461003304,
-0.07032427936792374,
-0.006592121906578541,
-0.016139056533575058,
0.05436122044920921,
0.036004435271024704,
0.02649802342057228,
0.010928424075245857,
-0.012243533506989479,
-0.016955852508544922,
0.007994888350367546,
-0.0049952007830142975,
0.014041741378605366,
0.003481598338112235,
0.036433760076761246,
0.01917661726474762,
-0.019248150289058685,
0.04948762059211731,
0.00990273803472519,
0.021473627537488937,
-0.00798530038446188,
-0.00566254323348403,
0.03971691429615021,
-0.010881061665713787,
0.02388921193778515,
0.11203885823488235,
0.025536349043250084,
0.01205369457602501,
-0.10666108131408691,
0.007275617681443691,
0.008318569511175156,
0.012095767073333263,
-0.0030823261477053165,
-0.14460872113704681,
-0.051852237433195114,
-0.034536976367235184,
-0.012465177103877068,
-0.016274452209472656,
0.040705569088459015,
0.06533486396074295,
0.0017998763360083103,
-0.0042170449160039425,
0.04506411775946617,
0.09333638846874237,
0.06319364905357361,
-0.007186288479715586,
-0.06984065473079681,
0.0010171480244025588,
0.018176594749093056,
-0.0209798663854599,
0.027911191806197166,
-0.026677493005990982,
-0.0425216369330883,
0.09760737419128418,
0.0671551525592804,
-0.012385251000523567,
0.00033349357545375824,
-0.057854071259498596,
0.04155729338526726,
0.041525404900312424,
-0.023360328748822212,
-0.02110973373055458,
-0.023307057097554207,
-0.04108321666717529,
0.024994555860757828,
0.03440478816628456,
0.035218577831983566,
-0.03729084134101868,
0.007243005558848381,
-0.06741202622652054,
-0.023983487859368324,
-0.04569438472390175,
-0.09160859137773514,
-0.0600731335580349,
-0.0026720729656517506,
-0.04134377837181091,
-0.05256549268960953,
0.05783460661768913,
-0.00856291688978672,
0.13296815752983093,
9.533605771139264e-05,
0.03197707235813141,
0.020568260923027992,
-0.09163205325603485,
0.07236480712890625,
0.013695095665752888,
0.056703899055719376,
0.023158498108386993,
-0.03650381788611412,
-0.04023567587137222,
-0.008300358429551125,
0.031077738851308823,
0.016338469460606575,
-0.09567079693078995,
-0.07527191936969757,
0.0030384345445781946,
-0.038692574948072433,
-0.0012049812357872725,
0.025336837396025658,
-0.02745581790804863,
-0.022838173434138298,
-0.05128331109881401,
-0.016326483339071274,
0.015321290120482445,
0.056232430040836334,
0.039897602051496506,
0.00848079752177,
0.00134543445892632,
0.04551677033305168,
0.08288305997848511,
-0.00168775231577456,
0.02996043674647808,
-0.03901587054133415,
-0.01779188960790634,
0.007554668467491865,
-0.035102758556604385,
0.049864258617162704,
0.005113172810524702,
-0.05447058379650116,
-0.0009702866082079709,
-0.0001969877048395574,
-0.04310166463255882,
-0.010246447287499905,
-0.027753325179219246,
-0.03522292152047157,
-0.04061788693070412,
0.012077855877578259,
0.011346779763698578,
-0.042902667075395584,
0.0004194419307168573,
-0.006100145634263754,
-0.04837555065751076,
0.08259524405002594,
0.0020945763681083918,
0.01189824566245079,
0.12341345846652985,
-0.03768149018287659,
-0.01256641186773777,
-0.05971581116318703,
0.06179685518145561,
0.028177211061120033,
0.06252219527959824,
-0.05900939926505089,
-0.00030565611086785793,
0.0006609220872633159,
0.015690665692090988,
-0.06370742619037628,
-0.11742819845676422,
-0.013359448872506618,
0.11981038749217987,
0.13328500092029572,
-0.06444934755563736,
-0.07215868681669235,
0.0017031329916790128,
0.06551357358694077,
0.09113281965255737,
-0.09597986936569214,
-0.10917182266712189,
-0.0055571794509887695,
0.04235970228910446,
0.028646154329180717,
0.015447773039340973,
0.037033237516880035,
0.05829847976565361,
0.06476830691099167,
-0.06268323212862015,
-0.016734475269913673,
0.05761464685201645,
0.10094006359577179,
0.0026428550481796265,
-0.13653099536895752,
-0.06926288455724716,
-0.09412851184606552,
-0.04171738401055336,
0.0005336839822120965,
0.08822334557771683,
-0.059881046414375305,
-0.023558273911476135,
0.08088815212249756,
0.046615228056907654,
-0.03468134254217148,
-0.09312032163143158,
0.03117341548204422,
0.1411450058221817,
-0.059030383825302124,
-0.05660947039723396,
-0.048976995050907135,
0.02187677100300789,
-0.01745552383363247,
-0.13620442152023315,
-0.10866206884384155,
-0.014433792792260647,
0.04001370444893837,
0.03426016494631767,
0.014097140170633793,
-0.011222516186535358,
-0.07779639959335327,
-0.06855764240026474,
0.04344603046774864,
-0.033074118196964264,
-0.0419933944940567,
-0.0721120685338974,
0.01842474937438965,
0.025545287877321243,
-0.029922012239694595,
-0.03946992754936218,
-0.05841776356101036,
-0.07212468236684799,
-0.035177573561668396,
0.026778485625982285,
0.004262963775545359,
-0.04860754311084747,
0.03924952447414398,
-0.03962116315960884,
-0.015459793619811535,
0.02635881118476391,
-0.014434069395065308,
0.028674975037574768,
-0.05000608041882515,
0.005875838920474052,
-0.0006001006113365293,
-0.021893668919801712,
-0.01591682620346546,
-0.05155665799975395,
-0.008861204609274864,
-0.0086089251562953,
-0.04208816960453987,
-0.040604118257761,
0.0069541954435408115,
-0.04030871391296387,
-0.018981996923685074,
0.009674659930169582,
0.059312619268894196,
0.025064438581466675,
-0.040466587990522385,
0.003890800755470991,
-0.003142660018056631,
0.008535477332770824,
0.06195640563964844,
0.020712267607450485,
-0.02752780169248581,
-0.018541453406214714,
0.03899800404906273,
-0.02376423589885235,
-0.008403334766626358,
0.017191501334309578,
-0.08566365391016006,
-0.1718771755695343,
-0.04533484950661659,
0.05741798132658005,
0.09373747557401657,
0.017580019310116768,
0.02554301545023918,
0.09537255764007568,
0.10663976520299911,
0.1305837780237198,
0.049039077013731,
0.13689516484737396,
0.03606024384498596,
0.010254455730319023,
0.03850061818957329,
0.014397276565432549,
-0.018040742725133896,
0.03600314259529114,
-0.017654351890087128,
-0.017885880544781685,
0.07698865234851837,
0.12646259367465973,
-0.08048507571220398,
-0.1974155306816101,
-0.06502963602542877,
-0.026116272434592247,
0.008545259945094585,
0.04022173583507538,
-0.013002299703657627,
0.007322907913476229,
-0.06587722152471542,
-0.06644496321678162,
0.02347598783671856,
0.0474737286567688,
-0.01855076663196087,
-0.13697293400764465,
-0.02370159700512886,
0.07373939454555511,
0.015383420512080193,
-0.008881382644176483,
-0.09690487384796143,
-0.04535960406064987,
-0.020657556131482124,
-0.04285775497555733,
-0.00132691056933254,
-0.07785351574420929,
-0.0405229777097702,
-0.029420975595712662,
0.046511460095644,
-0.038861233741045,
-0.019178561866283417,
-0.03393428400158882,
0.034624215215444565,
0.0034404362086206675,
-0.05162215232849121,
-0.03294294327497482,
0.007763109169900417,
0.03336174413561821,
0.007500184699892998,
-0.06412307173013687,
-0.004535172134637833,
-0.005277697928249836,
0.006509074009954929,
0.014531373977661133,
0.009206652641296387,
-0.03527761250734329,
0.03658149763941765,
0.01432764995843172,
-0.04023144766688347,
0.013316355645656586,
0.031709399074316025,
0.009431986138224602,
-0.028111189603805542,
0.054328903555870056,
0.04562009498476982,
-0.05745284631848335,
-0.019410300999879837,
-0.01894419640302658,
0.08478476107120514,
-0.010406081564724445,
-0.03311953693628311,
-0.0947042852640152,
0.01017475314438343,
-0.04307686164975166,
-0.04651414975523949,
-0.024031683802604675,
-0.041871391236782074,
0.020936893299221992,
0.034204211086034775,
-0.007482585962861776,
0.02440805919468403,
-0.05481944605708122,
-0.0041618552058935165,
-0.03138463944196701,
-0.07837829738855362,
-0.00909205712378025,
-0.006901935208588839,
0.100056491792202,
0.06438354402780533,
-0.03612493351101875,
0.05659262463450432,
0.018216770142316818,
0.0200381800532341,
-0.13564778864383698,
0.0029672780074179173,
0.023125125095248222,
-0.03163234144449234,
-0.023487484082579613,
-0.07637016475200653,
-0.15165328979492188,
-0.01768912933766842,
-0.03546532243490219,
-0.010701683349907398,
-0.002320058410987258,
0.007618715986609459,
0.006986989174038172,
-0.058539483696222305,
-0.010373535566031933,
0.07080130279064178,
0.04276376590132713,
-0.020854473114013672,
-0.08933168649673462,
0.05628236010670662,
0.09834841638803482,
0.0009176491876132786,
0.01739802025258541,
-0.007146542426198721,
-0.030554840341210365,
0.04087333008646965,
0.029668493196368217,
0.0274415984749794,
0.0054004136472940445,
-0.027324119582772255,
-0.00025672189076431096,
-0.014779036864638329,
0.03680592402815819,
0.0031304501462727785,
-0.0015335362404584885,
-0.04487669840455055,
-0.06618804484605789,
0.02533118426799774,
-0.004998676013201475,
-0.021123265847563744,
0.032278064638376236,
0.012237871065735817,
-0.034491345286369324,
0.008543749339878559,
-0.03390827775001526,
0.035705916583538055,
0.03249349817633629,
-0.005222096107900143,
0.05033082887530327,
0.032934531569480896,
0.006138437427580357,
-0.05070430040359497,
0.007092108018696308,
0.07569867372512817,
0.04374508932232857,
-0.007846617139875889,
-0.018765879794955254,
0.04472910612821579,
-0.010423212312161922,
0.029046086594462395,
-0.025732586160302162,
-0.02246161736547947,
0.015447837300598621,
0.05154857784509659,
0.06292049586772919,
-0.05195958912372589,
0.06277082860469818,
0.00426373491063714,
0.03498338907957077,
-0.04708743840456009,
0.01208804827183485,
0.03801074996590614,
-0.016396159306168556,
-0.01856277883052826,
0.038985807448625565,
-0.023048095405101776,
-0.011159766465425491,
0.01292382925748825,
0.05260306969285011,
-0.046677760779857635,
-0.022332223132252693,
-0.10295321047306061,
0.0019047835376113653,
-0.01223981287330389,
0.07238280028104782,
0.05646560341119766,
0.02952766790986061,
-0.11053335666656494,
0.0625811219215393,
0.04454772174358368,
0.0038128038868308067,
-0.04004184156656265,
-0.019205570220947266,
-0.058447256684303284,
0.018833061680197716,
-0.0024178344756364822,
-0.07427529990673065,
-0.03249069303274155,
0.05191344395279884,
0.021191153675317764,
-0.053944967687129974,
-0.020212765783071518,
0.06231740862131119,
0.05022234842181206,
-0.07152409106492996,
-0.053519655019044876,
-0.02544485218822956,
0.022727886214852333,
-0.014792772941291332,
-0.057135313749313354,
-0.03294040262699127,
-0.004567011725157499,
-0.04425496235489845,
0.01427492592483759,
-0.0026752795092761517,
0.04348661005496979,
0.02630879357457161,
0.01737646386027336,
-0.04294285923242569,
-0.07770901918411255,
-0.04942110925912857,
-0.021876081824302673,
-0.026162557303905487,
-0.05070636793971062,
-0.041151490062475204,
-0.02863389253616333,
0.006234574131667614,
0.07457668334245682,
0.08488091081380844,
-0.04584425687789917,
-0.0632288008928299,
0.005907217040657997,
0.04831552878022194,
0.10516645759344101,
0.09816797077655792,
0.04902892932295799,
0.06454521417617798,
0.03686332702636719,
0.04620834439992905,
0.02594631165266037,
-0.057216957211494446,
0.02289947122335434,
-0.02837568335235119,
0.053662702441215515,
-0.044161684811115265,
-0.08121798187494278,
-0.05951220914721489,
-0.04468870535492897,
0.03505653887987137,
-0.016247883439064026,
-0.10225212574005127,
-0.0027555860579013824,
-0.007609497755765915,
0.09388963878154755,
-0.022803744301199913,
-0.024086253717541695,
0.09346338361501694,
0.007127238903194666,
0.037382178008556366,
0.023515645414590836,
-0.04798964411020279,
0.08179571479558945,
0.0415865033864975,
0.024697456508874893,
-0.03266100585460663,
-0.07551047950983047,
-0.006713980343192816,
-0.010392636060714722,
-0.04630330950021744,
-0.09920297563076019,
-0.027913803234696388,
0.029215708374977112,
-0.026348767802119255,
-0.02652161195874214,
0.05605042725801468,
0.08562186360359192,
0.00803254172205925,
-0.06408827751874924,
0.045432545244693756,
0.01789296418428421,
-0.01582861877977848,
-0.1439022421836853,
0.008984853513538837,
-0.09585612267255783,
-0.07189730554819107,
-0.0016091407742351294,
-0.03477456793189049,
-0.010677926242351532,
-0.09415953606367111,
0.08445723354816437,
0.032940078526735306,
0.06526944041252136,
0.05148978903889656,
-0.01686611957848072,
-0.06623183935880661,
-0.003294939873740077,
-0.05282067507505417,
0.05570489168167114,
-0.0292244590818882,
-0.04466794803738594,
0.017278021201491356,
-0.010916681960225105,
0.020271381363272667,
-0.00027175495051778853,
-0.10716796666383743,
-0.1427984982728958,
-0.01487492024898529,
-0.045132894068956375,
-0.09491858631372452,
0.0679934173822403,
0.03280879929661751,
-0.040359776467084885,
0.033168546855449677,
-0.027370866388082504,
-0.05333423614501953,
-0.05132148414850235,
-0.015289799310266972,
0.02868514135479927,
0.0037715015932917595,
0.011949900537729263,
0.06971942633390427,
-0.021519294008612633,
-0.0021872608922421932,
-0.020204415544867516,
-0.016908705234527588,
0.06487143039703369,
0.06383571028709412,
-0.07301198691129684,
-0.06739474833011627,
-0.04842754080891609,
-0.015180414542555809,
-0.03889165818691254,
-0.0032703743781894445,
-0.08580708503723145,
-0.0011791385477408767,
0.08956223726272583,
0.030889369547367096,
-0.003122661029919982,
0.02314637042582035,
-0.09758443385362625,
-0.09824103116989136,
-0.040279969573020935,
0.06438041478395462,
-0.00326666166074574,
-0.04239175096154213,
-0.044098980724811554,
0.04122050851583481,
-0.017142673954367638,
0.05921601876616478,
0.03595577925443649,
-0.036094844341278076,
-0.003035701112821698,
0.04946059733629227,
-0.06821142882108688,
-0.0073529258370399475,
-0.03224775195121765,
-0.02527870237827301,
0.014953057281672955,
0.031226051971316338,
-0.05149536952376366,
0.0019796802662312984,
-0.010030829347670078,
0.1318376064300537,
0.028376644477248192,
0.005757924169301987,
-0.03240974247455597,
-0.017624445259571075,
-0.012494513764977455,
0.04627912491559982,
-0.003612319938838482,
-0.038416240364313126,
-0.03201105445623398,
-0.040697261691093445,
-0.057778723537921906,
-0.07590027153491974,
-0.07905280590057373,
-0.057028938084840775,
-0.03364308178424835,
-0.05613073706626892,
-0.047473806887865067,
0.01851792261004448,
-0.017477143555879593,
-0.025213230401277542,
-0.06410781294107437,
0.030829468742012978,
-0.058866336941719055,
-0.03193331137299538,
0.00022442452609539032,
0.009499519132077694,
-0.028602514415979385,
0.06579573452472687,
0.003558842930942774,
0.004936289973556995,
-0.06399791687726974,
-0.03218993917107582,
-0.003387780161574483,
-0.017051972448825836,
-0.007537330035120249,
-0.031088147312402725,
-0.06365453451871872,
-0.04110212251543999,
-0.01495670247823,
0.015030286274850368,
0.21050825715065002,
-0.06975466758012772,
-0.11731304973363876,
-0.026404600590467453,
-0.12417252361774445,
0.04540194198489189,
0.16761279106140137,
0.1751641482114792,
-0.023233896121382713,
-0.09230097383260727,
-0.0399211123585701,
-0.013156436383724213,
-0.0725066214799881,
-0.062415629625320435,
0.031161852180957794,
-0.0495479553937912,
-0.10858003050088882,
-0.11884556710720062,
-0.07478291541337967,
0.0366169735789299,
-0.0804452896118164,
-2.983993908856064e-05,
-0.041001249104738235,
0.027213076129555702,
-0.056370362639427185,
-0.02653319016098976,
0.010371256619691849,
-0.0019273631041869521,
-0.015684708952903748,
0.08759835362434387,
0.09304235130548477,
-0.02662045881152153,
-0.014605933800339699,
0.03097655065357685,
0.012577861547470093,
0.049066100269556046,
-0.010625931434333324,
-0.02743896283209324,
-0.012741007842123508,
0.05130864679813385,
0.023859422653913498,
0.050357043743133545,
-0.01702527329325676,
-0.014515011571347713,
0.009429043158888817,
0.02746037393808365,
-0.043999042361974716,
-0.030356092378497124,
-0.05082445591688156,
0.052763164043426514,
-0.05281342193484306,
-0.01748322695493698,
-0.0317181833088398,
0.017263038083910942,
0.02451762557029724,
0.03245532512664795,
-0.03977470099925995,
-0.004172458779066801,
0.013975872658193111,
-0.029911931604146957,
-0.05414477735757828,
0.004226882476359606,
-0.031113792210817337,
-0.04662491753697395,
0.018716711550951004,
-0.03694058582186699,
-0.016458773985505104,
-0.01303163729608059,
-0.003466229885816574,
0.05700591206550598,
-0.004760566633194685,
0.0072737159207463264,
0.01802811212837696,
0.008990787900984287,
0.05433555319905281,
-0.007003820966929197,
0.04750220477581024,
0.04896244779229164,
0.06868534535169601,
-0.018689800053834915,
0.05160186439752579,
0.024113567546010017,
-0.05771243944764137,
-0.018154839053750038,
-0.0032459571957588196,
0.03651556745171547,
0.08128871768712997,
0.03480259329080582,
-0.00633168825879693,
-0.026764221489429474,
-0.010397551581263542,
-0.02310458943247795,
-0.04047402739524841,
-0.06288287788629532,
-0.08090675622224808,
-0.030866743996739388,
-0.02970258705317974,
-0.021936612203717232,
-0.06079434975981712,
-0.01988641731441021,
-0.09197376668453217,
-0.053497541695833206,
0.055123116821050644,
0.013956094160676003,
0.005678253713995218,
-0.07177161425352097,
-0.009019040502607822,
-0.08776593208312988,
0.09093908965587616,
0.022141987457871437,
0.04287848621606827,
0.04611442610621452,
-0.05227735638618469,
0.07335419952869415,
-0.008117050863802433,
-0.014796770177781582,
-0.06246277689933777,
0.16209915280342102,
0.04466599225997925,
-0.021701371297240257,
-0.02486179955303669,
0.044503550976514816,
-0.052484430372714996,
0.0143429571762681,
-0.017871234565973282,
-0.005669908132404089,
-0.05026788264513016,
-0.05218696966767311,
0.04651273041963577,
-0.01971276104450226,
0.006296513602137566,
-0.01424669474363327,
0.06146135553717613,
0.024119507521390915,
0.03259561210870743,
-0.07977097481489182,
-0.08578020334243774,
-0.07421036064624786,
-0.03170279785990715,
0.009211204946041107,
0.006544419098645449,
-0.02598516456782818,
0.049179576337337494,
0.056852906942367554,
0.026092424988746643,
0.02365107834339142,
-0.0070075723342597485,
-0.045544736087322235,
-0.04657886549830437,
-0.013178826309740543,
-0.039096079766750336,
-0.00968585629016161,
-0.004551366437226534,
-0.06980043649673462,
-0.07120133191347122,
0.025358272716403008,
0.008763041347265244,
-0.010552583262324333,
-0.049900591373443604,
0.058909352868795395,
0.06224049627780914,
0.004468511324375868,
-0.030872534960508347,
-0.004143741447478533,
0.045292437076568604,
-0.02854260802268982,
-0.016899213194847107,
-0.05832913517951965,
0.053341180086135864,
0.013795115053653717,
0.043791692703962326,
-0.03770485147833824,
0.031384412199258804,
-0.005617913324385881,
-0.016114739701151848,
-0.1618746817111969,
0.0030122818425297737,
0.11984854936599731,
0.04834146425127983,
-0.01923469640314579,
-0.07748415321111679,
-0.032521072775125504,
-0.04953661933541298,
-0.07061276584863663,
0.07681413739919662,
0.06250497698783875,
0.015272339805960655,
-0.0007061923388391733,
-0.03247572109103203,
0.018635448068380356,
0.0705033615231514,
0.06835931539535522,
-0.016570013016462326,
-0.02924720197916031,
-0.056343063712120056,
-0.04636616259813309,
-0.03901103511452675,
-0.015781527385115623,
0.04172179475426674,
-0.1032535582780838,
-0.025183282792568207,
-0.049522917717695236,
-0.00010195519280387089,
0.04887939244508743,
-0.03962228074669838,
0.07214394211769104,
-0.0425703264772892,
-0.11671049892902374,
0.03766763582825661,
-0.06519962847232819,
-0.013822009786963463,
-0.02938266284763813,
-0.0024327519349753857,
0.03725309297442436,
-0.024681545794010162,
-0.08201765269041061,
0.03338058665394783,
0.05032872408628464,
0.012839159928262234,
-0.0112741868942976,
0.0071900105103850365,
-0.006135910749435425,
-0.11457698047161102,
-0.018083328381180763,
0.033890124410390854,
-0.0332602895796299,
0.015542387031018734,
-0.042443741112947464,
-0.0555010624229908,
-0.012623332440853119,
-0.010100155137479305,
0.09403317421674728,
-0.021390706300735474,
-0.017428331077098846,
-0.01787722297012806,
-0.008205285295844078,
-0.015573153272271156,
0.06225401908159256,
-0.020907171070575714,
0.052667200565338135,
-0.09856618940830231,
-0.06911342591047287,
-0.019094981253147125,
-0.0459631010890007,
0.061058707535266876,
0.022871345281600952,
0.041532211005687714,
-0.011426550336182117,
0.04753489792346954,
-0.07554858922958374,
-0.010590125806629658,
0.08636008948087692,
-0.06758680194616318,
-0.017476553097367287,
-0.0676393210887909,
0.043850552290678024,
0.05418560653924942,
-0.040384575724601746,
-0.03298625722527504,
-0.014431717805564404,
-0.020483896136283875,
0.009001774713397026,
-0.0030669246334582567,
-0.026342665776610374,
0.022294556722044945,
0.009376331232488155,
-0.03443404659628868,
0.028068743646144867,
0.008148808032274246,
0.01874340884387493,
0.003860330441966653,
-0.03823668137192726,
-0.038739655166864395,
0.009890608489513397,
0.0021794666536152363,
-0.08614145219326019,
-0.02693498507142067,
0.08090042322874069,
0.0774807408452034,
-0.02914680540561676,
-0.07599109411239624,
0.08210153132677078,
0.05200536176562309,
-0.02792113646864891,
-0.005857766605913639,
-0.03522979095578194,
0.02928347699344158,
0.014784086495637894,
0.00021674949675798416,
0.013430483639240265,
-0.07160087674856186,
-0.06374946981668472,
0.12999704480171204,
0.05058129504323006,
-0.053748514503240585,
0.0416872575879097,
0.046660613268613815,
0.07542859017848969,
0.0479268878698349,
0.011577337980270386,
0.03474745526909828,
-0.013829100877046585,
-0.026806334033608437,
0.04085149988532066,
-0.042884573340415955,
-0.009317038580775261,
-0.08382441848516464,
-0.04983248934149742,
-0.0001741836458677426,
0.03790806606411934,
0.052703358232975006,
0.026506075635552406,
0.0431470163166523,
0.03233795613050461,
-0.10897223651409149,
-0.06705453991889954,
0.055111490190029144,
-0.0199336726218462,
0.011670523323118687,
-0.03975173085927963,
-0.09413992613554001,
0.015224365517497063,
-0.06474073231220245,
-0.01156997587531805,
0.030252251774072647,
0.03942432999610901,
0.0612214170396328,
0.06671939045190811,
-0.05246492847800255,
0.06683828681707382,
0.037766505032777786,
0.11092619597911835,
0.049166012555360794,
-0.03805746138095856,
-0.06400446593761444,
-0.10001346468925476,
0.054536134004592896,
0.014423583634197712,
0.009743734262883663,
-0.05057157576084137,
0.003327065147459507,
-0.010464136488735676,
-0.059374962002038956,
-0.04485126957297325,
0.0004269977507647127,
-0.057654161006212234,
0.04406953975558281,
-0.03830519691109657,
-0.05722084641456604,
0.00823624711483717,
0.017409896478056908,
0.06584492325782776,
0.03637995570898056,
-0.04856861010193825,
-0.00915225688368082,
0.08133869618177414,
-0.007248617243021727,
-0.023680593818426132,
0.04178505763411522,
-0.05694521218538284,
-0.062151603400707245,
0.010638304054737091,
-0.02731461636722088,
0.024762487038969994,
-0.05436934530735016,
0.04716625064611435,
0.01482989639043808,
0.008874285966157913,
-0.02500646561384201,
-0.03512640669941902,
-0.006133355665951967,
-0.01638784632086754,
-0.01881842128932476,
-0.031725551933050156,
0.007731000427156687,
0.021980859339237213,
-0.015902400016784668,
0.03227386251091957,
-0.0024568315129727125,
-0.0155045660212636,
0.027802366763353348,
-0.04550151899456978,
0.00864238478243351,
0.04230340197682381,
-0.009424746036529541,
0.04880182817578316,
-0.008147469721734524,
-0.0641479343175888,
0.007300680037587881,
-0.01592150889337063,
0.02380785532295704,
-0.006851618643850088,
-0.061577074229717255,
0.009987336583435535,
0.03514272719621658,
-0.006871730089187622,
0.016434665769338608,
-0.03392926603555679,
0.0021381035912781954,
-0.03341080620884895,
-0.029430128633975983,
-0.08752747625112534,
-0.026001043617725372,
0.09898117929697037,
-0.06485524028539658,
-0.09607776254415512,
-0.06970689445734024,
-0.051808323711156845,
0.03622819483280182,
-0.023003745824098587,
0.03280990198254585,
-0.02559169940650463,
0.03606048598885536,
-0.025463063269853592,
0.00357683002948761,
0.05123301222920418,
-0.06712786108255386,
0.013266246765851974,
0.0116730947047472,
-0.0003266825806349516,
-0.06473174691200256,
-0.07338298112154007,
0.02282300777733326,
0.06236674636602402,
0.0037455440033227205,
0.04689164087176323,
0.03168778121471405,
0.03368695080280304,
0.0504252128303051,
0.007048921659588814,
0.0813584178686142,
-0.027255015447735786,
0.06027580425143242,
-0.026146724820137024,
-0.08055153489112854,
-0.04505904018878937,
0.022142602130770683,
-0.015870166942477226,
0.03459848091006279,
-0.079416424036026,
0.04601148143410683,
-0.030987462028861046,
0.008813713677227497,
0.007497246377170086,
0.021740516647696495,
0.007815588265657425,
-0.0031317174434661865,
0.0043154554441571236,
0.06643855571746826,
0.04854557663202286,
0.014846399426460266,
0.06365960836410522,
0.014033004641532898,
0.039818987250328064,
0.014651456847786903,
-0.04522044211626053,
-0.04496421664953232,
0.033618707209825516,
-0.02987641654908657,
0.039702389389276505,
-0.040473200380802155,
0.023815123364329338,
-0.02684127353131771,
0.05183666571974754,
0.06423076242208481,
-0.03726917505264282,
-0.010634643025696278,
-0.009435540065169334,
0.02190270647406578,
0.02408818155527115,
0.044584985822439194,
0.016985749825835228,
0.04576592519879341,
0.023450613021850586,
-0.05501977726817131,
0.02217169664800167,
-0.03685618191957474,
-0.012531003914773464,
-0.014196997508406639,
-0.016030434519052505,
0.028251275420188904,
0.06855181604623795,
0.04395679011940956,
0.022343020886182785,
-0.000629703514277935,
-0.007527316454797983,
0.05292997509241104,
-0.02085484191775322,
0.022237423807382584,
0.0031054161954671144,
0.045050062239170074,
0.02134956791996956,
-0.0031751543283462524,
0.022395240142941475,
0.00780536700040102,
0.00604670774191618,
0.02707771584391594,
0.0430029071867466,
-0.01749805547297001,
0.04737171158194542,
0.030154312029480934,
0.042801398783922195,
-0.06280581653118134,
-0.08912720531225204,
0.06886391341686249,
0.022229531779885292,
0.007577397394925356,
-0.0396573580801487,
-0.016197193413972855,
-0.0193414818495512,
-0.018608106300234795,
0.012823966331779957,
0.0013519172789528966,
-0.026572708040475845,
0.02008264698088169,
-0.07124380022287369,
0.004461866803467274,
0.0069002434611320496,
-0.00024292542366310954,
-0.008848973549902439,
-0.00028793950332328677,
-0.0224411990493536,
0.04780997708439827,
-0.028858467936515808,
0.025870556011795998,
-0.00916535034775734,
-0.013348111882805824,
0.005389167461544275,
-0.008571388199925423,
0.03756997361779213,
0.038552045822143555,
-0.03863123431801796,
-0.09081318229436874,
-0.1163172796368599,
0.0034786406904459,
0.006452757399529219,
-0.05941155180335045,
0.049135398119688034,
0.0015490122605115175,
0.05227208882570267,
0.09156034886837006,
0.06644893437623978,
0.03713979199528694,
-0.0352451466023922,
0.021922968327999115,
0.03904961794614792,
0.04033644497394562,
-0.02968255802989006,
-0.0273920726031065,
0.04448845610022545,
0.12972699105739594,
0.013957533985376358,
0.03952882066369057,
-0.04556480422616005,
-0.04819738492369652,
0.008400734513998032,
-0.0725293830037117,
-0.01756391115486622,
0.014299402944743633,
0.049193479120731354,
0.07446731626987457,
-0.06574340164661407,
0.015691470354795456,
-0.057497538626194,
0.03742268308997154,
-0.04407137632369995,
-0.012074505910277367,
0.020597679540514946,
-0.036463070660829544,
-0.0334516279399395,
-0.09009567648172379,
-0.017723537981510162,
-0.07850348204374313,
-0.033470358699560165,
6.048308023309801e-07,
-0.010997491888701916,
0.0026475319173187017,
-0.07387270778417587,
0.017189042642712593,
0.07148619741201401,
0.08316560834646225,
0.11290472000837326,
0.02959860861301422,
0.08618606626987457,
0.0321708582341671,
-0.030326714739203453,
0.024760404601693153,
0.012601668946444988,
0.02559835836291313,
-0.06674987077713013,
-0.057199422270059586,
0.012746847234666348,
0.0074244835413992405,
-0.002151620341464877,
-0.0021753008477389812,
-0.020044438540935516,
0.012856978923082352,
0.029581328853964806,
0.046558305621147156,
0.016562987118959427,
0.025639163330197334,
0.010047812014818192,
0.0027562633622437716,
-0.023192794993519783,
0.07862801849842072,
0.0054333629086613655,
-0.03298396244645119,
-0.01505413930863142,
0.021632686257362366,
0.10412359982728958,
-0.0610307902097702,
-0.005112589802592993,
-0.015671780332922935,
0.06599841266870499,
-0.02250252291560173,
-0.07102860510349274,
-0.04153729975223541,
-0.028043510392308235,
-0.014501066878437996,
-0.027414517477154732,
0.0861719623208046,
0.05856828764081001,
0.00897984579205513,
0.06329768151044846,
-0.0330977737903595,
0.112474225461483,
-0.0028224396519362926,
0.016855310648679733,
0.03775250166654587,
-0.005813635420054197,
-0.042055077850818634,
-0.09858311712741852,
0.005992293823510408,
-0.06340844184160233,
0.023476971313357353,
0.06781972199678421,
-0.03973894938826561,
-0.050057124346494675,
-0.011706428602337837,
0.004964191932231188,
0.024093618616461754,
-0.07924254983663559,
-0.000528849137481302,
0.01704048179090023,
-0.002798988949507475,
-0.025182301178574562,
0.03305615112185478,
-0.006852622143924236,
-0.04898807033896446,
-0.018990781158208847,
-0.03890819475054741,
-0.08843659609556198,
-0.03733000159263611,
0.03029528632760048,
0.0741075649857521,
0.003881718497723341,
-0.08117537200450897,
-0.003602371085435152,
-0.04184367135167122,
0.0039583598263561726,
0.0631818100810051,
-0.07456612586975098,
-0.021676506847143173,
-0.03257244825363159,
0.044147808104753494,
-0.07553063333034515,
-0.036114566028118134,
-0.05058102309703827,
0.04275438189506531,
0.011007461696863174,
0.07564180344343185,
0.05572900176048279,
0.012447436340153217,
-0.006887470837682486,
-0.008924086578190327,
0.012958378531038761,
-0.07512672245502472,
-0.0823221206665039,
-0.0033699795603752136,
-0.01178219635039568,
0.0026110706385225058,
-0.046989064663648605,
-0.021396510303020477,
-0.08906393498182297,
0.026288209483027458,
0.09388765692710876,
-0.04504761844873428,
-0.0023080252576619387,
-0.03253975138068199,
0.03335777297616005,
0.036928851157426834,
-0.03892607241868973,
-0.06163648143410683,
0.0053938329219818115,
-0.005633083637803793,
-0.01972770318388939,
-0.0959370881319046,
0.04694834724068642,
0.043343789875507355,
0.001232663867995143,
0.029711449518799782,
0.011776341125369072,
0.0650608092546463,
0.05050674453377724,
0.048728298395872116,
0.008021174930036068,
-0.044755514711141586,
-0.003034188412129879,
0.040556326508522034,
-0.00962250865995884,
-0.059186119586229324,
-0.014470609836280346,
0.06248198822140694,
0.09214618057012558,
-0.027537906542420387,
0.08002300560474396,
0.06757916510105133,
-0.005701018031686544,
0.0026667877100408077,
-0.04004738852381706,
-0.024657858535647392,
0.03974317014217377,
0.005268604960292578,
0.0010395233985036612,
0.03467058017849922,
0.058227356523275375,
-0.04754586145281792,
-0.045284681022167206,
0.05676177144050598,
-0.0037660938687622547,
0.08610723167657852,
0.009104378521442413,
0.034904804080724716,
0.011410237289965153,
-0.11155004799365997,
-0.04226909577846527,
0.09250771999359131,
0.05527427792549133,
0.003895000321790576,
-0.048920441418886185,
0.057401083409786224,
0.0978357121348381,
0.06928250193595886,
0.04143485799431801,
0.012445048429071903,
-0.014325256459414959,
0.09695298224687576,
-0.008466269820928574,
-0.08263182640075684,
0.04802530258893967,
0.029581192880868912,
0.06310148537158966,
-0.004953645635396242,
-0.00631303433328867,
0.10666460543870926,
-0.05046790465712547,
0.05571657419204712,
0.017334794625639915,
0.03605062887072563,
0.02855350263416767,
0.03370647877454758,
-0.040084369480609894,
0.015541532076895237,
-0.006232050247490406,
-0.08063619583845139,
-0.06918809562921524,
0.02944262884557247,
-0.046193677932024,
-0.047592006623744965,
0.0022523810621351004,
0.047278404235839844,
0.013628881424665451,
-0.0030378210358321667,
-0.04403429478406906,
-0.0701097622513771,
0.05135102570056915,
-0.01666438765823841,
-0.015804363414645195,
0.025922901928424835,
-0.03933929279446602,
-0.025640472769737244,
0.04492173716425896,
-0.03735591843724251,
0.022106971591711044,
-0.043273765593767166,
-0.021346984431147575,
0.03903605416417122,
-0.04561050608754158,
0.029411757364869118,
-0.027680566534399986,
0.045350976288318634,
-0.030230876058340073,
-0.028961289674043655,
0.042731788009405136,
-0.02051100693643093,
-0.024419507011771202,
-0.04811151698231697,
0.04219907149672508,
-0.02839788980782032,
-0.06565698236227036,
0.02845333144068718,
0.029166413471102715,
0.11148282885551453,
-0.03242107853293419,
-0.013266115449368954,
0.061064112931489944,
0.033071696758270264,
-0.022268036380410194,
-0.02453155815601349,
-0.0344846248626709,
0.046079136431217194,
0.12293253093957901,
0.0883941650390625,
0.019726060330867767,
0.1019025593996048,
0.09621699154376984,
0.008257213048636913,
-0.01976494863629341,
0.027811836451292038,
0.010578688234090805,
0.09661022573709488,
0.03562318533658981,
-0.0569724403321743,
-0.030500929802656174,
0.05872505530714989,
0.030957533046603203,
0.014199924655258656,
-0.015655668452382088,
-0.009919782169163227,
0.12553663551807404,
0.0434311106801033,
0.07504850625991821,
-0.012753327377140522,
0.04301684722304344,
-0.012038961984217167,
-0.021872665733098984,
-0.041118323802948,
0.035711947828531265,
-0.02806170843541622,
-0.10997318476438522,
-0.046430934220552444,
0.06127356365323067,
0.07540358603000641,
0.00926138274371624,
0.010714699514210224,
0.03377426788210869,
-0.009794443845748901,
-0.018556274473667145,
-0.048170361667871475,
0.04684826359152794,
0.0532660037279129,
-0.043095625936985016,
0.021328087896108627,
0.028355710208415985,
-0.015060009434819221,
0.013027328997850418,
0.02483123168349266,
0.013206545263528824,
0.03129172697663307,
0.012074488215148449,
-0.03711296245455742,
0.0073809814639389515,
-0.06384183466434479,
-0.027646731585264206,
0.006773323751986027,
-0.0053390394896268845,
-0.012926572002470493,
-0.057426970452070236,
0.014716839417815208,
-0.010485638864338398,
-0.08136098831892014,
0.011132384650409222,
0.09451493620872498,
0.008069226518273354,
0.00759503711014986,
-0.014647594653069973,
0.02142968960106373,
0.006379889324307442,
0.031800899654626846,
-0.033662933856248856,
0.010829996317625046,
-0.007659753784537315,
0.034697920083999634,
0.08012564480304718,
-0.06522949039936066,
0.013323821127414703,
0.039126958698034286,
-0.04884997382760048,
-0.01626679114997387,
-0.027186525985598564,
0.004275706596672535,
0.10794687271118164,
0.023471912369132042,
-0.012914617545902729,
0.017604194581508636,
0.013807069510221481,
-0.01323636807501316,
-0.01795945130288601,
-0.060461968183517456,
-0.05969977378845215,
-0.008253796957433224,
-0.04880095273256302,
0.024438796564936638,
-0.034519463777542114,
-0.02119719423353672,
-0.029777891933918,
0.035779740661382675,
0.05386918783187866,
0.020011551678180695,
-0.024286864325404167,
-0.016782868653535843,
-0.054395921528339386,
0.07094713300466537,
-0.06277700513601303,
0.018540456891059875,
-0.08390165120363235,
-0.16267557442188263,
-0.07350102066993713,
0.00055695790797472,
0.002769358456134796,
-0.024789301678538322,
-0.026453277096152306,
-0.0331391878426075,
-0.0008078960818238556,
0.04836312681436539,
0.02010461501777172,
-0.01568254642188549,
-0.06264717876911163,
-0.06789880990982056,
0.03862893953919411,
-0.07801821082830429,
0.023358667269349098,
0.0034858398139476776,
-0.04455970600247383,
0.0418812520802021,
0.005139444954693317,
-0.0523826889693737,
-0.0016754039097577333,
0.01080488320440054,
-0.031122945249080658,
0.07229755818843842,
0.019422544166445732,
-0.030105646699666977,
-0.07080086320638657,
-0.0058035762049257755,
-0.023827360942959785,
-0.020575640723109245,
-0.029597394168376923,
0.003294112393632531,
0.003499319078400731,
0.04702851176261902,
-0.02151518315076828,
-0.05820121988654137,
-0.03009830228984356,
0.030120404437184334,
-0.0008372769225388765,
-0.027282921597361565,
-0.048601411283016205,
-0.06139629706740379,
0.09598934650421143,
0.06457142531871796,
-0.029765555635094643,
-0.07693823426961899,
-0.05451446771621704,
-0.001551634049974382,
-0.0468127503991127,
-0.0933951884508133,
-0.0839751660823822,
0.02656962163746357,
-0.05621635541319847,
0.02804907225072384,
-0.007852058857679367,
-0.055741406977176666,
-0.18554602563381195,
-0.0001033681764965877,
0.06664009392261505,
0.021611496806144714,
-0.08954819291830063,
-0.04521912336349487,
0.03446950763463974,
0.07835111021995544,
0.11846998333930969,
0.09169682115316391,
-0.03220059350132942,
0.060348354279994965,
0.09872901439666748,
0.025913696736097336,
-0.058156177401542664,
-0.014705481939017773,
-0.0009666829137131572,
-0.1089741662144661,
-0.007576340343803167,
-0.03660358861088753,
0.02352989837527275,
-0.020665260031819344,
-0.03732434660196304,
0.01949569582939148,
-0.03254982456564903,
-0.01662241667509079,
-0.05175177752971649,
0.003273286856710911,
-0.03138989210128784,
0.014370420016348362,
0.04051961749792099,
0.009276468306779861,
-0.06511511653661728,
-0.0406920425593853,
0.025469638407230377,
-0.026707524433732033,
0.0037307862658053637,
-0.00865950621664524,
-0.1331997513771057,
-0.08244393020868301,
-0.025722207501530647,
0.031999796628952026,
-0.0788591280579567,
-0.17333607375621796,
-0.05040072277188301,
-0.022030388936400414,
-0.01969183422625065,
0.03172418475151062,
-0.04095754399895668,
0.018394071608781815,
-0.022083602845668793,
-0.005405874457210302,
-0.05871662124991417,
0.006262290291488171,
0.02240884117782116,
0.015504720620810986,
-0.10325556993484497,
0.033544279634952545,
0.028012270107865334,
-0.011246839538216591,
-0.07946775108575821,
-0.02159321866929531,
0.07399258762598038,
0.04091333597898483,
-0.09114431589841843,
-0.012210856191813946,
0.08114059269428253,
-0.014538607560098171,
-0.11713562160730362,
-0.042463622987270355,
-0.019708646461367607,
-0.03537490591406822,
0.019569743424654007,
-0.027262160554528236,
0.022254817187786102,
0.042550865560770035,
-0.04364227131009102,
-0.0748581811785698,
-0.059840861707925797,
0.028257841244339943,
-0.038487255573272705,
0.05555535480380058,
0.06959833949804306,
-0.015078413300216198,
-0.09229619801044464,
0.01769384741783142,
0.08412449806928635,
0.06416773796081543,
-0.06864355504512787,
-0.032358478754758835,
0.009773515164852142,
-0.03583674877882004,
-0.024032166227698326,
-0.14028073847293854,
-0.0073209828697144985,
-0.045709263533353806,
0.031045392155647278,
0.0032365787774324417,
-0.008012755773961544,
0.0048568882048130035,
-0.06859343498945236,
-0.025356849655508995,
-0.018476372584700584,
-0.06908003985881805,
0.03243955597281456,
-0.12293952703475952,
0.062335625290870667,
0.058163225650787354,
-0.043484531342983246,
0.0613003633916378,
0.06318549066781998,
0.07872921973466873,
0.07477083802223206,
0.0151826161891222,
0.023363538086414337,
-0.035605523735284805,
0.11542238295078278,
0.03706616908311844,
-0.080001600086689,
-0.01978289894759655,
0.028512444347143173,
-0.028296861797571182,
-0.04893118888139725,
-0.10870672762393951,
-0.01740245148539543,
0.1224680170416832,
-0.06272845715284348,
-0.017332516610622406,
-0.10356107354164124,
-0.05389738455414772,
0.03365788981318474,
0.016724996268749237,
0.0716744214296341,
0.0027628170792013407,
-0.0417296439409256,
-0.04335232079029083,
0.05010460317134857,
0.07010256499052048,
0.032773662358522415,
0.02239598147571087,
-0.04960789531469345,
0.09907158464193344,
0.02262859418988228,
0.08432864397764206,
0.014647678472101688,
0.09054624289274216,
0.00943903811275959,
-0.12855511903762817,
-0.09685224294662476,
-0.08204424381256104,
0.04180677980184555,
-0.06182318553328514,
0.06789547950029373,
0.02281244285404682,
0.02307978831231594,
-0.06621596962213516,
0.005226286593824625,
0.09108227491378784,
0.05570879951119423,
0.06227085366845131,
0.014161118306219578,
0.1744651049375534,
0.03131315857172012,
-0.01424273382872343,
0.12423637509346008,
0.06946146488189697,
-0.006977371405810118,
-0.011576574295759201,
-0.04167820140719414,
0.0759812742471695,
0.0028401154559105635,
-0.04938121885061264,
-0.01166758593171835,
0.027491534128785133,
0.036473535001277924,
-0.006146574392914772,
-0.051149290055036545,
-0.004820190370082855,
-0.007230344228446484,
0.07334811240434647,
-0.008320839144289494,
-0.048780377954244614,
-0.027060410007834435,
0.002486994257196784,
-0.0001208422108902596,
0.04982435330748558,
0.006432224065065384,
-0.022179504856467247,
0.01828554831445217,
-0.010205491445958614,
0.006257778499275446,
-0.011017099022865295,
-0.0016127884155139327,
-0.0689186230301857,
0.04283183440566063,
-0.034755889326334,
0.029647385701537132,
-0.034172773361206055,
0.042580973356962204,
-0.015262425877153873,
0.015027523972094059,
0.03633880987763405,
0.06773505359888077,
0.058827806264162064,
0.0048104398883879185,
0.01581806130707264,
-0.009573815390467644,
0.004869925789535046,
-0.018118897452950478,
-0.018565304577350616,
-0.008294478058815002,
-0.012751872651278973,
-0.05635685473680496,
0.06419721245765686,
0.034668490290641785,
-0.047188181430101395,
-0.0268793236464262,
0.0033761844970285892,
0.020573396235704422,
0.04800308495759964,
0.03700339421629906,
0.031787969172000885,
0.022855659946799278,
-0.04800642281770706,
-0.11547629535198212,
0.00408972380682826,
0.13752996921539307,
-0.060874536633491516,
-0.05065559595823288,
-0.042877763509750366,
0.030520854517817497,
-1.2292301107663661e-05,
0.03910325467586517,
-0.00686067808419466,
-0.01724773272871971,
-0.07229266315698624,
0.07532839477062225,
-0.02383650466799736,
0.07502163201570511,
-0.004413280636072159,
-0.023523887619376183,
0.022559678182005882,
-0.011692133732140064,
-0.02067248523235321,
0.12279494106769562,
0.05582201108336449,
-0.05972318351268768,
-0.03860513120889664,
-0.009376868605613708,
0.006846852134913206,
0.0317913182079792,
-0.018649782985448837,
-0.03154205530881882,
-0.07160843163728714,
-0.04266937077045441,
0.04772841930389404,
-0.007232187315821648,
-0.12392681837081909,
-0.02348240651190281,
0.03863172233104706,
-0.004265058320015669,
0.04575188085436821,
0.045348603278398514,
0.009706036187708378,
-0.019826408475637436,
-0.042388010770082474,
0.00865230429917574,
0.05919765681028366,
-0.03064814582467079,
0.03181740269064903,
-0.024942532181739807,
-0.01268737018108368,
0.02492341585457325,
-0.019577352330088615,
-0.020185118541121483,
0.03102882206439972,
0.015767131000757217,
0.041251640766859055,
0.07855119556188583,
-0.02306470461189747,
-0.03406072407960892,
0.05338868498802185,
0.04583997651934624,
-0.0307460967451334,
0.0007037409231998026,
-0.042569488286972046,
0.012402277439832687,
0.056692637503147125,
0.01017069909721613,
-0.04208792746067047,
-0.008495794609189034,
-0.051137663424015045,
-0.015586276538670063,
0.03902179375290871,
0.03670014441013336,
-0.02329959161579609,
-0.03917010873556137,
-0.0607159361243248,
-0.031519096344709396,
0.042911674827337265,
0.048981666564941406,
0.0047096810303628445,
-0.05239855870604515,
-0.08522748202085495,
0.0657556802034378,
0.06206946447491646,
0.0495225228369236,
0.03832155466079712,
-0.056945376098155975,
-0.0789823979139328,
-0.038090791553258896,
0.06964914500713348,
0.0372454971075058,
0.01581587828695774,
0.01429089903831482,
0.06790120899677277,
-0.021159816533327103,
0.03469575569033623,
-0.002931627444922924,
0.024191245436668396,
0.03609246388077736,
0.02461511269211769,
0.06410635262727737,
0.06860452890396118,
0.061519213020801544,
0.022270357236266136,
0.03845377638936043,
-0.0041184392757713795,
-0.00545051833614707,
-0.06810061633586884,
-0.033602792769670486,
-0.06236691400408745,
0.09229127317667007,
-0.0243615061044693,
-0.03284066170454025,
-0.10856384038925171,
0.007432752288877964,
-0.03828958794474602,
-0.0428122840821743,
-0.11414656043052673,
-0.028718002140522003,
0.010394593700766563,
-0.02950187772512436,
0.018895652145147324,
-0.016363127157092094,
0.010154113173484802,
0.04574569687247276,
-0.03684266284108162,
0.025383740663528442,
0.003185168607160449,
-0.04308069497346878,
0.019540607929229736,
-0.03205663338303566,
0.10550250858068466,
0.017756609246134758,
0.008853113278746605,
-0.03356087580323219,
-0.002592892851680517,
0.026599867269396782,
-0.08064952492713928,
-0.04925372079014778,
0.04952329024672508,
0.0578451082110405,
-0.029165297746658325,
-0.027035566046833992,
0.029408197849988937,
0.04431362822651863,
0.032612819224596024,
-0.003738755127415061,
0.005928619299083948,
0.07112554460763931,
0.012066787108778954,
0.06973391771316528,
0.12985852360725403,
0.08517301082611084,
0.007767009548842907,
-0.019618678838014603,
0.019278855994343758,
0.012959704734385014,
0.030438315123319626,
0.006382452789694071,
0.013376442715525627,
0.06388792395591736,
0.12616987526416779,
-0.06175337731838226,
-0.0032446773257106543,
-0.04507594183087349,
-0.15325956046581268,
0.036178525537252426,
0.02430626191198826,
-0.03768255189061165,
-0.017764519900083542,
0.019193124026060104,
0.0037989558186382055,
-0.03483777865767479,
0.04139833152294159,
-0.026733238250017166,
-0.06543562561273575,
-0.04278403893113136,
0.026776399463415146,
0.03948095440864563,
-0.05893908441066742,
-0.01933668740093708,
0.09014708548784256,
0.040380001068115234,
0.011693580076098442,
0.03469625860452652,
-0.01866544410586357,
-0.10507261008024216,
-0.058202099055051804,
0.005418763030320406,
0.028919067233800888,
0.018618617206811905,
0.06304511427879333,
0.06044574826955795,
0.045915599912405014,
-0.026965277269482613,
-0.03424680978059769,
-0.01815037429332733,
-0.08242714405059814,
0.023466473445296288,
0.0038465026300400496,
0.08814319968223572,
0.010986068286001682,
0.04809563606977463,
0.0144038749858737,
0.02255384437739849,
0.08673420548439026,
-0.0012404595036059618,
-0.06213145703077316,
-0.03308294340968132,
-0.05961606279015541,
0.046650391072034836,
-0.020137973129749298,
-0.009521106258034706,
-0.05890553817152977,
-0.07137534022331238,
0.06478516012430191,
0.08361312001943588,
-0.019397055730223656,
-0.09582275152206421,
-0.09409677237272263,
0.0711800679564476,
0.01048379298299551,
-0.03744801878929138,
-0.022297406569123268,
0.09771598130464554,
0.08004529774188995,
0.04436095803976059,
0.02214214764535427,
-0.003070870414376259,
0.03518105670809746,
-0.04308987036347389,
-0.015833644196391106,
-0.009494463913142681,
-0.07242368906736374,
0.05270583927631378,
-0.023242799565196037,
-0.056736577302217484,
-0.006284864619374275,
-0.013370320200920105,
0.026882324367761612,
-0.0912037044763565,
0.07537293434143066,
0.009158945642411709,
0.00818699225783348,
-0.016730282455682755,
-0.029199285432696342,
0.02848426252603531,
0.031029274687170982,
-0.016725443303585052,
-0.007004179991781712,
0.08459315448999405,
0.05634189769625664,
0.040455374866724014,
-0.015334065072238445,
-0.010380426421761513,
0.05662102624773979,
0.0532132051885128,
-0.09000200778245926,
-0.03458449989557266,
-0.02085176482796669,
-0.020983146503567696,
0.019324099645018578,
-0.07300381362438202,
-0.010279437527060509,
-0.076541468501091,
-0.03506820648908615,
0.06262220442295074,
-0.03956075385212898,
-0.07116299122571945,
-0.11886420100927353,
-0.010154401883482933,
0.03927820548415184,
-0.020529720932245255,
-0.025309447199106216,
-0.033469073474407196,
-0.05426441505551338,
0.018631894141435623,
0.09468889981508255,
0.12346620112657547,
0.01777706854045391,
0.050922833383083344,
-0.045779645442962646,
0.01908086985349655,
0.048820968717336655,
0.009013849310576916,
0.05362659692764282,
-0.03871086612343788,
-0.10867109149694443,
-0.12232130765914917,
-0.008827709592878819,
-0.029648711904883385,
-0.06498131155967712,
-0.04759376123547554,
-0.06019170582294464,
-0.024686943739652634,
-0.10188675671815872,
0.04103177413344383,
-0.002226094948127866,
-0.04506035894155502,
0.023201001808047295,
0.005406208336353302,
-0.0019282306311652064,
0.00020910751482006162,
-0.04724908992648125,
0.012773492373526096,
-0.0004470233106985688,
0.03294631093740463,
-0.014186151325702667,
0.029303433373570442,
0.04020800441503525,
-0.005943555850535631,
0.005804380401968956,
-0.007705910596996546,
-0.04428032785654068,
0.04293951019644737,
0.08004879206418991,
0.053718145936727524,
0.07354526966810226,
0.004533314146101475,
-0.030733300372958183,
-0.0458882674574852,
-0.025595564395189285,
-0.076351098716259,
-0.050008904188871384,
0.025800390169024467,
-0.03599901497364044,
0.0007113899919204414,
0.007242673542350531,
-0.032307397574186325,
0.033993907272815704,
0.036245882511138916,
0.03387796878814697,
-0.005620739888399839,
0.01296903658658266,
0.0040085287764668465,
0.04350719973444939,
-0.029011255130171776,
0.005641769152134657,
-0.00059957813937217,
0.00937551911920309,
0.03670864179730415,
0.01884169690310955,
-0.06532616913318634,
-0.038172390311956406,
-0.032804831862449646,
0.02341759204864502,
0.001090188161469996,
-0.034690968692302704,
-0.031756822019815445,
-0.006900276057422161,
-0.007193651981651783,
-0.02032763697206974,
0.025544270873069763,
0.03508394956588745,
-0.030582396313548088,
0.0019658897072076797,
0.016552366316318512,
-0.016343649476766586,
0.051901381462812424,
0.06072523072361946,
0.027718674391508102,
-0.026050405576825142,
-0.009446066804230213,
-0.03963825851678848,
0.034742794930934906,
-0.016382863745093346,
-0.011388895101845264,
-0.031678207218647,
-0.013441203162074089,
0.0069381603971123695,
-0.05088347941637039,
0.0017264019697904587,
-0.021774878725409508,
0.01940147578716278,
-0.03778447210788727,
-0.04366328567266464,
-0.023507757112383842,
0.00563780078664422,
0.04939909279346466,
-0.017824428156018257,
-0.03168327733874321,
0.0007971549057401717,
-0.02640911377966404,
-0.04289523512125015,
0.04446844011545181,
0.042963504791259766,
-0.007252265699207783,
0.003295445116236806,
-0.027889063581824303,
0.01808999478816986,
0.04320904240012169,
0.04096534848213196,
-0.04689788818359375,
0.045459259301424026,
-0.027512455359101295,
0.013456450775265694,
0.04280643165111542,
-0.01363934762775898,
0.028222180902957916,
-0.007850571535527706,
0.00883715320378542,
0.034730199724435806,
-0.015690524131059647,
0.013147634454071522,
0.02171093411743641,
-0.012048433534801006,
-0.04698474705219269,
-0.010135576128959656,
0.003458229824900627,
0.03381994739174843,
0.020801251754164696,
0.01669897697865963,
-0.04955916851758957,
-0.017538027837872505,
-0.011498404666781425,
-0.040355097502470016,
0.025432365015149117,
-0.010777424089610577,
-0.05857672542333603,
-0.00633892510086298,
0.02976941131055355,
0.002029178198426962,
-0.04786445200443268,
0.023513449355959892,
0.034885041415691376,
-0.06583965569734573,
-0.02714783139526844,
0.019098427146673203,
0.06448288261890411,
0.014564125798642635,
-0.015167765319347382,
0.005959780886769295,
0.043186161667108536,
0.007272029761224985,
0.030689353123307228,
0.082217276096344,
0.02019921876490116,
0.030611233785748482,
0.03949347138404846,
-0.036774300038814545,
-0.053167738020420074,
-0.035707153379917145,
-0.04217010736465454,
-0.007196956314146519,
0.0015856851823627949,
0.014901375398039818,
0.024358926340937614,
0.007217584643512964,
0.012065716087818146,
0.04019782319664955,
-0.0030649241525679827,
0.0027996960561722517,
0.051367904990911484,
0.01857701502740383,
-0.006015294697135687,
-0.005851804744452238,
0.002793459454551339,
0.026415428146719933,
0.010274265892803669,
-0.024669134989380836,
0.04446028172969818,
0.017786668613553047,
0.007344088517129421,
0.03135500103235245,
-0.04752444475889206,
-0.054599579423666,
-0.00016290896746795624,
0.018777165561914444,
-0.00676181772723794,
0.0504644550383091,
-0.02003045566380024,
0.06239273026585579,
0.000633979681879282,
0.007977399975061417,
-0.03100399300456047,
-0.02057039923965931,
0.06830209493637085,
0.03916241228580475,
-0.019959187135100365,
-0.027938473969697952,
0.005960865877568722,
0.013763213530182838,
-0.03190840780735016,
0.023216838017106056,
0.008779941126704216,
-0.019395116716623306,
0.03495519980788231,
0.017321966588497162,
-0.015395808033645153,
0.017901400104165077,
0.06418880820274353,
-0.031356338411569595,
0.017550554126501083,
0.02971882000565529,
0.0056966799311339855,
-0.07879192382097244,
-0.06713386625051498,
0.03336481750011444,
0.030602801591157913,
0.017797237262129784,
0.00265715504065156,
0.06861760467290878,
-0.014027884230017662,
-0.015493960119783878,
0.02120181918144226,
-0.007216380909085274,
0.006874093785881996,
0.07016191631555557,
0.019739573821425438,
-0.012393232434988022,
-0.025624064728617668,
0.024860922247171402,
0.04552340507507324,
-0.0506322868168354,
-0.036394186317920685,
-0.01250593550503254,
0.046516239643096924,
0.015851659700274467,
-0.023356545716524124,
0.025632701814174652,
-0.010439714416861534,
0.02132524363696575,
-0.04002063721418381,
-0.05475638061761856,
0.04697004333138466,
0.039827775210142136,
-0.02304990403354168,
-0.044931188225746155,
-0.01916845701634884,
0.026343388482928276,
0.03575659915804863,
0.011155392974615097,
0.011409641243517399,
0.026273205876350403,
0.03975582867860794,
-0.034659937024116516,
0.009379932656884193,
0.007826501503586769,
0.013429551385343075,
-0.02840075083076954,
-0.0518651157617569,
-0.010819750837981701,
0.03850600868463516,
0.006094041746109724,
0.017723122611641884,
0.07520966976881027,
0.01071674469858408,
-0.0014160950668156147,
-0.023817971348762512,
-0.004215916618704796,
-0.0011462291004136205,
-0.0624961331486702,
-0.03503260016441345,
-0.019663874059915543,
0.03189929947257042,
-0.03466916084289551,
-0.010908011347055435,
0.056561246514320374,
-0.03989732638001442,
-0.06690575927495956,
-0.07103436440229416,
-0.005734031088650227,
-0.026892486959695816,
0.03671543672680855,
-0.04705740511417389,
0.024504700675606728,
-0.004674594849348068,
0.00021531552192755044,
-0.012781297788023949,
-0.041274286806583405,
0.04430093988776207,
0.08079199492931366,
-0.022913113236427307,
-0.0037943674251437187,
0.005027694161981344,
-0.00014130186173133552,
-0.00734963733702898,
-0.016436733305454254,
0.015705887228250504,
-0.05792173743247986,
-0.035127509385347366,
0.0622931532561779,
0.018820611760020256,
-0.024548927322030067,
-0.03593961149454117,
0.07470390200614929,
0.02887103706598282,
0.011749465949833393,
0.02030707336962223,
0.012058049440383911,
0.012018915265798569,
0.006909510586410761,
0.02518490143120289,
-0.028985412791371346,
0.023460913449525833,
0.037869784981012344,
0.04450761526823044,
-0.02753322944045067,
-0.007029932923614979,
0.022998670116066933,
-0.03728780895471573,
-0.019670598208904266,
-0.022292649373412132,
0.031228384003043175,
-0.07251609861850739,
-0.04685297608375549,
-0.022558463737368584,
0.006227525416761637,
0.04164658486843109,
-0.0023806653916835785,
-0.02555754780769348,
0.02745055966079235,
-0.027262648567557335,
-0.049725741147994995,
-0.0477004200220108,
-0.04005205258727074,
-0.003411842742934823,
0.009623480029404163,
0.004287495743483305,
-0.01274876855313778,
-0.004660960752516985,
-0.05732426047325134,
0.017004376277327538,
-0.02972908690571785,
-0.010418963618576527,
-0.02679779753088951,
-0.03689264878630638,
0.011085723526775837,
0.000909295107703656,
0.010348194278776646,
0.027219465002417564,
-0.001505202380940318,
0.01776096783578396,
-0.04510843753814697,
-0.005200705491006374,
0.01511432882398367,
-0.04612713307142258,
-0.027608569711446762,
-0.0038978615775704384,
-0.06104646623134613,
-0.0011210148222744465,
0.010807713493704796,
-0.017620250582695007,
-0.016053782775998116,
-0.006345436908304691,
-0.047662243247032166,
-0.017971454188227654,
0.010800871066749096,
-0.04173200577497482,
-0.021033527329564095,
-0.014918358996510506,
0.011075698770582676,
0.057584989815950394,
0.011338762938976288,
-0.014493749476969242,
-0.08177115023136139,
0.06450662761926651,
0.02405858226120472,
0.01746552810072899,
-0.012368690222501755,
-0.07208593189716339,
0.018985873088240623,
0.023669593036174774,
-0.022051816806197166,
0.040364447981119156,
-0.0055231619626283646,
0.004010300152003765,
-0.02883714810013771,
0.024488050490617752,
0.011898373253643513,
-0.0031718227546662092,
0.0057952916249632835,
-0.004639542195945978,
-0.0015988992527127266,
0.03923901915550232,
0.021488172933459282,
-0.012430241331458092,
0.04652535170316696,
-0.013294367119669914,
0.012211966328322887,
-0.024778371676802635,
0.013040325604379177,
0.026143239811062813,
0.009844586253166199,
0.004924871493130922,
-0.05489995703101158,
0.07152801007032394,
0.07222500443458557,
-0.03184294328093529,
0.030328786000609398,
0.06291480362415314,
0.043757274746894836,
-0.002592710079625249,
-0.060749251395463943,
0.027235697954893112,
0.004681870341300964,
-0.07562678307294846,
-0.049818746745586395,
-0.061181966215372086,
0.02704690955579281,
0.09613335132598877,
0.007467071991413832,
0.009471233002841473,
-0.07501763105392456,
0.011255403980612755,
0.06577092409133911,
0.05873087793588638,
0.08378177136182785,
0.06899238377809525,
-0.02965637668967247,
0.013939191587269306,
0.0704241394996643,
0.08211895078420639,
0.028210215270519257,
-0.006143401376903057,
0.004149714484810829,
0.02242935448884964,
0.0463881753385067,
0.05427836999297142,
0.033782217651605606,
-0.07158873230218887,
-0.055230990052223206,
0.039811424911022186,
-0.028916483744978905,
0.027122002094984055,
0.02114998735487461,
-0.014732145704329014,
0.07598041743040085,
-0.019932879135012627,
0.056080546230077744,
0.07916263490915298,
0.010764049366116524,
0.010665017180144787,
-0.027270011603832245,
0.041223470121622086,
-0.0064698210917413235,
-0.03413814306259155,
0.03309188038110733,
0.018440403044223785,
0.08747117221355438,
-0.02527114748954773,
0.01674032025039196,
-0.001699173590168357,
-0.07051718235015869,
0.0038617667742073536,
-0.03982924297451973,
0.013181786984205246,
0.025590911507606506,
0.01680373027920723,
0.03697511553764343,
-0.06115030124783516,
-0.08507299423217773,
0.0007029183907434344,
-0.06334031373262405,
0.032754603773355484,
0.0013132613385096192,
-0.004142022226005793,
0.028823301196098328,
0.021623222157359123,
0.03946623578667641,
0.03287527337670326,
0.0574159100651741,
0.026062026619911194,
-0.031387005001306534,
0.01862018182873726,
-0.01575917936861515,
0.02603042684495449,
0.0259309820830822,
-0.03510962799191475,
0.0009411672363057733,
0.01446527149528265,
0.05298057943582535,
0.03128235042095184,
-0.04826927185058594,
-0.007639842573553324,
-0.0009270457085222006,
0.010869430378079414,
-0.02786412090063095,
-0.008599108085036278,
0.008633904159069061,
0.0327896811068058,
0.0016766167245805264,
0.05389496684074402,
0.02563316375017166,
-0.014572321437299252,
-0.012475565075874329,
0.02615339495241642,
-0.03597584366798401,
0.0035807909443974495,
0.041165102273225784,
-0.05452977493405342,
0.04996034875512123,
-0.01797833852469921,
0.02030271477997303,
-0.011904623359441757,
-0.053987935185432434,
0.02594962902367115,
-0.005636996123939753,
-0.04979678988456726,
-0.03542462736368179,
0.07311542332172394,
0.02854689210653305,
-0.008659888058900833,
0.024424592033028603,
-0.032617758959531784,
-0.01529940590262413,
-0.03863101452589035,
0.01616869494318962,
-0.005139957647770643,
0.002511446364223957,
0.027774496003985405,
-0.048206526786088943,
0.05263154208660126,
0.038597472012043,
0.03513564169406891,
0.11143413186073303,
0.07805237919092178,
-0.040430642664432526,
-0.05231202021241188,
0.06899779289960861,
-0.0221878569573164,
0.03956124186515808,
-0.030114149674773216,
-0.03791765868663788,
-0.05943737551569939,
-0.14336034655570984,
-0.038814280182123184,
0.05404878407716751,
0.05544736981391907,
0.04574856534600258,
0.06255422532558441,
0.1345946490764618,
0.003899376140907407,
0.013431377708911896,
-0.01353028230369091,
0.022049957886338234,
0.04704584553837776,
-0.05081741139292717,
0.05045212432742119,
0.06231573224067688,
0.049398720264434814,
0.01270345039665699,
0.0011369793210178614,
-0.05083717033267021,
0.07803153246641159,
0.01695753075182438,
0.04001636803150177,
-0.007849480956792831,
-0.0233023539185524,
0.07054193317890167,
0.04255412891507149,
0.0390845462679863,
0.02261837013065815,
-0.01592327281832695,
0.04091900214552879,
0.05117487907409668,
-0.03483230248093605,
-0.006294155027717352,
0.05160039663314819,
0.054472826421260834,
0.026609446853399277,
-0.0019750860519707203,
-0.016111891716718674,
0.00966999027878046,
0.0872860848903656,
0.058356136083602905,
-0.006926137488335371,
0.04917919635772705,
0.021437935531139374,
-0.03984106332063675,
-0.024977106600999832,
-0.010376903228461742,
-0.04240370914340019,
-0.014718853868544102,
0.0447656586766243,
0.04874873161315918,
0.031633127480745316,
0.02315044216811657,
0.002695796312764287,
-0.017439842224121094,
0.06586996465921402,
0.011919946409761906,
0.03194478154182434,
0.04112544655799866,
-0.014353560283780098,
-0.003925447352230549,
-0.04856705665588379,
0.015520120039582253,
-0.04255693405866623,
0.010873724706470966,
-0.003852269845083356,
0.011144795455038548,
-0.023442953824996948,
-0.05829589441418648,
0.0652887374162674,
0.04817751422524452,
0.024454345926642418,
-0.04753105714917183,
-0.04219907522201538,
-0.038156453520059586,
-0.030074799433350563,
-0.04667195677757263,
0.06397856771945953,
-0.01350295078009367,
0.016670888289809227,
-0.005795464385300875,
-0.013596104457974434,
-0.0032821272034198046,
0.019294332712888718,
-0.0005871319444850087,
-0.049567535519599915,
0.01277038175612688,
-0.06712669879198074,
-0.021014142781496048,
-0.004914033226668835,
-0.0465347021818161,
-0.09128166735172272,
-0.027243830263614655,
-0.00894419476389885,
0.04781101271510124,
-0.05443685129284859,
-0.03127392381429672,
0.04048364609479904,
0.025792710483074188,
-0.02853730134665966,
0.0005406219279393554,
-0.020959211513400078,
0.007758292369544506,
0.01752578094601631,
-0.04636354744434357,
-0.06619422882795334,
-0.01826641336083412,
-0.037590984255075455,
0.03950534760951996,
0.030390122905373573,
-0.003323335899040103,
0.08161643147468567,
0.053230684250593185,
-0.008395371027290821,
-0.013505940325558186,
0.012445866130292416,
0.03000270202755928,
0.020702390000224113,
-0.02410130761563778,
-0.04288817197084427,
-0.07732309401035309,
-0.013757331296801567,
-0.0055574350990355015,
0.006999385077506304,
0.0007399455644190311,
-0.07959722727537155,
-0.043078016489744186,
0.009023983962833881,
0.05283176526427269,
-0.028585752472281456,
-0.09659682214260101,
-0.054378606379032135,
0.03047076426446438,
-0.022696740925312042,
-0.008825945667922497,
-0.02020610123872757,
-0.009019904769957066,
-0.0720328763127327,
0.04129433631896973,
0.009174762293696404,
-0.0390235036611557,
0.05554906651377678,
0.02490219846367836,
7.788494986016303e-05,
-0.022520408034324646,
-0.03766637668013573,
-0.006419591140002012,
0.011367889121174812,
0.057826437056064606,
-0.029491962864995003,
-0.04233359172940254,
-0.1355416476726532,
-0.04323754087090492,
-0.003685850417241454,
-0.034685030579566956,
0.006156481336802244,
0.01996299996972084,
0.1027737408876419,
0.08211630582809448,
-0.0055394102819263935,
-0.06030827388167381,
-0.004558724816888571,
0.06065236032009125,
-0.05437461659312248,
0.0008106953464448452,
-0.0680897906422615,
-0.017174633219838142,
0.010770568624138832,
-0.006821072194725275,
0.07595524936914444,
0.0385226272046566,
0.03388386592268944,
0.028110912069678307,
0.011349550448358059,
-0.07656935602426529,
-0.03285854682326317,
0.006366764195263386,
0.01017230935394764,
-0.020975397899746895,
-0.06757558137178421,
-0.059196993708610535,
0.0008588884957134724,
-0.02003205381333828,
0.05799831449985504,
-0.055681925266981125,
-0.062003325670957565,
-0.055363062769174576,
-0.016329361125826836,
0.05739925429224968,
0.0046838694252073765,
-0.031076395884156227,
-0.03395456075668335,
-0.04877173528075218,
-0.0015361966798081994,
-0.0632307156920433,
-0.005307488609105349,
-0.06919370591640472,
0.027459900826215744,
0.05761847645044327,
-0.023351024836301804,
-0.04112858697772026,
-0.012662372551858425,
0.042435452342033386,
0.011915124952793121,
-0.10702227056026459,
-0.06837833672761917,
0.007479752413928509,
0.030279969796538353,
0.030460651963949203,
-0.026628443971276283,
-0.05052296072244644,
-0.04208368808031082,
-0.025202583521604538,
-0.06439482420682907,
0.007718740031123161,
-0.05039771646261215,
0.057990122586488724,
-0.027800146490335464,
0.0481572188436985,
0.008805034682154655,
-0.045004379004240036,
-0.009777767583727837,
-0.0002823190880008042,
0.03192432224750519,
-0.095501609146595,
-0.023621445521712303,
0.006588479969650507,
-0.02780499868094921,
0.018267564475536346,
-0.03314203396439552,
-0.08534074574708939,
0.004054094664752483,
-0.03797779604792595,
0.05063615366816521,
-0.07228365540504456,
0.02009640820324421,
0.002899397164583206,
-0.05701003968715668,
0.022060073912143707,
-0.06876879185438156,
-0.03558835759758949,
-0.06904181838035583,
-0.03694715350866318,
0.010545024648308754,
-0.05710119009017944,
0.06107766181230545,
-0.026053329929709435,
0.04216727241873741,
0.03803979605436325,
0.0001708304334897548,
-0.029561573639512062,
-0.06562010943889618,
-0.021486081182956696,
-0.05754254758358002,
-0.0688423365354538,
-0.06211388111114502,
0.04330110177397728,
0.05988185480237007,
0.07178381830453873,
-0.10579650104045868,
-0.07456548511981964,
0.04791158810257912,
0.011350944638252258,
0.03763340041041374,
-0.07951798290014267,
-0.01984250172972679,
-0.031095197424292564,
0.04271266609430313,
-0.03868931159377098,
-0.035962797701358795,
-0.009828679263591766,
0.01097969338297844,
-0.0007496091420762241,
0.018891427665948868,
0.03948765993118286,
0.06321781873703003,
0.05767621845006943,
0.06701628863811493,
-0.04328204318881035,
0.03006693162024021,
0.0480729304254055,
0.05654774606227875,
-0.07154440134763718,
-0.042804040014743805,
0.05451896786689758,
-0.0066600460559129715,
-0.03637833148241043,
-0.08251357823610306,
0.025494473055005074,
-0.0496474914252758,
0.00675375759601593,
0.08301304280757904,
0.07546485960483551,
0.05020540580153465,
-0.03318415582180023,
0.016442684456706047,
0.012879972346127033,
0.01963994652032852,
0.09553319215774536,
0.01252766977995634,
-0.013390589505434036,
0.05628184601664543,
0.04687368869781494,
-0.030779661610722542,
0.008589573204517365,
-0.04802504926919937,
-0.08239825069904327,
-0.030717844143509865,
-0.004732192028313875,
0.05004236102104187,
-0.008171492256224155,
-0.030362006276845932,
0.00957887526601553,
-0.007224749773740768,
0.003990720491856337,
-0.024987494572997093,
-0.009377135895192623,
0.1043732762336731,
0.018635042011737823,
0.02457340620458126,
0.0648905485868454,
0.049976006150245667,
-0.0028523369692265987,
-0.06633760035037994,
-0.04220416024327278,
0.07154954969882965,
-0.04194226861000061,
0.03375875577330589,
-0.0017763294745236635,
0.04107228294014931,
-0.029933007434010506,
-0.04424837604165077,
0.005629026331007481,
0.0008042831323109567,
0.0719713643193245,
0.01580125465989113,
0.0073353443294763565,
0.03859984502196312,
0.023884909227490425,
0.05506962910294533,
0.0022181645035743713,
-0.010434703901410103,
-0.004072126466780901,
0.05971263721585274,
-0.02853367291390896,
0.036597710102796555,
0.03491918370127678,
-0.0011398972710594535,
-0.007367509417235851,
-0.04670931026339531,
0.052451666444540024,
0.034495458006858826,
0.010065386071801186,
0.016094723716378212,
0.05307356268167496,
-0.03554389625787735,
-0.022091107442975044,
0.03912055864930153,
0.010351636447012424,
-0.0030269294511526823,
-0.04166720435023308,
0.008132116869091988,
0.018744833767414093,
-0.04531869292259216,
0.020120972767472267,
0.020638026297092438,
-0.07253938168287277,
-0.015283267945051193,
0.01289013959467411,
-0.01075990591198206,
0.03130572661757469,
-0.0115684038028121,
-0.052464596927165985,
-0.017812808975577354,
0.06793207675218582,
0.041051335632801056,
0.026345666497945786,
0.04127180203795433,
-0.010089217685163021,
-0.024279296398162842,
-0.10437610000371933,
-0.10629163682460785,
-0.09551399201154709,
-0.02838658168911934,
-0.09078756719827652,
-0.16620218753814697,
-0.12000967562198639,
-0.115066297352314,
-0.0628914162516594,
-0.08759033679962158,
-0.03434903174638748,
0.008520911447703838,
-0.0370633639395237,
0.05509268119931221,
-0.056256406009197235,
-0.0082169771194458,
0.014184641651809216,
0.009562257677316666,
-0.0017181780422106385,
0.02065454050898552,
-0.00839864183217287,
0.04877863824367523,
-0.022027747705578804,
0.0335230827331543,
0.019093967974185944,
0.0663701593875885,
-0.03160373494029045,
-0.059566106647253036,
-0.013375608250498772,
0.04997732490301132,
0.06912495940923691,
-0.003505606669932604,
-0.005781999323517084,
-0.021881379187107086,
0.011969050392508507,
-0.0008373347809538245,
-0.04082002118229866,
0.05935700237751007,
0.07531287521123886,
0.054644644260406494,
-0.03836313262581825,
0.010801611468195915,
-0.04661588743329048,
0.005846037063747644,
-0.04179743304848671,
-0.01677798293530941,
0.003484272165223956,
-0.027873309329152107,
-0.023110130801796913,
0.03175107017159462,
0.03794655203819275,
0.03356442600488663,
0.012380694970488548,
0.020493999123573303,
-0.001047729980200529,
0.0007464674417860806,
0.019032668322324753,
-0.03135111927986145,
0.05766790360212326,
0.012663902714848518,
-0.05294635891914368,
0.036556538194417953,
-0.045372456312179565,
-0.0010559522779658437,
0.000769019708968699,
-0.022084467113018036,
0.046339184045791626,
-0.0022248998284339905,
-0.002231154590845108,
0.015210967510938644,
0.031048672273755074,
0.07697194069623947,
-0.005693186540156603,
-0.034762024879455566,
0.09787748754024506,
0.06310349702835083,
-0.034641083329916,
-0.013889439404010773,
0.008446704596281052,
0.03685552626848221,
0.03175096958875656,
-0.08073347806930542,
0.020404284819960594,
0.08037538081407547,
-0.001218141638673842,
0.06533052772283554,
0.021159131079912186,
0.08485031872987747,
0.1168963685631752,
0.037957631051540375,
-0.017374366521835327,
0.030435070395469666,
-0.03382936120033264,
0.03516346588730812,
0.061252132058143616,
-0.07801956683397293,
0.04212545230984688,
0.04858658090233803,
0.030926285311579704,
-0.004636769648641348,
-0.003119748318567872,
-0.03043881617486477,
0.041788626462221146,
0.03143678233027458,
0.050194673240184784,
0.010283311828970909,
-0.05785946920514107,
0.09761881083250046,
-0.047768864780664444,
0.027640286833047867,
0.00631849467754364,
0.06764329224824905,
-0.010925165377557278,
-0.11769537627696991,
-0.03885023668408394,
-0.008981989696621895,
-0.02000800147652626,
-0.09142839908599854,
-0.09283984452486038,
0.042316798120737076,
-0.023919695988297462,
0.039820581674575806,
0.030391937121748924,
-0.03986414521932602,
-0.0013159360969439149,
0.04391821101307869,
-0.05194874107837677,
0.02622285671532154,
0.01444560568779707,
-0.0025683632120490074,
0.020726952701807022,
-0.024429822340607643,
-0.022263044491410255,
0.007268781308084726,
-0.05371701344847679,
0.043887823820114136,
0.040301501750946045,
0.04786957427859306,
0.018222296610474586,
0.032326001673936844,
0.0021182862110435963,
-0.027676235884428024,
-0.017016159370541573,
0.011462668888270855,
-0.06821354478597641,
0.05750972777605057,
0.021292783319950104,
-0.02831282466650009,
0.0020297039300203323,
-0.02654976397752762,
-0.012415725737810135,
0.03507096692919731,
0.029059287160634995,
2.545212373661343e-05,
-0.04385431855916977,
-0.05983126163482666,
0.02455037459731102,
0.014734674245119095,
0.009036477655172348,
-0.046803560107946396,
-0.013822605833411217,
-0.06011052802205086,
-0.04474152997136116,
-0.04660332202911377,
-0.005341490730643272,
0.0401470884680748,
0.03656446933746338,
0.013375875540077686,
-0.009382179006934166,
-0.014537123031914234,
0.06474322825670242,
0.09920305758714676,
0.07374133914709091,
0.00047014348092488945,
-0.007928342558443546,
-0.020152218639850616,
-0.05155153572559357,
-0.06645412743091583,
-0.014091914519667625,
-0.019036220386624336,
0.06509283185005188,
-0.02513611502945423,
0.053984805941581726,
-0.05831315368413925,
0.0906810611486435,
0.042152803391218185,
-0.08621872216463089,
0.021821025758981705,
0.04635879397392273,
0.03154856339097023,
0.017842723056674004,
-0.015806611627340317,
0.023421140387654305,
-0.01976197399199009,
0.020258141681551933,
-0.043609604239463806,
-5.808978676213883e-05,
0.003979026805609465,
0.023335685953497887,
0.039354898035526276,
0.06271380931138992,
0.026055507361888885,
-0.0546373575925827,
0.01614082045853138,
0.04257253557443619,
0.070076584815979,
0.11805783212184906,
0.027851197868585587,
-0.04245632514357567,
0.03335205093026161,
0.026527445763349533,
-0.03141617774963379,
-0.04059576243162155,
-0.0638713389635086,
0.06250877678394318,
0.09026487171649933,
-0.051792826503515244,
-0.06485182046890259,
-0.042280953377485275,
0.013366670347750187,
-0.06490816920995712,
0.014494635164737701,
-0.007276938296854496,
-0.05772455409169197,
-0.09120950102806091,
0.01971293054521084,
0.03624485433101654,
0.04845569655299187,
-0.017798081040382385,
-0.05078141391277313,
-0.0756310373544693,
-0.03847740218043327,
-0.04416986554861069,
-0.0435604602098465,
-0.09127826243638992,
-0.021225737407803535,
0.01687498390674591,
-0.06238725781440735,
-0.034479498863220215,
-0.0008263057679869235,
0.04543568938970566,
0.04771185666322708,
-0.06369183212518692,
-0.06035218387842178,
0.04184144735336304,
0.01329760905355215,
0.03933144360780716,
0.008667954243719578,
0.025561729446053505,
-0.05484140291810036,
-0.07917610555887222,
0.04899836331605911,
-0.007429415360093117,
-0.05511588603258133,
-0.05046531930565834,
0.013646949082612991,
-0.03595729544758797,
-0.005661973264068365,
-0.04289884492754936,
-0.04577202349901199,
0.0012752508046105504,
0.014060807414352894,
-0.06636707484722137,
0.041421785950660706,
0.10999607294797897,
0.10761728882789612,
0.05513884127140045,
-0.06795754283666611,
0.03769838064908981,
-0.025609826669096947,
0.019665218889713287,
0.054532650858163834,
0.04746615141630173,
-0.026800110936164856,
-0.04729226604104042,
-0.03583173453807831,
0.008353080600500107,
0.0026454885955899954,
-0.0014044768176972866,
-0.10219380259513855,
0.05033246800303459,
0.11816995590925217,
0.07215884327888489,
0.011115695349872112,
-0.04347020387649536,
0.040813934057950974,
0.007982390001416206,
-0.019171208143234253,
-0.03253161534667015,
-0.022604815661907196,
0.03856481611728668,
0.0428556352853775,
-0.07919874042272568,
-0.02877659723162651,
-0.03916889801621437,
-0.0016253764042630792,
-0.02993885427713394,
0.04002700746059418,
-0.010609538294374943,
-0.025864074006676674,
-0.05215093493461609,
0.0918850526213646,
0.042400963604450226,
0.011429261416196823,
-0.06289716064929962,
0.05542910471558571,
0.05598699674010277,
0.05957987159490585,
-0.04851445555686951,
-0.03295433148741722,
-0.006015785038471222,
0.08312110602855682,
0.06753707677125931,
-0.03433441370725632,
-0.05606947839260101,
-0.17282333970069885,
-0.09664792567491531,
-0.10210317373275757,
-0.14560467004776,
-0.05350558087229729,
0.016366489231586456,
0.12647230923175812,
0.16575849056243896,
0.05018367990851402,
0.01788151264190674,
-0.06552384048700333,
0.018150486052036285,
0.10962793231010437,
0.011504343710839748,
0.03852653503417969,
0.03663221001625061,
0.036101359874010086,
0.03859351947903633,
-0.022036153823137283,
-0.09837651252746582,
-0.0555998720228672,
-0.12767338752746582,
-0.09808652102947235,
-0.09925022721290588,
-0.05169240012764931,
-0.055779214948415756,
0.027157310396432877,
0.02960100583732128,
-0.12330453842878342,
-0.007088150829076767,
0.06178388372063637,
0.029949577525258064,
0.012968199327588081,
-0.0020841227378696203,
-0.009044495411217213,
0.021414272487163544,
-0.002074621617794037,
0.08533213287591934,
-0.05103607475757599,
0.018597597256302834,
-0.0010118549689650536,
-0.02579672262072563,
-0.021495666354894638,
-0.008887295611202717,
-0.0061578210443258286,
-0.0032603582367300987,
0.03044453077018261,
-0.028677644208073616,
-0.052139364182949066,
0.024117309600114822,
-0.005950477905571461,
-0.0003638241905719042,
0.028918322175741196,
-0.023653190582990646,
0.04630548879504204,
-0.004504658281803131,
0.04352951422333717,
0.005555858835577965,
-0.055142637342214584,
-0.004334636963903904,
0.04962693154811859,
-0.027467748150229454,
-0.03454596549272537,
0.004167935810983181,
-0.004513024818152189,
0.02292172983288765,
0.04225022718310356,
0.027524160221219063,
0.02952069230377674,
-0.01963897980749607,
-0.09169265627861023,
-0.07493697106838226,
0.03743097558617592,
0.04593168944120407,
0.0420149564743042,
-0.04149803891777992,
0.023361913859844208,
-0.05064445734024048,
0.03370419889688492,
0.06276244670152664,
0.04216648265719414,
0.004675773903727531,
0.031138833612203598,
-0.012584235519170761,
-0.01782335713505745,
-0.029203660786151886,
-0.0134066017344594,
0.01935068517923355,
-0.05425986275076866,
0.06378433108329773,
-0.08736123889684677,
0.014668782241642475,
-0.06300229579210281,
-0.017913933843374252,
-0.05201755464076996,
-0.11161453276872635,
-0.18295085430145264,
-0.10365429520606995,
-0.03199649229645729,
-0.12677891552448273,
0.00890706479549408,
0.0054649836383759975,
-0.03553573042154312,
-0.02007407136261463,
-0.05005235597491264,
-0.039483536034822464,
0.10758163034915924,
0.045263636857271194,
0.04042119160294533,
-0.0609724186360836,
0.0013773809187114239,
0.0789293497800827,
0.02624826319515705,
-0.00682421587407589,
-0.007667054422199726,
0.039400532841682434,
0.03942398354411125,
-0.017222877591848373,
-0.025992467999458313,
0.0062927319668233395,
0.0313836894929409,
-0.05784136429429054,
-0.014550228603184223,
0.027177488431334496,
0.021632544696331024,
-0.08214104920625687,
-0.03400322049856186,
-0.03690148890018463,
-0.014287677593529224,
-0.021802430972456932,
-0.05788175016641617,
0.02596888691186905,
-0.010856197215616703,
-0.01002233475446701,
0.05893751233816147,
0.06674427539110184,
-0.022998105734586716,
0.0052016861736774445,
0.03955932334065437,
-0.014763886108994484,
-0.017570018768310547,
-0.0401037335395813,
-0.024273531511425972,
-0.022954925894737244,
0.009416882880032063,
-0.058691851794719696,
-0.012269175611436367,
0.05878450348973274,
0.03225461766123772,
-0.08590348064899445,
0.033242303878068924,
0.018467430025339127,
0.00715751713141799,
-0.022511381655931473,
-0.014113875105977058,
0.037997785955667496,
0.0042538149282336235,
0.046693023294210434,
0.004089228343218565,
-0.03299645707011223,
-0.02731882967054844,
0.022475168108940125,
-0.05977576598525047,
-0.015294214710593224,
-0.0059032137505710125,
0.09820890426635742,
0.06817495077848434,
0.043714966624975204,
0.021433288231492043,
-0.052561912685632706,
0.00027835796936415136,
-0.056953758001327515,
0.007401702925562859,
-0.02723061479628086,
-0.08086754381656647,
-0.11005260050296783,
-0.16240783035755157,
-0.06137264147400856,
-0.02995465137064457,
0.020366711542010307,
-0.014320963993668556,
-0.08757875114679337,
-0.016474850475788116,
0.003966601565480232,
-0.01515201386064291,
-0.04635864868760109,
-0.12834836542606354,
-0.004849587567150593,
-0.10798070579767227,
-0.02540222555398941,
0.005187465809285641,
-0.031030038371682167,
-0.05078772082924843,
-0.07359395176172256,
0.05175938084721565,
0.003883367870002985,
0.11755026131868362,
0.07593069970607758,
-0.026688652113080025,
-0.005534753669053316,
0.12490695714950562,
0.20954272150993347,
-0.09178213775157928,
-0.10165783017873764,
0.008681382983922958,
0.0181192047894001,
0.02722380869090557,
-0.07293643057346344,
-0.02313542179763317,
0.016256075352430344,
0.02300102822482586,
-0.034146104007959366,
0.06871697306632996,
0.06765954196453094,
-0.060888055711984634,
0.0021204540971666574,
-0.044794779270887375,
0.011620709672570229,
0.043291814625263214,
0.008804411627352238,
-0.03548305854201317,
0.10599654912948608,
0.08148664236068726,
0.07159807533025742,
-0.01773269847035408,
-0.05692512169480324,
-0.05006735771894455,
-0.041199691593647,
-0.0033990612719208,
-0.05305686220526695,
-0.05116546154022217,
-0.022200388833880424,
-0.08482664823532104,
0.004419292788952589,
-0.02940876968204975,
-0.04351641237735748,
0.045543186366558075,
-0.04216853529214859,
-0.01998254843056202,
-0.047290414571762085,
-0.1278059333562851,
-0.023723077028989792,
0.01710527203977108,
-0.01027005910873413,
-0.09392669796943665,
0.021708467975258827,
0.02843114733695984,
-0.006049746181815863,
0.01734783686697483,
0.0186102706938982,
0.13422304391860962,
0.08545208722352982,
0.055917225778102875,
-1.7368212866131216e-05,
0.008616960607469082,
-0.0309847891330719,
0.08627035468816757,
0.08991633355617523,
0.020892195403575897,
0.003105620853602886,
-0.04376283660531044,
0.007847652770578861,
0.07790005952119827,
-0.005242820363491774,
0.009418502449989319,
-0.04801294952630997,
-0.04034142196178436,
-0.020467838272452354,
-0.04861528053879738,
-0.06536110490560532,
-0.06875095516443253,
-0.13681261241436005,
-0.06801750510931015,
-0.1002681702375412,
0.05567264184355736,
0.04105369374155998,
-0.07258059084415436,
-0.09300567954778671,
-0.025117626413702965,
-0.03027491271495819,
-0.08487880975008011,
-0.03152028098702431,
0.022908221930265427,
-0.045574869960546494,
0.05809925124049187,
0.041796766221523285,
-0.07889536768198013,
-0.08231517672538757,
-0.022420430555939674,
0.03811416029930115,
-0.038040682673454285,
0.007853716611862183,
0.013261242769658566,
-0.0026614577509462833,
-0.02122202329337597,
-0.022462595254182816,
0.02464519999921322,
0.018177665770053864,
-0.00010280939022777602,
0.0385853573679924,
0.16730213165283203,
0.05441015586256981,
0.05708419904112816,
-0.0020584086887538433,
0.005582274869084358,
-0.07477568835020065,
-0.11125035583972931,
-0.09724058210849762,
-0.08679478615522385,
0.003562072990462184,
-0.025144649669528008,
0.06751041114330292,
-0.026815054938197136,
-0.037980154156684875,
-0.0005347219412215054,
-0.15284886956214905,
0.024741189554333687,
0.00030745143885724247,
-0.029080135747790337,
-0.0074555594474077225,
-0.0852278396487236,
0.0540815033018589,
-0.05192171782255173,
0.022440623492002487,
0.0028964995872229338,
0.07562728971242905,
0.1628657728433609,
-0.07428547739982605,
0.013165370561182499,
0.022711483761668205,
-0.011738238856196404,
-0.1027362123131752,
-0.07804186642169952,
-0.053876738995313644,
0.00408424437046051,
-0.08464579284191132,
0.031008977442979813,
-0.05582231283187866,
-0.02106703445315361,
-0.061813488602638245,
-0.05881635472178459,
0.02690703235566616,
0.001974281622096896,
-0.04941787198185921,
-0.09658333659172058,
-0.04126577079296112,
0.06897283345460892,
-0.1116243377327919,
-0.05978896841406822,
0.07518000900745392,
0.05329735204577446,
0.08013661950826645,
-0.0013429803075268865,
-0.0388602614402771,
0.03482871130108833,
-0.030758777633309364,
-0.05449746549129486,
-0.0763264074921608,
-0.034885115921497345,
-0.07884480804204941,
-0.03408503532409668,
-0.0577787309885025,
-0.004827098920941353,
-0.0773342028260231,
-0.05090494826436043,
0.0163029246032238,
0.016869299113750458,
-0.008705818094313145,
0.0267964955419302,
-0.08226682990789413,
-0.08751491457223892,
0.02010101079940796,
0.0826381966471672,
-0.06284662336111069,
-0.06731165945529938,
0.05995248258113861,
0.08921543508768082,
-0.13883014023303986,
-0.05257740989327431,
-0.02455495297908783,
-0.0007700133137404919,
-0.0546845979988575,
-0.023569785058498383,
0.04058557003736496,
-0.021389203146100044,
0.003600470256060362,
-0.10982152819633484,
-0.05645826831459999,
0.044652603566646576,
-0.0029553030617535114,
-0.049003005027770996,
0.02062828838825226,
-0.02842334285378456,
0.040340032428503036,
0.03487497195601463,
-0.03064092993736267,
0.008657583966851234,
-0.03534723445773125,
-0.01031801663339138,
0.06480525434017181,
0.061490125954151154,
0.01961139217019081,
-0.05231880769133568,
-0.033157430589199066,
-0.04186426103115082,
-0.020206060260534286,
-0.03427800536155701,
0.014801171608269215,
0.0396365225315094,
-0.033078473061323166,
-0.04873088002204895,
0.018440017476677895,
0.021137673407793045,
-0.05566946417093277,
-0.02617155946791172,
-0.02823824994266033,
-0.02629215456545353,
0.017265457659959793,
-0.020918400958180428,
0.0422094352543354,
-0.026857106015086174,
-0.03883432596921921,
-0.0036120254080742598,
0.009541424922645092,
-0.02828412689268589,
-0.01664232276380062,
0.016431177034974098,
-0.04404321312904358,
0.04150648042559624,
-0.04670770838856697,
-0.018229931592941284,
-0.005280605982989073,
0.06586284935474396,
-0.0014264261117205024,
0.0009354500216431916,
-0.00012927732313983142,
-0.015028455294668674,
-0.05404778569936752,
-0.016947045922279358,
0.011584099382162094,
0.027765588834881783,
0.05001618713140488,
0.048176031559705734,
0.029232073575258255,
0.05618102848529816,
0.020323731005191803,
-0.04348078742623329,
0.0033144287299364805,
-0.050254061818122864,
0.04268733784556389,
0.016996243968605995,
0.028835784643888474,
-0.007839669473469257,
0.02176041342318058,
0.0039659785106778145,
0.0056513636372983456,
-0.0026202956214547157,
-0.007212929427623749,
0.004846753552556038,
-0.015173828229308128,
0.02118714526295662,
0.04424227401614189,
0.010656837373971939,
-0.028442176058888435,
0.03653827682137489,
-0.02396257407963276,
0.04071327671408653,
-0.04910235106945038,
0.035730354487895966,
-0.0468265600502491,
-0.036119427531957626,
-0.050121840089559555,
0.012790611945092678,
-0.037951596081256866,
-0.03464457392692566,
-0.025198034942150116,
-0.020675048232078552,
0.04002217575907707,
-0.04408225044608116,
0.036286234855651855,
-0.040019672363996506,
-0.04132745787501335,
0.06569171696901321,
0.03917272761464119,
0.037187609821558,
-0.041542962193489075,
-0.014852559193968773,
0.02919461764395237,
0.011773279868066311,
-0.042509209364652634,
-0.04188114032149315,
-0.003906283527612686,
-0.047793447971343994,
-0.01695801503956318,
0.03254440426826477,
-0.06026800721883774,
-0.06609135121107101,
-0.07816547900438309,
0.00968290213495493,
0.05537561699748039,
-0.054693035781383514,
-0.0762878805398941,
-0.06480816751718521,
-0.03269857540726662,
0.02324698306620121,
-0.0067967139184474945,
-0.0017852491000667214,
0.009910736232995987,
-0.005175350699573755,
-0.011022134684026241,
0.026501310989260674,
-0.02165110781788826,
0.002022553002461791,
-0.051571864634752274,
0.02881072275340557,
0.03404558449983597,
-0.06380568444728851,
-0.015900682657957077,
0.022558381780982018,
-0.0011175768449902534,
-0.001991732744500041,
-0.015486207790672779,
-0.028483759611845016,
0.044666171073913574,
0.049987781792879105,
0.035100508481264114,
0.029005901888012886,
0.013292231597006321,
0.03217363730072975,
-0.00451296754181385,
0.008942949585616589,
-0.01711066998541355,
0.04390806332230568,
-0.005899452604353428,
0.03382636606693268,
0.03358720242977142,
-0.014748770743608475,
-0.024543633684515953,
0.0324116088449955,
0.03617924079298973,
0.031441830098629,
0.008912892080843449,
-0.006880807690322399,
-0.02709333598613739,
0.0485219843685627,
0.0049657030031085014,
-0.005144239403307438,
-0.04000416770577431,
0.009158086962997913,
0.016743367537856102,
0.02325967326760292,
-0.04002367705106735,
0.02270212396979332,
-0.013366371393203735,
-0.036927226930856705,
-0.018236367031931877,
-0.03684248775243759,
0.020713916048407555,
0.033658623695373535,
0.01968606933951378,
-0.008726891130208969,
0.008421237580478191,
-0.013934915885329247,
-0.025774288922548294,
0.025573361665010452,
0.031285360455513,
-0.03263192996382713,
-0.020119860768318176,
-0.0015457220142707229,
-0.04306226223707199,
-0.024491064250469208,
0.050881095230579376,
0.022150995209813118,
-0.06391599774360657,
0.04248429462313652,
0.011276870034635067,
-0.025894857943058014,
-0.01109935250133276,
0.00574585422873497,
-0.020710913464426994,
-0.00428330572322011,
0.03313232958316803,
-0.01715400442481041,
-0.014397220686078072,
0.023303519934415817,
0.01357856672257185,
0.04523027688264847,
-0.018937017768621445,
-0.05404695123434067,
-0.022850168868899345,
0.008059377782046795,
0.05120023339986801,
-0.02485344558954239,
-0.008754219859838486,
-0.045028701424598694,
-0.031339071691036224,
0.05081389471888542,
0.007391680032014847,
-0.032972149550914764,
0.03399558737874031,
-0.004163781646639109,
0.05960436537861824,
0.03378169238567352,
-0.05191512405872345,
-0.046811290085315704,
-0.012696059420704842,
0.038929283618927,
-0.03301083669066429,
0.0016976525075733662,
-0.029743390157818794,
-0.011582622304558754,
-0.012241778895258904,
-0.01281339954584837,
0.04728619009256363,
0.02681691199541092,
-0.01665373705327511,
0.00852667074650526,
-0.018387168645858765,
-0.014103698544204235,
0.008060932159423828,
-0.035160910338163376,
0.04543891176581383,
-0.04368852451443672,
-0.0345369428396225,
-0.018231119960546494,
0.048276498913764954,
-0.006540306843817234,
-0.009920916520059109,
0.029870107769966125,
-0.04542708396911621,
0.017089921981096268,
0.021376682445406914,
-0.0031656166538596153,
-0.01358574628829956,
-0.053236521780490875,
0.01916525885462761,
0.04393618553876877,
-0.034665290266275406,
-0.04180470481514931,
-0.05212997645139694,
-0.030944684520363808,
0.013157077133655548,
0.04862905293703079,
-0.00091309699928388,
0.0319337472319603,
-0.04071718454360962,
0.03655253350734711,
0.03448106348514557,
-0.018524106591939926,
-0.010092048905789852,
-0.03694448620080948,
-0.039040759205818176,
0.03520241752266884,
0.01068727858364582,
0.013480989262461662,
-0.033532410860061646,
-0.005323668476194143,
0.04088852182030678,
0.04019532725214958,
-0.031763020902872086,
-0.03777030482888222,
-0.03830789774656296,
0.0037456839345395565,
-0.0008677028818055987,
0.00817821640521288,
-0.001368023338727653,
-0.008420144207775593,
0.01714383251965046,
0.008781506679952145,
0.06520244479179382,
0.09779936820268631,
0.00787149928510189,
-0.0070943087339401245,
-0.060602277517318726,
-0.0012065796181559563,
0.010135355405509472,
0.026065070182085037,
-0.008266417309641838,
-0.046371594071388245,
0.021803438663482666,
-0.009486967697739601,
-0.025898631662130356,
0.020778847858309746,
-0.025366606190800667,
-0.015598690137267113,
0.05864589661359787,
-0.03642704337835312,
-0.014733443036675453,
-0.042728740721940994,
-0.019337864592671394,
0.03873271122574806,
0.027017612010240555,
0.03293442353606224,
-0.027029966935515404,
-0.004346077796071768,
-0.0649203285574913,
0.025844598188996315,
0.028034312650561333,
0.015470822341740131,
-0.04589707404375076,
-0.0010529060382395983,
0.027851799502968788,
-0.022235417738556862,
-0.05089334025979042,
0.04760568216443062,
-0.022201305255293846,
-0.0165789183229208,
-0.016353940591216087,
0.019337626174092293,
-0.02409036085009575,
-0.02236911468207836,
-0.029578708112239838,
0.02136215753853321,
-0.04804869741201401,
-0.005167855881154537,
-0.02576710842549801,
0.045021507889032364,
-0.040788326412439346,
-0.023236552253365517,
0.044774822890758514,
-0.040399219840765,
0.01517898216843605,
0.028761202469468117,
0.027816876769065857,
-0.029734576120972633,
