-0.017453953623771667,
0.07036890089511871,
0.0459853857755661,
0.06773433089256287,
0.029306497424840927,
0.0016449136892333627,
0.0059283459559082985,
0.05563904717564583,
0.04715368151664734,
-0.030765466392040253,
-0.03439755365252495,
0.05212957784533501,
0.022305291146039963,
0.05216532573103905,
-0.02195674367249012,
0.038398001343011856,
0.004522206727415323,
0.048127688467502594,
-0.00042219465831294656,
0.002193008316680789,
0.03808156028389931,
0.012770417146384716,
-0.012439634650945663,
-0.009647135622799397,
-0.002660045400261879,
-0.016728950664401054,
0.06709855049848557,
-0.004280509892851114,
0.03640858083963394,
0.045850664377212524,
-0.010629875585436821,
-0.03113383613526821,
-0.02522449381649494,
-0.046646833419799805,
-0.033652834594249725,
-0.006741846911609173,
-0.024147899821400642,
-0.05700990930199623,
0.030091004446148872,
-0.019895382225513458,
0.01705203391611576,
-0.006327092181891203,
-0.015943357720971107,
0.026770692318677902,
-0.01786092296242714,
0.055985596030950546,
-0.01361334603279829,
0.022036360576748848,
-0.012160825543105602,
-0.022130245342850685,
-0.0054163821041584015,
-0.047300148755311966,
-0.009970254264771938,
-0.012635488063097,
-0.03686944395303726,
-0.0346592552959919,
0.0004241983115207404,
-0.018163034692406654,
-0.027395956218242645,
0.06688777357339859,
0.049138132482767105,
0.009324011392891407,
-0.017110910266637802,
-0.018772965297102928,
0.04379234090447426,
-0.0036220308393239975,
0.05747467651963234,
0.02083403244614601,
0.011230343021452427,
0.026035206392407417,
0.010493365116417408,
-0.05588259920477867,
0.038032013922929764,
0.009202622808516026,
-0.018166348338127136,
0.04894983395934105,
0.02639281377196312,
0.004152601584792137,
-0.061361078172922134,
-0.01995028182864189,
0.041867807507514954,
-0.0066428836435079575,
0.03264341130852699,
-0.0033710224088281393,
0.025383003056049347,
0.04960217326879501,
0.007151498459279537,
0.0520763173699379,
-0.0014724896755069494,
0.0252098236232996,
-0.029184626415371895,
-0.033403072506189346,
-0.011568094603717327,
0.02541324310004711,
-0.004819169174879789,
0.042854193598032,
0.05285007134079933,
0.056049540638923645,
-0.048357438296079636,
0.06356842815876007,
0.034158218652009964,
-0.0023536698427051306,
0.003601947333663702,
0.005839445162564516,
0.027158992365002632,
-0.002393306465819478,
0.07117616385221481,
-0.053431179374456406,
-0.04769859462976456,
-0.023160843178629875,
0.029970532283186913,
0.07360266149044037,
-0.028196074068546295,
0.014709499664604664,
0.05958401784300804,
-0.031269170343875885,
0.02547949180006981,
-0.003764484077692032,
-0.04905075207352638,
0.007231184281408787,
