0.029952142387628555,
-0.022524232044816017,
0.14411528408527374,
-0.0276808962225914,
-0.08651311695575714,
-0.08364685624837875,
-0.02301730401813984,
0.07791650295257568,
-0.046709995716810226,
-0.10883542150259018,
-0.02099793218076229,
-0.07411209493875504,
0.00824273657053709,
-0.00041718047577887774,
0.06320688128471375,
-0.041862595826387405,
0.04852963238954544,
0.03998494893312454,
-0.026637261733412743,
-0.04592900723218918,
-0.041231948882341385,
0.09048985689878464,
0.13721376657485962,
-0.05098126456141472,
0.044551972299814224,
-0.04815115034580231,
0.07615317404270172,
-0.07081202417612076,
0.08528347313404083,
-0.030546599999070168,
0.1341407299041748,
0.0596596784889698,
0.10640950500965118,
-0.029497269541025162,
0.042562779039144516,
0.05040181800723076,
-0.09098119288682938,
-0.07944761216640472,
0.0004910602583549917,
0.06988668441772461,
0.06300794333219528,
0.054043419659137726,
0.06157822906970978,
-0.0656520202755928,
-0.03797551617026329,
-0.104130819439888,
0.06916435062885284,
0.14860953390598297,
-0.06765716522932053,
0.08846309036016464,
0.029025280848145485,
0.055300455540418625,
-0.01897634193301201,
-0.022464163601398468,
0.036916185170412064,
0.1055060625076294,
0.013460636138916016,
0.044633883982896805,
-0.058023642748594284,
-0.053726885467767715,
0.06292759627103806,
0.09354281425476074,
0.0821135938167572,
-0.00638533802703023,
0.009768323972821236,
-0.07226688414812088,
-0.06987471878528595,
0.06644444167613983,
-0.02905292622745037,
0.07648207992315292,
0.10555621236562729,
0.08728193491697311,
0.0021603545174002647,
-0.04821312054991722,
0.003050154773518443,
-0.06361987441778183,
0.07898001372814178,
-0.05940493196249008,
0.12876515090465546,
-0.03308883309364319,
-0.06701985746622086,
0.013016050681471825,
0.027058452367782593,
0.15045803785324097,
