-0.10868752002716064,
-0.0902111604809761,
0.01159810833632946,
-0.05882164463400841,
-0.06888356804847717,
0.045683085918426514,
0.027420856058597565,
0.13697583973407745,
0.07794956117868423,
0.01188508328050375,
0.029358049854636192,
0.09591583162546158,
0.04766470193862915,
-0.01127648539841175,
0.05979166552424431,
-0.01218652818351984,
0.06250239908695221,
0.05669564753770828,
-0.09148690104484558,
-0.038173139095306396,
-0.06976359337568283,
0.059777483344078064,
0.05806467682123184,
0.0844387486577034,
-0.013347274623811245,
0.11634522676467896,
-0.13854242861270905,
0.07659079879522324,
-0.05298040807247162,
-0.06458425521850586,
0.11585540324449539,
0.12318135052919388,
-0.0681120827794075,
0.15275324881076813,
0.0949447900056839,
0.09445464611053467,
-0.13874198496341705,
0.0691269263625145,
0.15603888034820557,
-0.034214284271001816,
-0.012912661768496037,
-0.011137952096760273,
0.013764208182692528,
0.08058330416679382,
-0.0035776670556515455,
0.09584595263004303,
0.09399262815713882,
-0.012581972405314445,
0.008544187061488628,
-0.1802559494972229,
0.005994327832013369,
0.11712105572223663,
-0.055182281881570816,
-0.06365548819303513,
0.008418743498623371,
0.041796669363975525,
-0.07534835487604141,
-0.04726462811231613,
0.1063755452632904,
0.09750735759735107,
0.1485678106546402,
0.0605446957051754,
0.057127632200717926,
-0.09362027794122696,
-0.05882492661476135,
-0.03288458287715912,
-0.0745786502957344,
0.011794176883995533,
0.07431162148714066,
0.0408104807138443,
0.09368438273668289,
0.1004248559474945,
0.02612890861928463,
0.1265205293893814,
0.12424156814813614,
-0.01758352853357792,
0.06255269050598145,
0.018502917140722275,
0.1302468627691269,
-0.10819126665592194,
0.028477804735302925,
0.005610195454210043,
0.1463792473077774,
-0.13648711144924164,
-0.05777689069509506,
-0.09329891204833984,
0.022333815693855286,
0.0994909256696701,
0.006982098799198866,
0.14664742350578308,
-0.026841044425964355,
-0.03646489605307579,
0.06595429033041,
0.0066318269819021225,
-0.03499380871653557,
0.05816587433218956,
0.07133820652961731,
0.029303932562470436,
-0.07908245921134949,
-0.1207132488489151,
0.1341003030538559,
-0.009021786972880363,
0.10123559087514877,
-0.09550406783819199,
-0.01879096031188965,
-0.036425914615392685,
-0.10559037327766418,
0.06280886381864548,
0.08580432087182999,
0.05334809422492981,
0.061367470771074295,
-0.03403637930750847,
0.1705447882413864,
-0.14019490778446198,
0.08839068561792374,
-0.06559281051158905,
0.06596099585294724,
0.018878713250160217,
0.08344554901123047,
0.009954153560101986,
-0.03486263379454613,
0.04044150561094284,
0.07994072884321213,
-0.07231444865465164,
-0.08694472908973694,
-0.04952254146337509,
0.07167220115661621,
-0.038537461310625076,
0.06321778893470764,
-0.07915174216032028,
-0.059637486934661865,
-0.06342679262161255,
0.06137611344456673,
-0.03773997724056244,
-0.02342906966805458,
0.060331594198942184,
0.04415934160351753,
0.026187950745224953,
-0.05574691668152809,
0.035079557448625565,
0.03342318534851074,
0.043271753937006,
0.05344146117568016,
-0.0063985176384449005,
0.032260846346616745,
-0.06890063732862473,
0.011928010731935501,
-0.07237767428159714,
0.05222495272755623,
0.05212866887450218,
0.031564418226480484,
-0.06710195541381836,
-0.06337608397006989,
0.03472356125712395,
0.014759048819541931,
-0.026312600821256638,
0.026921449229121208,
0.058385223150253296,
0.04134407639503479,
0.026949604973196983,
0.06457731127738953,
-0.02514227293431759,
-0.042814869433641434,
-0.08152054995298386,
-0.019961459562182426,
0.0011768282856792212,
-0.07834739238023758,
-0.013935783877968788,
-0.06805484741926193,
-0.0962568148970604,
0.07978569716215134,
-0.0666055828332901,
0.033197030425071716,
-0.011349815875291824,
-0.08787044882774353,
0.008866221643984318,
-0.061239488422870636,
-0.0475698821246624,
-0.04048527032136917,
-0.020528506487607956,
-0.015985995531082153,
0.040278591215610504,
0.08860847353935242,
0.014804327860474586,
-0.08596774935722351,
-0.046761490404605865,
0.07237821817398071,
0.0039260839112102985,
-0.0008744695805944502,
-0.07946959137916565,
0.020887546241283417,
-0.04933828487992287,
0.07252588868141174,
-0.03776293620467186,
0.04216274991631508,
-0.08938144892454147,
-0.029543042182922363,
0.011424409225583076,
-0.06772615760564804,
0.09043075144290924,
-0.090788833796978,
-0.012884547002613544,
0.04646003991365433,
-0.09573119133710861,
-0.09148567169904709,
-0.06407927721738815,
-0.08223986625671387,
0.00030069929198361933,
0.02225876972079277,
-0.07554903626441956,
-0.046643976122140884,
0.06049143522977829,
-0.0145261250436306,
0.02655475027859211,
-0.08968491852283478,
-0.04741712659597397,
-0.02103450521826744,
0.05653411149978638,
0.05762916058301926,
-0.03785457834601402,
-0.03387226536870003,
-0.07544593513011932,
0.008085827343165874,
0.0211472325026989,
0.0015465110773220658,
0.01272304356098175,
0.008145906962454319,
-0.08154410123825073,
-0.06299955397844315,
0.021740563213825226,
-0.00494800228625536,
0.04126785695552826,
-0.05687505379319191,
-0.036211658269166946,
0.01759878545999527,
-0.04937032237648964,
0.024671770632267,
-0.0912991315126419,
-0.003324337536469102,
0.005923673044890165,
-0.05482790991663933,
-0.060387130826711655,
0.10577014833688736,
-0.08251302689313889,
0.0811525210738182,
0.028276126831769943,
-0.0804959237575531,
0.036477066576480865,
-0.0006153894937597215,
-0.08684206008911133,
-0.027777081355452538,
0.050626203417778015,
0.05366406589746475,
-0.16305802762508392,
0.03363962098956108,
0.03628614544868469,
-0.06598590314388275,
-0.10433148592710495,
0.03191215172410011,
-0.12011190503835678,
0.038763999938964844,
0.03610781207680702,
-0.04586537182331085,
-0.09953442215919495,
-0.09040915966033936,
0.09689296782016754,
0.07484494149684906,
0.20574641227722168,
-0.04748903959989548,
0.10419274121522903,
0.07147496938705444,
-0.1013055071234703,
0.041503846645355225,
0.17930062115192413,
0.044282279908657074,
0.07378730922937393,
-0.1687362641096115,
-0.034190885722637177,
0.19719910621643066,
0.009386619552969933,
0.05929268151521683,
0.057455018162727356,
-0.15552224218845367,
-0.06284449994564056,
0.03694136068224907,
0.23641642928123474,
-0.000796089181676507,
-0.06216786429286003,
0.05725305154919624,
-0.057426080107688904,
-0.016325512900948524,
-0.11127439886331558,
-0.09225638955831528,
-0.0672067403793335,
-0.00928450096398592,
0.02442854456603527,
0.09429451078176498,
-0.009822866879403591,
0.055322304368019104,
0.08302370458841324,
0.11941872537136078,
-0.11202169209718704,
-0.04385171830654144,
-0.055421046912670135,
-0.0006670418661087751,
-0.1371568888425827,
-0.01394446287304163,
0.08314196765422821,
0.04499803110957146,
0.05672617629170418,
0.09353075921535492,
0.08429744839668274,
-0.14222083985805511,
0.025020657107234,
-0.10348489880561829,
-0.009007097221910954,
-0.01036800816655159,
0.023495791479945183,
0.007793647237122059,
-0.1442135125398636,
-0.05284746736288071,
0.09520982205867767,
0.03237766772508621,
0.07206141948699951,
0.07556300610303879,
0.13478277623653412,
-0.08819953352212906,
-0.20584321022033691,
0.20994119346141815,
-0.018076928332448006,
-0.00511541124433279,
-0.09974755346775055,
-0.1186705157160759,
-0.011324579827487469,
0.025336826220154762,
0.1488783061504364,
0.21362072229385376,
0.1112646609544754,
-0.04828360304236412,
0.010878643952310085,
-0.010316693224012852,
-0.06382869184017181,
-0.09815053641796112,
-0.07191499322652817,
0.10173388570547104,
-0.01731843687593937,
0.12737295031547546,
-0.10158654302358627,
0.04511565342545509,
-0.1019778847694397,
-0.020703956484794617,
0.19821704924106598,
0.06641199439764023,
-0.09617438167333603,
-0.0465543195605278,
0.013878080993890762,
0.09326928853988647,
0.0479019396007061,
0.07211868464946747,
0.036953169852495193,
0.0575244314968586,
-0.14347109198570251,
0.005948688834905624,
0.0007631334592588246,
0.01804349385201931,
0.08007793128490448,
0.05225671827793121,
-0.15992915630340576,
-0.09393704682588577,
0.013143624179065228,
-0.06716041266918182,
0.13233600556850433,
-0.08919526636600494,
0.10411135852336884,
0.039470478892326355,
0.025685247033834457,
-0.055730417370796204,
0.08352497220039368,
0.0714695155620575,
-0.011888999491930008,
-0.006482267286628485,
-0.024377668276429176,
-0.14023460447788239,
-0.0005813027382828295,
-0.10059387981891632,
0.01686836965382099,
-0.020155729725956917,
-0.0400090217590332,
-0.06436695158481598,
-0.11873944103717804,
0.05733652412891388,
-0.10272888094186783,
0.020986350253224373,
-0.09582975506782532,
0.07771876454353333,
-0.10479308664798737,
0.009448341093957424,
0.11620113253593445,
-0.09761663526296616,
0.019976183772087097,
-0.05023473501205444,
0.16621309518814087,
0.07371390610933304,
0.03417433425784111,
0.20399728417396545,
0.11821559071540833,
-0.01520273182541132,
-0.1060076579451561,
0.0627850741147995,
0.11266158521175385,
-0.06918253004550934,
0.029428305104374886,
0.19297268986701965,
0.02929411642253399,
0.037158191204071045,
-0.027451014146208763,
0.22287818789482117,
0.06924553215503693,
-0.059562332928180695,
0.04376332461833954,
0.0853198990225792,
-0.14644041657447815,
0.0026442597154527903,
-0.08191617578268051,
0.0784517377614975,
0.06419942528009415,
0.0014129801420494914,
0.024936983361840248,
-0.00829415861517191,
0.029609378427267075,
-0.020357083529233932,
-0.057407792657613754,
0.06317012012004852,
-0.01563597097992897,
-0.04865027964115143,
0.007670024875551462,
0.0016758049605414271,
-0.024707218632102013,
0.05635244771838188,
0.0034299197141081095,
0.146023690700531,
-0.03828098252415657,
-0.026963768526911736,
-0.07382547110319138,
0.0021784016862511635,
-0.06411426514387131,
-0.0058465152978897095,
0.013593661598861217,
0.046066559851169586,
-0.06479091197252274,
-0.030117720365524292,
0.11858303844928741,
0.1505543291568756,
-0.025702590122818947,
-0.02749950997531414,
-0.09293625503778458,
-0.11449860781431198,
-0.066724993288517,
0.029952967539429665,
-0.00909249298274517,
-0.10903479158878326,
-0.08875613659620285,
-0.0018816374940797687,
0.10911957919597626,
-0.08896395564079285,
-0.032027117908000946,
0.0642801970243454,
-0.003598347771912813,
0.04293001443147659,
-0.0849030464887619,
0.07100919634103775,
0.13006691634655,
0.01107858493924141,
0.07223448157310486,
0.01465484220534563,
0.06692250072956085,
0.01924993097782135,
-0.01624937728047371,
0.08409157395362854,
0.07066439837217331,
0.09879689663648605,
-0.044061243534088135,
-0.059976063668727875,
0.07251289486885071,
0.10087741166353226,
-0.09659385681152344,
0.04458184167742729,
-0.002039628103375435,
0.01842244528234005,
-0.004355757962912321,
0.06300432235002518,
0.04504438862204552,
-0.07724180817604065,
0.13203708827495575,
0.06760071218013763,
-0.0994672030210495,
-0.06194388121366501,
0.08183930069208145,
0.051757730543613434,
0.01984982378780842,
-0.01657470501959324,
0.06586503982543945,
0.0695115327835083,
-0.04861268028616905,
0.036062292754650116,
-0.017918061465024948,
-0.01661655865609646,
-0.10773740708827972,
0.038010645657777786,
-0.003758625825867057,
0.09616968035697937,
-0.11958260089159012,
-0.09513115882873535,
-0.0039514717645943165,
-0.03825685754418373,
-0.007948430255055428,
0.05551145225763321,
0.016162047162652016,
0.02910258062183857,
-0.009325564838945866,
0.02163977175951004,
-0.03402773663401604,
-0.01729770191013813,
0.031377315521240234,
0.09578269720077515,
0.04932468384504318,
-0.09017182141542435,
0.05399734899401665,
0.09093776345252991,
0.07301954180002213,
-0.011532485485076904,
0.022341277450323105,
0.059130046516656876,
-0.040979087352752686,
0.0614805743098259,
-0.07070005685091019,
-0.05368521064519882,
0.014250697568058968,
-0.11316859722137451,
-0.062172405421733856,
-0.024153422564268112,
-0.05364818498492241,
-0.06575510650873184,
-0.042842887341976166,
-0.01686331070959568,
-0.022869763895869255,
-0.13739736378192902,
0.03137723356485367,
-0.08511041849851608,
0.04127559810876846,
-0.04298110678792,
-0.057961344718933105,
-0.11450033634901047,
-0.04312402755022049,
0.02074839547276497,
0.012445095926523209,
0.014956362545490265,
0.11362726986408234,
0.026306841522455215,
0.028521327301859856,
-0.06428588181734085,
-0.034151311963796616,
-0.03207991644740105,
0.12925422191619873,
-0.012834149412810802,
0.046203240752220154,
0.01317969337105751,
-0.10341588407754898,
0.04699799790978432,
0.022649789229035378,
-0.09167290478944778,
0.026414552703499794,
0.028601059690117836,
-0.03303290158510208,
0.024343321099877357,
0.07327835261821747,
-0.0028343363665044308,
-0.15074703097343445,
-0.1008528545498848,
0.017238076776266098,
0.010610118508338928,
-0.004120899364352226,
0.034407440572977066,
-0.04946799576282501,
-0.09826989471912384,
-0.11357490718364716,
0.11355152726173401,
0.019307462498545647,
0.04574152082204819,
0.01880609802901745,
0.03120615892112255,
0.07193471491336823,
-0.10145803540945053,
0.1211278960108757,
-0.12633764743804932,
-0.05521521717309952,
0.06077686697244644,
0.034973859786987305,
0.0031180514488369226,
0.12673456966876984,
0.00012600095942616463,
-0.03762212023139,
0.060550179332494736,
-0.03463064506649971,
0.04546063393354416,
0.04688255116343498,
0.0025942756328731775,
-0.042896077036857605,
0.0457136407494545,
-0.02643023245036602,
0.05832614749670029,
-0.03220033273100853,
-0.07364775985479355,
-0.004744593519717455,
-0.027734532952308655,
-0.0016783657483756542,
-0.08020951598882675,
-0.016573894768953323,
-0.08510978519916534,
0.07794614881277084,
-0.05927911773324013,
0.08430082350969315,
0.0798800066113472,
0.03611268103122711,
-0.021105216816067696,
0.03834426403045654,
0.06687968969345093,
-0.002809029072523117,
-0.010628335177898407,
0.05227118358016014,
-0.008003290742635727,
0.009982346557080746,
-0.017286237329244614,
-0.06728005409240723,
0.06516378372907639,
0.030652081593871117,
0.03920375183224678,
0.05294535309076309,
-0.006514274049550295,
0.06486783921718597,
-0.04123323783278465,
-0.015482660382986069,
-0.04696953669190407,
-0.003210244933143258,
-0.07513649016618729,
0.07666143774986267,
-0.07051733881235123,
0.045916639268398285,
-0.025947285816073418,
0.04540903866291046,
-0.011803132481873035,
0.007644755765795708,
0.058534860610961914,
-0.07972139865159988,
-0.04796608164906502,
0.021136116236448288,
0.02703336626291275,
0.07437381148338318,
-0.07896631956100464,
0.08292997628450394,
0.04381885007023811,
-0.022869810461997986,
-0.08318109810352325,
-0.03201291710138321,
0.01765451580286026,
-0.026208380237221718,
0.0892084613442421,
-0.07866691797971725,
0.03463190048933029,
-0.025137921795248985,
-0.03273053094744682,
0.05161943659186363,
0.0001273032685276121,
-0.06647542864084244,
-0.08681400120258331,
-0.02054044045507908,
-0.0002580748114269227,
-0.05493585392832756,
-0.04869421198964119,
0.06657140702009201,
0.024081602692604065,
-0.06844459474086761,
0.01139175146818161,
-0.056393370032310486,
-0.06989063322544098,
-0.050519660115242004,
0.07801444083452225,
-0.017219621688127518,
0.058306872844696045,
0.011647953651845455,
-0.031959548592567444,
-0.07662873715162277,
0.031114773824810982,
0.036547668278217316,
-0.011268392205238342,
-0.09736380726099014,
0.03036380745470524,
-0.055578261613845825,
-0.06399475783109665,
-0.072659932076931,
-0.02325434796512127,
-0.042721446603536606,
0.04943951964378357,
0.035000029951334,
0.0056074378080666065,
-0.07962223887443542,
-0.07168849557638168,
0.020599761977791786,
-0.011951739899814129,
0.008434319868683815,
-0.05744281783699989,
-0.09157844632863998,
0.060978762805461884,
-0.02239230088889599,
0.047764457762241364,
-0.04962822049856186,
-0.005805522203445435,
-0.07887495309114456,
0.01679612323641777,
-0.07794816792011261,
0.06571172177791595,
-0.04510026425123215,
0.06389360874891281,
-0.02766580320894718,
0.0247068889439106,
-0.029085516929626465,
-0.08127111941576004,
-0.004101811908185482,
-0.043792739510536194,
-0.059712354093790054,
-0.08912478387355804,
-0.02091483771800995,
-0.0006762545090168715,
0.043291933834552765,
0.08458482474088669,
0.055062323808670044,
0.041055161505937576,
0.02744945138692856,
-0.07153832167387009,
-0.07738979160785675,
0.06989362835884094,
0.02182760089635849,
-0.04002688452601433,
-0.01744755357503891,
-0.08055756241083145,
-0.06568390130996704,
-0.04291275516152382,
-0.04809989407658577,
0.06613855808973312,
0.002763089258223772,
0.0069457232020795345,
-0.06965053826570511,
-0.019187403842806816,
0.08553464710712433,
-0.06590713560581207,
-0.03439684212207794,
0.02524028718471527,
-0.06012953817844391,
-0.06472917646169662,
0.08330943435430527,
-0.0027570496313273907,
0.013115305453538895,
-0.016582706943154335,
-0.07485117018222809,
-0.09130105376243591,
0.014036648906767368,
-0.08802007883787155,
-0.050454746931791306,
-0.04554492607712746,
0.004269744269549847,
0.005839276127517223,
0.041817471385002136,
0.036969419568777084,
0.01672806218266487,
-0.047248806804418564,
-0.024874292314052582,
0.016684219241142273,
-0.08312194794416428,
0.030370743945240974,
-0.019769147038459778,
-0.07095971703529358,
0.043393220752477646,
0.03958428278565407,
0.048952750861644745,
-0.08647927641868591,
0.0812704861164093,
0.03098369762301445,
-0.0917728915810585,
-0.04673805832862854,
0.021565338596701622,
-0.013069352135062218,
0.06011626869440079,
-0.030103106051683426,
-0.06711047142744064,
-0.05020520091056824,
-0.007437231484800577,
-0.01787213236093521,
-0.059736743569374084,
0.02174990437924862,
0.05378369241952896,
-0.05708451196551323,
-0.06980213522911072,
0.032463300973176956,
-0.018832912668585777,
0.001067545497789979,
-0.08080577850341797,
-0.058400027453899384,
-0.04261302575469017,
0.00027936568949371576,
-0.07825244218111038,
-0.005901088006794453,
0.014338579028844833,
0.08432512730360031,
-0.027827251702547073,
-0.030123364180326462,
0.036041829735040665,
0.06294884532690048,
0.005460231099277735,
-0.0228947214782238,
-0.04021432623267174,
-0.04231727495789528,
-0.019659407436847687,
-0.06437074393033981,
-0.04262680932879448,
0.07592912018299103,
0.047883547842502594,
0.03906290605664253,
-0.004645314998924732,
0.061628520488739014,
0.027959246188402176,
0.07449517399072647,
-0.028258012607693672,
0.03399926796555519,
0.002921357285231352,
-0.09075787663459778,
-0.08496689051389694,
0.05470756068825722,
0.06481368839740753,
-0.09027940779924393,
0.049231551587581635,
0.027131790295243263,
0.04044031724333763,
0.02924882248044014,
-0.032973140478134155,
-0.045086201280355453,
-0.025982098653912544,
-0.00014238608127925545,
0.11145203560590744,
-0.06302536278963089,
0.044809021055698395,
0.0686522126197815,
-0.043918587267398834,
0.060784827917814255,
0.008081415668129921,
0.043191760778427124,
-0.07468975335359573,
-0.016404982656240463,
-0.047336842864751816,
-0.006721524987369776,
0.022758789360523224,
-0.04060370475053787,
0.01946941949427128,
-0.10654065757989883,
0.059340886771678925,
0.07982973009347916,
-0.04042038694024086,
-0.07012740522623062,
0.0951242744922638,
0.030678726732730865,
0.0975353941321373,
-0.09675832837820053,
0.07683666050434113,
-0.007316169794648886,
-0.07631675153970718,
-0.06682237237691879,
0.06830846518278122,
-0.011463831178843975,
-0.08358728140592575,
0.053106483072042465,
0.09145630896091461,
0.016938867047429085,
0.20026028156280518,
0.032798491418361664,
-0.011888000182807446,
0.1368832141160965,
-0.025563402101397514,
-0.06254447996616364,
-0.06189243867993355,
-0.04197503626346588,
-0.008809342049062252,
0.06252314895391464,
0.02603846788406372,
0.05490414425730705,
-0.053286124020814896,
-0.10417873412370682,
0.07851161807775497,
0.042707014828920364,
-0.09628486633300781,
-0.22295212745666504,
0.02666863612830639,
-0.018737617880105972,
-0.10670091956853867,
0.06547866761684418,
0.035585351288318634,
-0.06668486446142197,
0.08167147636413574,
0.01762229949235916,
-0.11394823342561722,
-0.03984815254807472,
-0.18654075264930725,
-0.0709160789847374,
0.08209814131259918,
-0.09205113351345062,
0.00011194687976967543,
-0.011297557502985,
0.1026068851351738,
-0.08383920043706894,
0.13302230834960938,
0.02767341397702694,
-0.0795341357588768,
-0.02964472584426403,
-0.004127124790102243,
-0.045779094099998474,
-0.03223569318652153,
0.0636553093791008,
0.03192323446273804,
-0.020275181159377098,
-0.08325862884521484,
0.08097705990076065,
-0.12114077806472778,
-0.0264451764523983,
0.06358305364847183,
0.09168373048305511,
0.03444414585828781,
0.06552276760339737,
0.08787186443805695,
0.04186388477683067,
-0.06842157989740372,
-0.03218386694788933,
0.10830183327198029,
-0.06782649457454681,
-0.0574447326362133,
-0.17900362610816956,
-0.09664107114076614,
0.024415109306573868,
0.058984898030757904,
-0.11816728860139847,
0.036239225417375565,
0.08023799955844879,
-0.11148956418037415,
0.08004199713468552,
0.08151191473007202,
-0.04911857843399048,
0.15500123798847198,
-0.008375214412808418,
-0.07377427816390991,
0.01650262624025345,
0.06989005953073502,
0.07346371561288834,
-0.023356031626462936,
0.033622223883867264,
-0.12069185078144073,
0.059983108192682266,
-0.015608763322234154,
-0.07797853648662567,
-0.048899829387664795,
0.04108790308237076,
0.09266646206378937,
0.04596903547644615,
-0.0215557012706995,
-0.09642472863197327,
-0.011986849829554558,
-0.0835786908864975,
-0.08754169940948486,
0.0666469931602478,
0.030187269672751427,
0.08370326459407806,
-0.03139058127999306,
0.08304063230752945,
0.055907007306814194,
-0.0702926367521286,
-0.07907684892416,
0.07789209485054016,
0.0841376855969429,
-0.034721389412879944,
0.058900270611047745,
-0.0018186316592618823,
0.00020554389629978687,
0.06528051942586899,
0.02216322533786297,
-0.0680215135216713,
0.04796813428401947,
0.04654044657945633,
0.1367209404706955,
-0.05624307319521904,
0.07839854061603546,
-0.10656669735908508,
0.052843689918518066,
0.08097957074642181,
-0.07619405537843704,
-0.003959888592362404,
0.046273451298475266,
0.06423880159854889,
-0.07729263603687286,
0.06381144374608994,
0.0285093542188406,
0.0263459961861372,
-0.047871917486190796,
-0.025387682020664215,
-0.0066258665174245834,
-0.008803185075521469,
0.08589955419301987,
-0.02103380300104618,
0.02707274630665779,
-0.05543116107583046,
-0.0402456670999527,
-0.09319200366735458,
0.04035958647727966,
-0.056244127452373505,
0.003048947313800454,
-0.08051540702581406,
-0.04481549933552742,
0.0014434866607189178,
-0.00785800814628601,
-0.06142537668347359,
0.05140487104654312,
-0.0036171849351376295,
0.02408646233379841,
-0.05552125349640846,
0.020345531404018402,
-0.08576013147830963,
0.06301196664571762,
-0.07896706461906433,
0.09981841593980789,
-0.061250682920217514,
0.05851725861430168,
0.03268718346953392,
0.0928630530834198,
0.08432792872190475,
0.045394279062747955,
-0.05782996118068695,
0.03294827789068222,
0.0050585102289915085,
-0.0670771449804306,
0.01317219715565443,
0.07090296596288681,
0.0018125433707609773,
0.06657654792070389,
-0.06090739741921425,
-0.06894433498382568,
0.048693347722291946,
-0.0018589957617223263,
-0.006904756650328636,
-0.050434887409210205,
0.025370953604578972,
-0.021924497559666634,
0.06221972778439522,
0.0889640599489212,
-0.09434815496206284,
0.01875539869070053,
0.04803725704550743,
-0.09021662920713425,
0.0783260390162468,
0.008655315265059471,
0.059067267924547195,
-0.08432620018720627,
0.051852110773324966,
-0.02743825688958168,
-0.04080873727798462,
-0.05933389812707901,
0.0278158076107502,
0.04426957666873932,
0.059250880032777786,
0.025445878505706787,
-0.008830909617245197,
-0.029737645760178566,
-0.03446804732084274,
-0.04720728099346161,
0.008862027898430824,
0.044040899723768234,
0.03502063825726509,
-0.07635281980037689,
-0.14093418419361115,
0.03704911842942238,
0.015548165887594223,
-0.06681684404611588,
0.09530680626630783,
0.08032700419425964,
0.13763496279716492,
0.060088858008384705,
0.07281748205423355,
0.06211131811141968,
0.025335462763905525,
0.07372159510850906,
0.006749473046511412,
0.09384679794311523,
-0.016942540183663368,
-0.05681087449193001,
0.0868455022573471,
0.07278453558683395,
-0.05021363124251366,
0.05110561475157738,
-0.03948770463466644,
0.11435659229755402,
-0.0335417240858078,
0.03043125569820404,
0.10095451027154922,
0.04189401865005493,
0.0411941222846508,
-0.12619048357009888,
0.07109364867210388,
0.061540428549051285,
0.029926175251603127,
0.08338528126478195,
-0.008290398865938187,
0.05788643658161163,
-0.11116436123847961,
-0.030486546456813812,
-0.02806416153907776,
-0.008271400816738605,
0.05576116591691971,
0.028809955343604088,
0.08164317905902863,
-0.06188231334090233,
-0.0270550474524498,
-0.029377279803156853,
0.05721842125058174,
-0.05756423994898796,
0.007329415529966354,
0.005360195878893137,
2.1501840819837525e-05,
-0.04818398877978325,
-0.08680438995361328,
-0.059411000460386276,
-0.046914760023355484,
0.04535198211669922,
-0.08632791042327881,
0.06850565969944,
0.010492048226296902,
-0.09056495875120163,
-0.09550509601831436,
-0.09350064396858215,
0.050740934908390045,
0.009277869015932083,
-0.05302821472287178,
-0.08569561690092087,
0.03786345198750496,
0.032472845166921616,
0.1157521978020668,
0.10242966562509537,
-0.023120155557990074,
-0.06520970165729523,
-0.0870823860168457,
0.06254955381155014,
0.05888490378856659,
-0.11122921854257584,
0.08177147805690765,
0.10924192517995834,
0.020225487649440765,
0.07287798076868057,
-0.04756300523877144,
0.025708647444844246,
-0.08293895423412323,
-0.0018688621930778027,
-0.01181186642497778,
0.016655506566166878,
0.05811214819550514,
0.08342370390892029,
0.03807030990719795,
0.03191494569182396,
-0.05299275740981102,
0.0054423026740550995,
-0.05297013372182846,
0.013632973656058311,
-0.06187296286225319,
-0.10351069271564484,
0.10873599350452423,
-0.03620825335383415,
-0.010793022811412811,
-0.046301618218421936,
-0.012093085795640945,
0.04743063077330589,
-0.03448915109038353,
0.09127993881702423,
-0.05641669034957886,
0.06887483596801758,
-0.08103419840335846,
0.07878720015287399,
-0.04745834320783615,
0.0717465803027153,
-0.08413063734769821,
-0.07381425052881241,
-0.09361416101455688,
-0.019290603697299957,
-0.0009390421910211444,
0.06586025655269623,
0.0721718892455101,
0.08978378027677536,
0.04083795100450516,
-0.034231312572956085,
0.04815364629030228,
0.1564435362815857,
-0.059234607964754105,
-0.00296343257650733,
0.03074108622968197,
0.07204195111989975,
-0.06459289789199829,
-0.08561128377914429,
-0.025926906615495682,
0.11440407484769821,
0.021154018118977547,
-0.15524443984031677,
0.033367328345775604,
-0.06782318651676178,
0.012203450314700603,
-0.04733070731163025,
0.1225256621837616,
-0.03176549822092056,
0.03996871039271355,
0.05092202126979828,
-0.020195994526147842,
0.08991893380880356,
0.09901972860097885,
-0.08875171095132828,
0.13717272877693176,
0.1144750639796257,
0.14632295072078705,
0.08977441489696503,
-0.003354407846927643,
-0.008893474005162716,
-0.10229525715112686,
0.0744665265083313,
-0.053547438234090805,
0.04210696741938591,
0.020216749981045723,
-0.1262134611606598,
0.15015214681625366,
-0.08718371391296387,
-0.004871622193604708,
0.11819597333669662,
0.003605710808187723,
-0.03627874329686165,
-0.10252214223146439,
-0.018669340759515762,
-0.050587430596351624,
-0.13175691664218903,
-0.010285412892699242,
0.06342063844203949,
0.0493914969265461,
-0.04930618032813072,
0.02612542174756527,
0.08584091812372208,
-0.0694800466299057,
-0.013845073990523815,
0.06753624975681305,
0.06303071230649948,
0.05980193614959717,
0.07253376394510269,
-0.028691491112113,
-0.04295375198125839,
-0.015560622327029705,
0.029316967353224754,
0.08702453225851059,
0.18698334693908691,
0.021929962560534477,
0.1357879638671875,
0.01953998953104019,
0.15497295558452606,
-0.11144152283668518,
-0.07899920642375946,
-0.03629811480641365,
0.0590498186647892,
-0.018116172403097153,
-0.05290284380316734,
-0.0694691389799118,
0.08884118497371674,
-0.07994496822357178,
0.026509283110499382,
0.014228408224880695,
0.054297126829624176,
0.06657978892326355,
0.012398245744407177,
-0.1282416731119156,
-0.05854145810008049,
0.06351618468761444,
-0.06134124472737312,
-0.03589598089456558,
-0.04558536782860756,
-0.06263487040996552,
0.08239797502756119,
-0.07682681083679199,
-0.09610496461391449,
0.13864734768867493,
0.0728624239563942,
0.044878050684928894,
0.09497527033090591,
-0.045333828777074814,
0.03588355705142021,
0.07282552868127823,
0.08856762200593948,
0.0015111658722162247,
-0.08172692358493805,
-0.06622408330440521,
0.015286210924386978,
-0.06503816694021225,
-0.026681454852223396,
-0.02520829066634178,
-0.022987132892012596,
-0.05350543558597565,
-0.0671449601650238,
-0.02154443971812725,
0.07268667966127396,
-0.012648212723433971,
0.1310049146413803,
-0.07520849257707596,
-0.017727507278323174,
-0.0617281049489975,
0.062216371297836304,
0.03757217898964882,
0.04430265724658966,
0.05209184065461159,
-0.08451210707426071,
-0.07852853834629059,
-0.02832704968750477,
-0.025611430406570435,
-0.041167017072439194,
-0.04451363533735275,
0.03594214841723442,
0.08943022787570953,
-0.04690360650420189,
-0.01683291792869568,
-0.07593286037445068,
0.06491778790950775,
-0.08564627915620804,
-0.01648293063044548,
-0.08072478324174881,
0.06891816854476929,
-0.011892527341842651,
0.03424520790576935,
-0.012084932066500187,
0.05413377285003662,
0.06552080065011978,
-0.004236623644828796,
0.03429946303367615,
-0.027487533167004585,
0.037937749177217484,
-0.047320909798145294,
-0.04694855585694313,
-0.049115147441625595,
0.07826372236013412,
0.043547846376895905,
-0.06880278140306473,
0.058879218995571136,
0.07770583778619766,
-0.08751099556684494,
0.0027596347499638796,
-0.0385572724044323,
0.060843996703624725,
-0.06110692769289017,
0.029307691380381584,
0.02656443417072296,
0.0038510821759700775,
0.06998628377914429,
-0.0787583589553833,
-0.05138317123055458,
0.06854911893606186,
0.05363263934850693,
-0.02877511829137802,
0.025074675679206848,
0.06735772639513016,
0.0003788686590269208,
0.041865814477205276,
-0.056019578129053116,
-0.009750567376613617,
0.06797737628221512,
-0.0341760516166687,
0.09734363853931427,
-0.02646065317094326,
-0.08174792677164078,
0.013744838535785675,
-0.053666744381189346,
0.029830921441316605,
0.06224895268678665,
0.07186412811279297,
-0.07249869406223297,
-0.06638941168785095,
-0.05320698395371437,
0.019760066643357277,
0.08829696476459503,
-0.047108061611652374,
0.0872654989361763,
-0.008444060571491718,
-0.0469643659889698,
0.012123518623411655,
-0.08408864587545395,
-0.006661032792180777,
-0.04545906186103821,
-0.08812937140464783,
0.024867268279194832,
0.0666511282324791,
-0.038218773901462555,
0.02920212224125862,
-0.08654624968767166,
-0.051052555441856384,
-0.030848348513245583,
-0.0901615098118782,
0.028782354667782784,
-0.0017752913990989327,
0.030441073700785637,
0.0005367346457205713,
-0.048218902200460434,
0.02379329316318035,
0.016570739448070526,
0.07536084204912186,
0.06323397904634476,
-0.08103203773498535,
0.07393552362918854,
-0.0012985666980966926,
0.0056925248354673386,
-0.034721288830041885,
0.07696015387773514,
0.07693549990653992,
-0.05713503435254097,
-0.08704493194818497,
0.05385333672165871,
-0.0023473831824958324,
0.05255415290594101,
0.05617949739098549,
0.032945357263088226,
-0.08625859767198563,
-0.03499893844127655,
0.029658757150173187,
0.0562148280441761,
0.05587901547551155,
-0.08573819696903229,
-0.050111640244722366,
-0.06782310456037521,
0.08333688229322433,
0.08777660131454468,
-0.016852881759405136,
-0.053734686225652695,
0.06122196465730667,
-0.10062815994024277,
0.05839970335364342,
0.050197843462228775,
0.07724092900753021,
-0.06551527231931686,
-0.06108490377664566,
0.10219892114400864,
-0.03883253410458565,
0.06483615189790726,
0.13875479996204376,
0.0011510334443300962,
0.11268036812543869,
-0.005609656218439341,
0.023595865815877914,
-0.11923331767320633,
-0.05905742943286896,
-0.05873199179768562,
0.07233170419931412,
0.0812172219157219,
-0.014044235460460186,
0.031394340097904205,
0.04968700930476189,
-0.08715049177408218,
0.02619233913719654,
0.022855274379253387,
-0.15048739314079285,
-0.09096527099609375,
-0.16589856147766113,
0.12868359684944153,
-0.14573201537132263,
0.01266217976808548,
-0.06820492446422577,
0.11698587983846664,
-0.07247934490442276,
-0.021686537191271782,
0.03548562899231911,
0.08244936168193817,
-0.15421518683433533,
0.10318075865507126,
0.02871856465935707,
0.012496261857450008,
0.0693913921713829,
0.15097330510616302,
-0.06805672496557236,
-0.07268888503313065,
0.050742290914058685,
-0.034508951008319855,
0.08049706369638443,
-0.0019214823842048645,
-0.033516090363264084,
0.029835591092705727,
0.014046169817447662,
-0.03680445998907089,
0.051886990666389465,
0.01545446552336216,
0.14047294855117798,
0.10507515072822571,
0.055300839245319366,
0.1247473806142807,
-0.06335648149251938,
0.046410832554101944,
-0.0364995002746582,
0.06593746691942215,
-0.1255856156349182,
0.06724745780229568,
0.03836064040660858,
0.06112322211265564,
-0.0813879445195198,
-0.012378173880279064,
0.02595571242272854,
0.10150033980607986,
0.009529356844723225,
0.04395711049437523,
-0.016986830160021782,
-0.028451284393668175,
0.017387382686138153,
-0.06299079954624176,
0.052592065185308456,
-0.0742274820804596,
-0.03687012568116188,
0.000533224199898541,
-0.10035937279462814,
0.07397713512182236,
-0.10407157987356186,
0.06865391880273819,
-0.07103344053030014,
0.04629116877913475,
-0.05176413804292679,
-0.07320133596658707,
0.08930549770593643,
0.11434930562973022,
-0.09964632987976074,
0.041085101664066315,
-0.1062721312046051,
0.04239114001393318,
-0.008187049999833107,
0.02036687359213829,
0.02648007683455944,
0.055353425443172455,
-0.08134496212005615,
0.04184124991297722,
0.15335892140865326,
0.016352958977222443,
0.04828670620918274,
-0.02010873146355152,
-0.053331803530454636,
0.003930905368179083,
0.1132727563381195,
0.03602280095219612,
-0.05651402845978737,
-0.04927872121334076,
-0.036996498703956604,
0.07130550593137741,
-0.023745834827423096,
0.08373604714870453,
-0.05640438571572304,
0.03239162266254425,
0.0035185758024454117,
0.03243362903594971,
-0.0796419307589531,
-0.035097770392894745,
-0.030877504497766495,
0.11732928454875946,
-0.08889899402856827,
0.053703900426626205,
-0.06324021518230438,
0.011928187683224678,
-0.04059435799717903,
0.008011328987777233,
0.07944343984127045,
0.00633690319955349,
0.07289152592420578,
0.06316956877708435,
-0.043405644595623016,
0.0752640962600708,
0.10646974295377731,
0.15390349924564362,
-0.014932443387806416,
-0.0376761220395565,
-0.02665713056921959,
0.07289174944162369,
0.02378746308386326,
-0.04480849951505661,
0.04590609669685364,
0.0980168953537941,
-0.17825868725776672,
-0.04316498339176178,
0.05609411746263504,
0.001460205647163093,
0.032026197761297226,
0.03258780017495155,
0.10325592756271362,
-0.0417015440762043,
0.018159328028559685,
-0.035702697932720184,
-0.011323434300720692,
-0.05786041170358658,
-0.1705961674451828,
0.08770965039730072,
-0.06385380774736404,
0.10587584972381592,
-0.04682035371661186,
0.020856823772192,
0.09618162363767624,
0.14511717855930328,
0.029144005849957466,
-0.064920574426651,
0.0653400868177414,
0.05648384988307953,
-0.08474425971508026,
-0.06684024631977081,
-0.09166979044675827,
0.06896825134754181,
-0.08198770880699158,
-0.008225698955357075,
0.030291907489299774,
0.07671871036291122,
0.014501943252980709,
0.13308092951774597,
0.008810457773506641,
0.09781552851200104,
0.10688459873199463,
0.11543480306863785,
-0.04259955883026123,
0.15330928564071655,
0.1005641520023346,
-0.03462658077478409,
0.02883811853826046,
0.10567669570446014,
-0.08683483302593231,
-0.011763721704483032,
0.15025249123573303,
-0.036027535796165466,
-0.02896188758313656,
0.05987657606601715,
-0.09731440246105194,
-0.08024011552333832,
0.04089953377842903,
-0.1303228884935379,
-0.027817610651254654,
-0.09649282693862915,
0.09178073704242706,
-0.02703809179365635,
0.0009231350850313902,
0.03731660917401314,
0.02322317846119404,
0.07183985412120819,
-0.031203297898173332,
-0.0028598778881132603,
-0.05321427807211876,
-0.06275564432144165,
-0.0045675355941057205,
0.1307002156972885,
-0.06208223104476929,
0.022842079401016235,
0.016797814518213272,
0.06302475184202194,
0.010817770846188068,
0.0029253805987536907,
0.05313066765666008,
0.039315372705459595,
0.07454220950603485,
-0.06024819612503052,
-0.08926762640476227,
0.18061509728431702,
0.02556496113538742,
0.024565380066633224,
-0.023289062082767487,
-0.03701800853013992,
0.0817243829369545,
-0.0570046566426754,
-0.15315468609333038,
-0.033015936613082886,
-0.009844199754297733,
-0.061978306621313095,
-0.003042069496586919,
-0.022124677896499634,
0.13982698321342468,
-0.00410360237583518,
-0.21126842498779297,
-0.20338356494903564,
-0.028527215123176575,
-0.10617785900831223,
0.05869845300912857,
0.05931003764271736,
-0.021265778690576553,
0.1434950828552246,
0.16393674910068512,
-0.060648757964372635,
0.08135797083377838,
-0.012691137380897999,
0.10203328728675842,
-0.09377311170101166,
0.05934722349047661,
-0.01155687402933836,
0.024070989340543747,
-0.09547319263219833,
0.14944703876972198,
0.10759269446134567,
-0.006450573448091745,
-0.07688398659229279,
0.05271103233098984,
-0.09466090798377991,
0.0957140177488327,
0.053901441395282745,
-0.1737389713525772,
-0.047315843403339386,
0.024426450952887535,
0.04848558083176613,
-0.07757234573364258,
0.04891296848654747,
0.14616839587688446,
0.1151367798447609,
0.08943237364292145,
0.03501002490520477,
0.09235327690839767,
0.029341094195842743,
-0.012955368496477604,
-0.06133655086159706,
-0.016772206872701645,
0.040056295692920685,
-0.034400373697280884,
-0.03931576386094093,
0.06202113628387451,
0.052699096500873566,
-0.04816605895757675,
0.012955102138221264,
-0.013601303100585938,
0.07796180248260498,
0.026123108342289925,
0.11126140505075455,
0.10266902297735214,
0.08852554112672806,
0.06495392322540283,
-0.07088872790336609,
0.07337523996829987,
0.10443348437547684,
0.14833354949951172,
0.04498698562383652,
0.0029780601616948843,
0.11718575656414032,
0.1021663248538971,
0.011307930573821068,
-0.07300099730491638,
0.07917968183755875,
-0.0031085158698260784,
0.09329504519701004,
0.02944784238934517,
0.08292543888092041,
-0.11042944341897964,
-0.06988172233104706,
0.16461138427257538,
0.016689663752913475,
0.08584152907133102,
0.03529993072152138,
0.014451267197728157,
0.04844526946544647,
0.1405860185623169,
0.056042760610580444,
-0.010926616378128529,
0.03303161635994911,
-0.0932106301188469,
-0.14411064982414246,
-0.0030173659324645996,
-0.012928715907037258,
0.1230899915099144,
-0.005532443057745695,
-0.055430684238672256,
0.0005417413194663823,
0.07418076694011688,
0.13978904485702515,
-0.1257317066192627,
-0.047208722680807114,
-0.12411468476057053,
0.03764567896723747,
-0.01711311563849449,
-0.04446648433804512,
0.03494342043995857,
0.017239322885870934,
-0.06483257561922073,
0.14558808505535126,
-0.039652448147535324,
0.03952889144420624,
-0.0050712646916508675,
-0.08691191673278809,
0.04695560038089752,
0.0837334394454956,
0.04510330781340599,
0.05402744188904762,
-0.025198975577950478,
-0.07020808756351471,
-0.1366911679506302,
0.11400838196277618,
-0.08108494430780411,
0.12080889940261841,
0.0460050068795681,
0.06504842638969421,
0.07282881438732147,
-0.23682405054569244,
0.09339900314807892,
0.11735482513904572,
0.0707782655954361,
0.01851404272019863,
0.1246676966547966,
-0.11230629682540894,
-0.14432618021965027,
-0.09793274104595184,
-0.09513158351182938,
0.08768703043460846,
-0.025864165276288986,
0.12141338735818863,
-0.05650550127029419,
-0.025632241740822792,
0.23475097119808197,
-0.13006041944026947,
-0.006016615312546492,
0.16929303109645844,
-0.11353383958339691,
0.036987025290727615,
0.00898986216634512,
0.11814075708389282,
-0.0510537214577198,
0.05302752926945686,
-0.014903274364769459,
0.10502677410840988,
0.1673099249601364,
0.047580961138010025,
0.23108519613742828,
0.05223826691508293,
-0.12873965501785278,
-0.08448121696710587,
-0.14569854736328125,
0.02808976173400879,
-0.04409341141581535,
0.03703596070408821,
-0.0499626062810421,
0.0008671521791256964,
0.08683343976736069,
0.024257540702819824,
-0.04729047790169716,
-0.12101221084594727,
0.03010573238134384,
-0.10160187631845474,
-0.031402986496686935,
-0.0555538572371006,
-0.02940666861832142,
0.03230508416891098,
0.10522729158401489,
0.026235181838274002,
-0.11871512979269028,
0.03395770862698555,
-0.022656621411442757,
-0.011337232775986195,
0.008784369565546513,
0.10819540172815323,
0.06032596901059151,
0.038830339908599854,
-0.04494514316320419,
0.09724864363670349,
-0.09724313020706177,
-0.07913632690906525,
0.18015119433403015,
-0.004271996673196554,
0.1315024346113205,
0.010570148006081581,
0.06333206593990326,
0.04207596927881241,
-0.24623900651931763,
0.060707736760377884,
0.0035952043253928423,
0.08891605585813522,
-0.11509096622467041,
-0.13661210238933563,
-0.1276044100522995,
0.014204242266714573,
-0.2512925863265991,
-0.06489524245262146,
-0.14977267384529114,
0.11248227208852768,
-0.0038148183375597,
0.10793514549732208,
-0.028755469247698784,
0.1691722273826599,
0.09217364341020584,
-0.05775132775306702,
0.05010335147380829,
-0.17029748857021332,
0.10550995916128159,
-0.03793572634458542,
-0.09780803322792053,
-0.005464672110974789,
0.20881667733192444,
0.07546180486679077,
0.0008834297768771648,
-0.06114808842539787,
0.03448425233364105,
-0.040483471006155014,
0.023979030549526215,
0.12379583716392517,
-0.10080259293317795,
-0.052578214555978775,
0.1470830738544464,
0.0039228834211826324,
0.013498499989509583,
0.010286454111337662,
0.16646574437618256,
-0.06735493987798691,
0.01870737597346306,
0.02944423072040081,
-0.08096828311681747,
0.1683235913515091,
-0.02787286788225174,
0.012186102569103241,
-0.017690230160951614,
0.04098306968808174,
0.0929628387093544,
0.045102089643478394,
0.0876140147447586,
0.058221396058797836,
-0.08783741295337677,
-0.037526343017816544,
-0.14366787672042847,
-0.020415140315890312,
0.04866800084710121,
0.0824810117483139,
0.05472363531589508,
0.10406801849603653,
0.14738309383392334,
0.03864535316824913,
0.12944960594177246,
0.03550703823566437,
0.09008685499429703,
-0.024170024320483208,
-0.032505180686712265,
0.057576734572649,
0.017894573509693146,
0.01909436658024788,
0.06970681995153427,
0.006599495653063059,
-0.027209404855966568,
-0.045256197452545166,
0.035174306482076645,
-0.09455165266990662,
0.02551637589931488,
-0.08199457079172134,
0.030722182244062424,
-0.025662539526820183,
0.05341839790344238,
-0.0717119425535202,
0.09991001337766647,
0.05603547766804695,
0.03988086059689522,
0.029400162398815155,
-0.034599270671606064,
-0.026174210011959076,
-0.003360123373568058,
0.051458872854709625,
-0.03302765265107155,
-0.06065402179956436,
0.07615096122026443,
-0.06190084293484688,
0.04978131130337715,
0.10253389924764633,
0.14789779484272003,
0.02737201377749443,
-0.11262071877717972,
-0.010685994289815426,
-0.12205225229263306,
0.02427624724805355,
0.1380849927663803,
-0.0791177824139595,
0.002512854989618063,
-0.1252610832452774,
0.06754473596811295,
0.0866810604929924,
-0.09185397624969482,
0.03771175071597099,
0.08471094816923141,
-0.0008969437330961227,
-0.10544156283140182,
0.09760384261608124,
-0.06547338515520096,
-0.16625681519508362,
-0.11524602770805359,
-0.023439042270183563,
-0.09701911360025406,
0.0066086589358747005,
0.006324786692857742,
0.02617493085563183,
0.13337446749210358,
-0.08088681101799011,
-0.07229810953140259,
0.09145954996347427,
-0.04570953920483589,
-0.10586521774530411,
0.07540227472782135,
0.014483137987554073,
0.0041398159228265285,
-0.038383204489946365,
-0.11194512248039246,
-0.0640251412987709,
-0.0865115076303482,
0.029714340344071388,
0.10712042450904846,
-0.02843659743666649,
0.11937608569860458,
0.03697727993130684,
0.12923498451709747,
-0.005817617755383253,
-0.03370404243469238,
0.14593437314033508,
-0.14724910259246826,
-0.004927206318825483,
-0.04094323143362999,
0.10754719376564026,
0.02220945991575718,
-0.0005137012922205031,
0.1565621793270111,
-0.09767623990774155,
-0.023571116849780083,
-0.007001373916864395,
-0.06960491091012955,
0.03706248104572296,
-0.10237675160169601,
0.026398347690701485,
-0.088144950568676,
-0.06316225230693817,
-0.07172767072916031,
0.01718667335808277,
0.16110444068908691,
0.05914325267076492,
-0.11730919033288956,
0.14396587014198303,
-0.04806193336844444,
-0.12884382903575897,
-0.02883913740515709,
-0.062154483050107956,
-0.02072649449110031,
-0.07517068088054657,
-0.08320410549640656,
-0.1289675086736679,
0.09243322163820267,
0.11940915137529373,
0.10123990476131439,
0.0261423010379076,
-0.13206639885902405,
0.01013172883540392,
-0.12148154526948929,
-0.07026086002588272,
0.04513341933488846,
-0.2853598892688751,
0.03082023561000824,
0.028840448707342148,
0.03845283016562462,
-0.03235005959868431,
0.06151227653026581,
0.16398432850837708,
0.0609353706240654,
-0.07125640660524368,
-0.0833529382944107,
-0.05319143459200859,
0.12780359387397766,
-0.05664009973406792,
0.11332147568464279,
0.1989588737487793,
0.05020171031355858,
-0.04681909456849098,
-0.050031326711177826,
0.0035855239257216454,
-0.16272535920143127,
-0.08243850618600845,
-0.02412339486181736,
-0.057964734733104706,
0.1364811509847641,
-0.16461460292339325,
0.024605674669146538,
0.2510879635810852,
-0.03379622846841812,
-0.10960675030946732,
-0.15493500232696533,
-0.05974937230348587,
-0.0402769073843956,
-0.16143539547920227,
0.06889308243989944,
0.07303564995527267,
-0.016588084399700165,
0.06547300517559052,
0.017421990633010864,
0.03665768727660179,
0.050683069974184036,
-0.20039361715316772,
-0.08661645650863647,
0.16137462854385376,
-0.06511947512626648,
0.01260047685354948,
0.08319919556379318,
-0.0019131272565573454,
-0.026102133095264435,
-0.07438693195581436,
0.07197053730487823,
-0.02453198842704296,
0.0906093642115593,
0.05511057749390602,
-0.025478454306721687,
-0.00045237282756716013,
-0.07501227408647537,
-0.027539998292922974,
0.003759442362934351,
-0.043210018426179886,
0.0017816023901104927,
-0.04694797098636627,
-0.029590925201773643,
-0.07942890375852585,
-0.17270731925964355,
-0.05352037400007248,
0.06108236312866211,
-0.023070668801665306,
0.12979570031166077,
0.024212289601564407,
-0.08310633152723312,
0.0015848674811422825,
0.07536827027797699,
0.02140788920223713,
-0.08750364929437637,
0.12870807945728302,
0.026086853817105293,
0.017674490809440613,
-0.20402595400810242,
-0.061671264469623566,
0.032575033605098724,
-0.13160644471645355,
0.27675363421440125,
0.06696804612874985,
-0.025830401107668877,
0.26151877641677856,
-0.11231451481580734,
-0.029382580891251564,
-0.1254369020462036,
-0.06766090542078018,
0.04988284036517143,
0.10066752880811691,
-0.06269590556621552,
-0.07637355476617813,
-0.009113618172705173,
0.05014963075518608,
0.12427273392677307,
0.026614174246788025,
0.019837912172079086,
-0.07482490688562393,
0.08622316271066666,
0.019268255680799484,
0.12901003658771515,
-0.130471870303154,
0.036001548171043396,
0.002942448714748025,
-0.039402320981025696,
0.059169702231884,
0.10962491482496262,
-0.05933671072125435,
-0.04204379394650459,
-0.060963112860918045,
-0.036469973623752594,
0.054781462997198105,
-0.06855691224336624,
-0.008305876515805721,
0.0020238268189132214,
-0.018177781254053116,
-0.031845830380916595,
-0.03577740862965584,
-0.03516499325633049,
-0.0016452573472633958,
-0.01905086636543274,
-0.06792819499969482,
0.045735470950603485,
0.041170090436935425,
-0.019780706614255905,
-0.011149621568620205,
-0.06826209276914597,
-0.037892431020736694,
0.07992242276668549,
-0.04489687457680702,
-0.06385603547096252,
-0.08728492259979248,
0.09058746695518494,
-0.0643375813961029,
0.017064707353711128,
0.07433539628982544,
0.0455704927444458,
0.03649855777621269,
-0.09083633124828339,
-0.04235392063856125,
0.08749134838581085,
-0.07076022028923035,
-0.03787508234381676,
-0.0540524385869503,
0.08012988418340683,
-0.09393706917762756,
-0.01925336942076683,
-0.059026021510362625,
0.06862623244524002,
-0.018566440790891647,
0.011188562959432602,
0.04951411485671997,
-0.05220358446240425,
0.02633681148290634,
-0.03728678822517395,
0.08676663041114807,
-0.005691733676940203,
-0.059977639466524124,
0.036485057324171066,
-0.03847236931324005,
-0.03451986983418465,
-0.1022087037563324,
0.049608539789915085,
-0.03589422628283501,
0.056748662143945694,
-0.06694528460502625,
0.02732645533978939,
0.0743400901556015,
0.004491670988500118,
0.019792379811406136,
-0.02670535258948803,
0.009615759365260601,
-0.08498682081699371,
0.09373878687620163,
0.06420852988958359,
0.05754503980278969,
-0.043668266385793686,
0.07669270783662796,
0.06533787399530411,
-0.0745793804526329,
-0.09521350264549255,
-0.07176841795444489,
-0.03848940506577492,
0.06921841949224472,
-0.10419532656669617,
0.10005829483270645,
0.07826496660709381,
0.028771858662366867,
0.010532841086387634,
-0.05350241810083389,
-0.026914112269878387,
0.04236031696200371,
0.032585952430963516,
0.02656698226928711,
0.06100604310631752,
0.05896381288766861,
0.060904040932655334,
-0.007385064382106066,
-0.033114541321992874,
-0.043285150080919266,
-0.04680908843874931,
0.08190327882766724,
0.06761083006858826,
0.008998896926641464,
0.07925596088171005,
-0.04740557447075844,
-0.054445549845695496,
-0.023600388318300247,
0.04127803072333336,
0.08154379576444626,
0.056308235973119736,
0.015559465624392033,
-0.05277621001005173,
0.08051622658967972,
0.06338441371917725,
0.05805913731455803,
0.05955306068062782,
-0.040229979902505875,
-0.02414260245859623,
0.020234111696481705,
-0.028234995901584625,
-0.053824104368686676,
-0.029820820316672325,
0.04727455973625183,
0.026507368311285973,
0.042073242366313934,
-0.09438817203044891,
0.14176702499389648,
-0.026136906817555428,
-0.021413320675492287,
0.08351223915815353,
-0.056127019226551056,
-0.0831536203622818,
-0.07594297081232071,
-0.06910836696624756,
-0.06346399337053299,
-0.01416041236370802,
-0.06987884640693665,
-0.03682292625308037,
-0.08235146105289459,
0.15444530546665192,
0.0923679918050766,
-0.026806369423866272,
0.06223827600479126,
-0.08832704275846481,
0.002227304968982935,
-0.037082381546497345,
0.027620017528533936,
-0.008382600732147694,
-0.018972357735037804,
0.10470286756753922,
0.12536506354808807,
0.03635437414050102,
-0.0647362768650055,
-0.07960093021392822,
-0.01765456795692444,
-0.06510678678750992,
0.03319371119141579,
0.019988002255558968,
-0.07520872354507446,
0.015628475695848465,
0.024263381958007812,
-0.06587551534175873,
-0.053526077419519424,
-0.0020959489047527313,
-0.06968043744564056,
-0.056973520666360855,
-0.035632774233818054,
-0.09586317837238312,
0.10120214521884918,
-0.0169305931776762,
-0.023188607767224312,
-0.0345681831240654,
0.051847342401742935,
0.06990822404623032,
-0.051987502723932266,
-0.07368997484445572,
0.023288583382964134,
-0.07938606292009354,
-0.03736935928463936,
0.07797182351350784,
-0.014112834818661213,
-0.0039472817443311214,
0.07817034423351288,
-0.06277300417423248,
0.043793052434921265,
-0.06957042217254639,
0.039558883756399155,
0.0775173157453537,
-0.03017946518957615,
-0.07068287581205368,
0.04197714105248451,
-0.03866095468401909,
-0.029294513165950775,
-0.07333836704492569,
0.00043707340955734253,
0.16392388939857483,
-0.01988174393773079,
-0.02197079360485077,
-0.015061241574585438,
0.09203474223613739,
0.02934722974896431,
-0.07121695578098297,
0.08713292330503464,
0.1503450870513916,
0.005422750487923622,
-0.045225393027067184,
0.06347735226154327,
0.049328453838825226,
0.09137409925460815,
0.09761985391378403,
0.09740379452705383,
0.08952146768569946,
0.002936381846666336,
0.03759956359863281,
0.0272170789539814,
0.002476235618814826,
-0.05272109806537628,
0.012555456720292568,
-0.052971210330724716,
0.05209411680698395,
-0.015195957385003567,
0.1061188280582428,
-0.06357761472463608,
-0.051569245755672455,
0.017740193754434586,
0.07486313581466675,
-0.015676595270633698,
-0.02169102616608143,
-0.0887022614479065,
-0.03795698657631874,
0.032707031816244125,
-0.0879838839173317,
0.04565798118710518,
-0.08222402632236481,
0.03402825817465782,
0.07409347593784332,
-0.0536198690533638,
-0.06241271272301674,
-0.10761469602584839,
-0.023525744676589966,
-0.02027946338057518,
-0.0875663310289383,
-0.09771206229925156,
0.039303407073020935,
0.008497663773596287,
-0.06194907799363136,
-0.01224167924374342,
-0.06753642857074738,
-0.08222095668315887,
0.012516507878899574,
-0.04819066449999809,
0.03828650340437889,
-0.012106712907552719,
-0.06262852251529694,
0.000823605281766504,
0.01075565442442894,
-0.08547622710466385,
-0.05401258543133736,
-0.07274582237005234,
0.03636888787150383,
-0.05233052372932434,
-0.021812329068779945,
-0.08600316941738129,
-0.055798329412937164,
0.08723586052656174,
0.040036723017692566,
0.034921761602163315,
0.05176925286650658,
-0.03506746143102646,
-0.02724539116024971,
-0.01776733808219433,
0.05383334308862686,
-0.05320332571864128,
0.0841616615653038,
-0.017352160066366196,
0.04473913460969925,
0.00525833060964942,
-0.051173921674489975,
0.03928327187895775,
-0.045536696910858154,
0.019340097904205322,
0.08116203546524048,
0.06832652539014816,
0.0749586746096611,
-0.026288114488124847,
0.03684176132082939,
-0.010395148769021034,
0.07878148555755615,
0.04181212559342384,
-0.07348837703466415,
-0.08655814826488495,
0.06604509055614471,
-0.02782774716615677,
-0.06442675739526749,
0.05366642400622368,
-0.02294168248772621,
-0.07137715071439743,
-0.08078353106975555,
-0.08990643918514252,
0.01004107017070055,
-0.0069993482902646065,
-0.05906685069203377,
0.06471781432628632,
-0.004903522785753012,
-0.07357285916805267,
-0.0046202572993934155,
-0.018070699647068977,
-0.0781690776348114,
0.007274752017110586,
0.04357663169503212,
-0.05419398471713066,
-0.024213843047618866,
-0.09026142954826355,
0.08305555582046509,
0.028087379410862923,
-0.0702342689037323,
0.06124626100063324,
-0.025029079988598824,
-0.08745848387479782,
-0.05049046128988266,
0.07745688408613205,
0.04988778755068779,
0.0067082676105201244,
0.02086764946579933,
-0.05192500725388527,
0.06926403939723969,
-0.06336942315101624,
-0.018550753593444824,
0.07412875443696976,
0.019153432920575142,
-0.032409995794296265,
-0.016370808705687523,
0.08140119910240173,
-0.009957793168723583,
0.0785377100110054,
-0.04923507943749428,
-0.013034180738031864,
-0.036337222903966904,
0.07661930471658707,
-0.07987596094608307,
-0.06628098338842392,
0.004740368574857712,
0.06749735027551651,
0.0037647883873432875,
0.05810457095503807,
-0.035405226051807404,
-0.08503879606723785,
-0.019661447033286095,
0.0763213038444519,
-0.02462506853044033,
-0.07009382545948029,
-0.0950496569275856,
0.07522475719451904,
-0.0773703083395958,
-0.09122399240732193,
-0.03463886305689812,
-0.053484778851270676,
-0.05454305559396744,
-0.062347568571567535,
0.07956363260746002,
-0.025694360956549644,
-0.04980219155550003,
-0.07708103954792023,
-0.0856681764125824,
-0.06489598751068115,
0.08676466345787048,
-0.06713855266571045,
0.10097390413284302,
0.19212408363819122,
0.05838509276509285,
0.006304908078163862,
-0.013204947113990784,
-0.09694524854421616,
-0.11671877652406693,
-0.12207676470279694,
0.04860762134194374,
0.09117088466882706,
0.10198796540498734,
0.08290524035692215,
-0.07229409366846085,
-0.04786604642868042,
0.14657846093177795,
-0.10631649196147919,
-0.06494942307472229,
0.13169032335281372,
0.029680844396352768,
0.07074861228466034,
-0.01828387752175331,
-0.015981875360012054,
-0.1531699299812317,
0.11678148806095123,
0.026213375851511955,
0.031070588156580925,
-0.0732334777712822,
0.018828503787517548,
0.05460312217473984,
0.06271898001432419,
-0.0498848594725132,
-0.0980641171336174,
-0.06573429703712463,
-0.14781567454338074,
-0.06269360333681107,
0.11125005036592484,
-0.013370306231081486,
-0.19615894556045532,
0.04614081606268883,
0.047239355742931366,
0.11209045350551605,
0.0754123106598854,
-0.08268473297357559,
0.10842594504356384,
-0.023946911096572876,
0.08539853990077972,
-0.23512987792491913,
-0.038881126791238785,
0.06787899881601334,
-0.09753189235925674,
0.07902878522872925,
0.1436099112033844,
0.005763393826782703,
-0.14614857733249664,
0.022056546062231064,
0.19595341384410858,
-0.1160518005490303,
0.10434801876544952,
-0.2057654857635498,
0.023673882707953453,
-0.17752069234848022,
0.024262890219688416,
0.1245834231376648,
-0.0719325989484787,
-0.11548608541488647,
0.10216102004051208,
0.08665816485881805,
0.007493422366678715,
-0.15900473296642303,
-0.049849387258291245,
-0.04547150805592537,
0.020603150129318237,
-0.05206797644495964,
-0.11922850459814072,
-0.14008629322052002,
-0.029014404863119125,
-0.23908840119838715,
0.10276713967323303,
0.017980458214879036,
0.10596119612455368,
-0.08887461572885513,
-0.09489938616752625,
0.013155569322407246,
-0.007502560503780842,
-0.04534674435853958,
0.018778717145323753,
-0.021843787282705307,
0.05353941023349762,
0.1082797721028328,
0.06526216119527817,
0.05100494250655174,
0.052606016397476196,
0.036627091467380524,
0.07395042479038239,
-0.11638867855072021,
-0.21744732558727264,
0.18657760322093964,
0.015965409576892853,
0.13660714030265808,
-0.20556987822055817,
-0.020814357325434685,
-0.15139831602573395,
0.18560069799423218,
-0.0034075609873980284,
0.024892771616578102,
0.05189233645796776,
-0.03726113215088844,
0.06674408167600632,
-0.07178083807229996,
0.08596709370613098,
0.1020730510354042,
0.08539413660764694,
-0.041988544166088104,
0.07711375504732132,
0.012794187292456627,
-0.16937188804149628,
0.10392234474420547,
0.0537138506770134,
0.008551488630473614,
0.04414531588554382,
-0.10009787231683731,
0.1461302787065506,
-0.09337793290615082,
0.12190058827400208,
0.07304983586072922,
0.05876048654317856,
0.10727988928556442,
-0.07999484241008759,
-0.13270778954029083,
0.005087757483124733,
0.014796033501625061,
0.1719031035900116,
-0.18646395206451416,
0.013461397029459476,
-0.11849558353424072,
-0.06327282637357712,
0.023116806522011757,
0.030988888815045357,
0.03428567200899124,
-0.04902397841215134,
0.06177923083305359,
0.060714900493621826,
-0.038390401750802994,
0.15027852356433868,
-0.05284915119409561,
0.02955065295100212,
0.19952495396137238,
0.00981767475605011,
0.14875641465187073,
-0.11605750024318695,
0.10735081136226654,
0.08162705600261688,
-0.005915106274187565,
-0.03989897668361664,
-0.061706118285655975,
-0.007032450288534164,
-0.08296646177768707,
-0.033209990710020065,
0.023580241948366165,
0.16628065705299377,
0.12475680559873581,
-0.1529749184846878,
-0.04230749234557152,
-0.05797406658530235,
0.07277374714612961,
0.0027851497288793325,
-0.10662172734737396,
0.014285482466220856,
0.004648249596357346,
0.06325919926166534,
-0.14944005012512207,
-0.003942952957004309,
-0.027153491973876953,
0.00960763730108738,
-0.013371499255299568,
0.04539157450199127,
-0.030840246006846428,
-0.1253371387720108,
0.08214949071407318,
-0.017225034534931183,
-0.07603377103805542,
0.015620574355125427,
-0.0860661193728447,
0.01035304181277752,
-0.00430976040661335,
0.0050626350566744804,
0.11546027660369873,
0.02011594921350479,
-0.11774199455976486,
0.06190064176917076,
0.009486694820225239,
0.0010155459167435765,
-0.07809757441282272,
-0.03008306957781315,
0.0712861642241478,
-0.006654260214418173,
0.007985745556652546,
0.06801927834749222,
-0.07197015732526779,
0.06362374871969223,
-0.10242719948291779,
-0.10981310904026031,
0.029808269813656807,
-0.049177318811416626,
0.07169036567211151,
-0.11381183564662933,
-0.11526193469762802,
-0.05803624913096428,
-0.02641943469643593,
0.11200647056102753,
0.03185335919260979,
-0.15243753790855408,
-0.06350964307785034,
-0.009597480297088623,
0.04146377742290497,
-0.038817863911390305,
0.08198864758014679,
0.013293174095451832,
-0.010540366172790527,
0.059117209166288376,
-0.038639135658741,
-0.15231506526470184,
-0.07149012386798859,
0.10254094749689102,
0.0025569074787199497,
0.08563067018985748,
-0.10980449616909027,
-0.010433496907353401,
0.0327962264418602,
-0.0226763803511858,
0.09234616160392761,
0.15872497856616974,
-0.12175270169973373,
-0.01596182957291603,
-0.00973112415522337,
-0.10230741649866104,
-0.015802254900336266,
0.009200507774949074,
-0.08860839903354645,
-0.01710653491318226,
0.04879876598715782,
0.06494715809822083,
-0.014911632053554058,
0.05129256844520569,
-0.013649677857756615,
0.032133739441633224,
0.030882054939866066,
-0.13909922540187836,
-0.10282022505998611,
0.09278284758329391,
0.007379584945738316,
0.06208423525094986,
0.005808098707348108,
-0.03918328136205673,
-0.050917722284793854,
-0.010751578025519848,
-0.009707956574857235,
0.05951077491044998,
-0.11364806443452835,
-0.007296156603842974,
-0.05057447776198387,
0.11198987811803818,
0.05896323546767235,
0.03964903950691223,
-0.005497611593455076,
0.04983478784561157,
0.13147401809692383,
0.024576084688305855,
-0.02970348298549652,
-0.030984053388237953,
0.05606503412127495,
0.0019949390552937984,
0.033817656338214874,
-0.12236395478248596,
-0.011494231410324574,
0.011769876815378666,
-0.012256559915840626,
-0.012781720608472824,
0.12795858085155487,
0.03233754262328148,
-0.1062091812491417,
0.036699578166007996,
-0.07583225518465042,
0.019661743193864822,
-0.09879346191883087,
0.011612502858042717,
-0.08675739914178848,
0.05526413768529892,
0.06371462345123291,
-0.009473678655922413,
-0.03660180792212486,
-0.12092842161655426,
-0.051700182259082794,
-0.10926958918571472,
0.0013152314350008965,
0.09418380260467529,
-0.06372055411338806,
0.08665496855974197,
-0.08086533099412918,
0.038195181638002396,
-0.09411051124334335,
-0.045553311705589294,
0.11105941981077194,
-0.09903781861066818,
-0.10490691661834717,
-0.019766852259635925,
-0.08480679988861084,
-0.10834997892379761,
-0.03137983754277229,
-0.0549590028822422,
0.06961574405431747,
-0.11025028675794601,
-0.03616802766919136,
-0.014720143750309944,
0.08635677397251129,
-0.03558526560664177,
-0.0827874019742012,
0.09325167536735535,
0.080556720495224,
-0.006989353336393833,
-0.026310168206691742,
0.10146909207105637,
0.03649885207414627,
0.09220437705516815,
-0.043400902301073074,
-0.042542144656181335,
-0.10180578380823135,
0.1373506486415863,
0.09299597889184952,
0.055814653635025024,
-0.07981192320585251,
-0.09597856551408768,
-0.01182439923286438,
0.1398990899324417,
0.12381040304899216,
-0.12342038005590439,
0.08342060446739197,
0.053510017693042755,
0.03019801899790764,
0.017050692811608315,
-0.07099264115095139,
-0.056249089539051056,
0.06098878011107445,
0.00089047517394647,
-0.11126234382390976,
0.058445435017347336,
-0.09528446197509766,
-0.07561944425106049,
-0.10048326104879379,
0.0038382618222385645,
0.194545179605484,
-0.022938672453165054,
0.06303834915161133,
-0.04156464338302612,
0.02401002310216427,
-0.041661337018013,
0.08180353045463562,
0.015474235638976097,
0.1109023243188858,
-0.05902682617306709,
0.20107366144657135,
-0.1085864007472992,
0.0709921196103096,
-0.011960075236856937,
0.05953244864940643,
-0.06067527458071709,
-0.030319148674607277,
-0.0682508572936058,
-0.07575548440217972,
-0.06268223375082016,
-0.21382905542850494,
-0.08565026521682739,
-0.10979767143726349,
0.005441989284008741,
0.08668960630893707,
0.06435568630695343,
0.0038224421441555023,
0.10041890293359756,
0.0010800990276038647,
0.014053904451429844,
-0.0031876941211521626,
-0.01583496667444706,
0.0934625118970871,
0.08740271627902985,
0.03478667512536049,
0.1323343813419342,
0.10016319155693054,
-0.08941630274057388,
0.15472500026226044,
-0.044064711779356,
0.12501269578933716,
0.014237330295145512,
-0.00607380410656333,
0.05303175002336502,
-0.01026433240622282,
0.06308440119028091,
0.0014024649281054735,
0.03931821882724762,
0.19745691120624542,
-0.1911650002002716,
-0.0640680342912674,
-0.06936236470937729,
0.033420924097299576,
-0.07077834755182266,
0.012569860555231571,
-0.011674811132252216,
-0.013259382918477058,
0.07275959104299545,
-0.06893443316221237,
-0.08589034527540207,
0.0797010138630867,
-0.22596076130867004,
0.04241424798965454,
0.1286369115114212,
0.07638130336999893,
0.008956716395914555,
-0.00865386426448822,
-0.09639964252710342,
-0.07291027158498764,
-0.02448190562427044,
-0.006534778047353029,
0.10937925428152084,
0.08135516941547394,
0.10601820051670074,
0.11919666081666946,
0.013025319203734398,
-0.06270676106214523,
0.0734454020857811,
0.0195479579269886,
-0.040568795055150986,
0.001262426725588739,
-0.06386590003967285,
-0.07236739993095398,
-0.008028334937989712,
-0.15974260866641998,
-0.06307271867990494,
0.05554422363638878,
0.03653060272336006,
0.04542218893766403,
-0.008945150300860405,
0.013463163748383522,
0.13712285459041595,
-0.08782678842544556,
0.0247656237334013,
0.04392002150416374,
0.1359410434961319,
0.03867124021053314,
-0.15848428010940552,
0.053462915122509,
0.02298050746321678,
-0.08470777422189713,
-0.12903761863708496,
0.17879323661327362,
0.0857105702161789,
0.2006952464580536,
0.07690463215112686,
-0.01793215423822403,
-0.022334512323141098,
0.07262121140956879,
-0.05088762193918228,
-0.08371712267398834,
-0.031615328043699265,
0.042734988033771515,
-0.06651873886585236,
-0.12527792155742645,
0.014878788962960243,
0.1316748559474945,
-0.08543284982442856,
0.05540108680725098,
0.020005466416478157,
0.031010951846837997,
0.0358072966337204,
-0.03543887659907341,
-0.030692147091031075,
0.07250501960515976,
0.0996951013803482,
0.023467199876904488,
0.012612896971404552,
0.05880828574299812,
-0.06036049500107765,
0.048567239195108414,
0.09264804422855377,
0.07631243765354156,
0.04988569766283035,
-0.021784458309412003,
-0.001601255964487791,
0.0023183783050626516,
-0.02195814996957779,
-0.021870296448469162,
0.032480139285326004,
-0.08208519965410233,
0.03510536625981331,
0.017209604382514954,
0.029152624309062958,
-0.0523499958217144,
-0.0049317278899252415,
-0.06395623832941055,
0.04406740888953209,
0.026813363656401634,
-0.03402750939130783,
-0.01734413392841816,
-0.08113434910774231,
0.08681640028953552,
-0.06141389161348343,
0.033400144428014755,
-0.08301253616809845,
0.020065903663635254,
-0.07267174869775772,
0.0743662416934967,
0.04011993855237961,
-0.08849813044071198,
-0.0649651288986206,
-0.023093555122613907,
0.05133741348981857,
0.00170591427013278,
0.041596073657274246,
-0.006396308075636625,
-0.06740949302911758,
-0.029352178797125816,
-0.025607343763113022,
0.04320647940039635,
0.005366821773350239,
0.06672357022762299,
-0.042298074811697006,
-0.058908287435770035,
0.0812174379825592,
-0.028893202543258667,
-0.01608429290354252,
0.05077725276350975,
0.014171335846185684,
0.01124593149870634,
-0.0761352926492691,
0.051402557641267776,
0.06790518015623093,
0.08262106776237488,
0.0510532408952713,
0.07041297107934952,
0.03770297393202782,
0.08282701671123505,
-0.062052566558122635,
0.08868224918842316,
-0.07461385428905487,
-0.05520808324217796,
0.008651377633213997,
0.007381838746368885,
0.0017264243215322495,
0.07495434582233429,
0.07652945816516876,
-0.06937903165817261,
0.08275748789310455,
0.07101812213659286,
0.06185625493526459,
-0.03253255784511566,
0.05678638815879822,
0.08077604323625565,
0.037620220333337784,
-0.0527392253279686,
-0.07830577343702316,
-0.044276848435401917,
0.049217890948057175,
-0.018602684140205383,
-0.06794103980064392,
-0.0834953635931015,
-0.042100198566913605,
-0.040218375623226166,
0.0699940174818039,
-0.050535060465335846,
-0.10953597724437714,
0.037825681269168854,
0.06636939197778702,
-0.06070844084024429,
-0.00029512590845115483,
0.0009689433500170708,
-0.0880945697426796,
-0.06807021051645279,
-0.046630050987005234,
-0.006180054508149624,
-0.060175612568855286,
-0.07980620115995407,
0.018068496137857437,
0.018456418067216873,
-0.06774435192346573,
-0.01828102022409439,
-0.0572761669754982,
-0.014160682447254658,
-0.06751426309347153,
0.08618086576461792,
-0.05222385749220848,
0.007087669335305691,
0.09318810701370239,
-0.03967907652258873,
0.028029948472976685,
0.06715872138738632,
0.010889236815273762,
-0.06470534950494766,
-0.02471773512661457,
-0.06285110861063004,
0.0503360740840435,
0.0675952360033989,
0.09727822244167328,
0.07482151687145233,
0.1597047597169876,
-0.0069782850332558155,
0.07643378525972366,
-0.15793593227863312,
-0.14077256619930267,
-0.05244412273168564,
-0.009639356285333633,
-0.085952527821064,
0.06533948332071304,
0.1108647808432579,
-0.012237649410963058,
0.09515964984893799,
-0.04474414512515068,
-0.018719611689448357,
0.009549876675009727,
-0.059640251100063324,
0.14297662675380707,
-0.03583675995469093,
0.0002981458092108369,
-0.08593428879976273,
-0.009334473870694637,
-0.12003333121538162,
-0.025040289387106895,
-0.1343103051185608,
0.11155267804861069,
-0.1636236310005188,
-0.02989731915295124,
-0.07086659222841263,
0.11847641319036484,
-0.0104539655148983,
-0.07050863653421402,
0.08855096995830536,
-0.0341007225215435,
-0.03440007567405701,
0.04735580459237099,
-0.07167327404022217,
0.07752951979637146,
0.025092901661992073,
0.15657417476177216,
0.011660072021186352,
0.08461913466453552,
0.07228713482618332,
0.08545680344104767,
0.11577793210744858,
-0.11268680542707443,
-0.05200007185339928,
-0.08907008171081543,
0.06999724358320236,
0.08314181864261627,
0.023007100448012352,
0.06798341870307922,
-0.10151218622922897,
-0.04951591417193413,
0.02345277927815914,
0.010742749087512493,
0.033206745982170105,
0.05724359303712845,
0.06321181356906891,
0.106957346200943,
-0.09309908747673035,
-0.06818372756242752,
0.04303934797644615,
0.12242485582828522,
-0.19659781455993652,
0.1252106875181198,
-0.06374071538448334,
0.1007206067442894,
0.036722391843795776,
-0.06461693346500397,
0.036045268177986145,
-0.057797808200120926,
0.06740253418684006,
-0.014789342880249023,
0.16700558364391327,
0.17577970027923584,
-0.03609069436788559,
-0.038238491863012314,
-0.021337401121854782,
-0.026868460699915886,
0.08415529131889343,
-0.10655248165130615,
0.1913226991891861,
-0.006308307871222496,
-0.03991752490401268,
-0.13309615850448608,
-0.07169870287179947,
0.2360222488641739,
-0.12611712515354156,
-0.04670864716172218,
-0.0019270033808425069,
0.0097622349858284,
-0.03768174722790718,
0.038411710411310196,
-0.041123464703559875,
-0.07412821799516678,
0.01887328177690506,
-0.10338237881660461,
0.10962759703397751,
0.08560014516115189,
-0.11657984554767609,
-0.10536062717437744,
0.11138921976089478,
-0.019049888476729393,
-0.0678514838218689,
0.08062466233968735,
-0.08087210357189178,
-0.009391401894390583,
0.04447988048195839,
0.060259539633989334,
0.09117354452610016,
-0.1556463986635208,
0.06803272664546967,
-0.13153471052646637,
-0.09281115233898163,
-0.07144436240196228,
-0.10013280063867569,
0.07712559401988983,
0.10547971725463867,
0.04280656576156616,
-0.07613951712846756,
0.003274796064943075,
-0.05198078975081444,
-0.02841094695031643,
0.0022573061287403107,
0.01777816191315651,
0.04929366335272789,
-0.01697559282183647,
-0.07950350642204285,
-0.07742006331682205,
0.13957437872886658,
-0.038621604442596436,
0.08175023645162582,
-0.06272295117378235,
-0.01330478023737669,
-0.04399597644805908,
0.013974830508232117,
-0.09507425129413605,
0.054322149604558945,
0.07519004493951797,
-0.07899772375822067,
0.014683758839964867,
-0.08317431062459946,
-0.11440175771713257,
0.04980800673365593,
-0.030007993802428246,
0.005568551830947399,
-0.005049319006502628,
0.06376571208238602,
-0.025640400126576424,
-0.12710097432136536,
0.011593305505812168,
0.10458405315876007,
0.027274874970316887,
0.037667132914066315,
-0.062240757048130035,
-0.07684434950351715,
0.15306821465492249,
-0.12431776523590088,
0.06047379970550537,
0.0038235988467931747,
-0.1266666054725647,
-0.014351489022374153,
-0.0473887100815773,
0.021602002903819084,
-0.10821142792701721,
0.08560141921043396,
-0.08353223651647568,
-0.023787865415215492,
0.07240526378154755,
0.046014830470085144,
0.0897958055138588,
-0.07509613037109375,
-0.040041517466306686,
-0.009620298631489277,
0.09210240840911865,
0.10528520494699478,
-0.017541592940688133,
0.05612090975046158,
0.08754494786262512,
0.06844634562730789,
-0.04019985720515251,
0.034452173858881,
-0.03560971841216087,
-0.09283984452486038,
-0.002385153202340007,
-0.042876675724983215,
-0.006279091816395521,
0.060367412865161896,
0.025611521676182747,
0.03884240612387657,
0.06608068943023682,
0.012372971512377262,
0.06800167262554169,
0.08778200298547745,
-0.058909397572278976,
0.030364906415343285,
-0.08303000777959824,
0.04225776717066765,
-0.08737999200820923,
0.011337111704051495,
0.04191166162490845,
0.02540724352002144,
-0.06926844269037247,
-0.04078957065939903,
-0.10714371502399445,
-0.012063806876540184,
0.13343313336372375,
0.01912851072847843,
-0.00987914763391018,
0.01621544361114502,
0.07668885588645935,
-0.04022993892431259,
-0.0071886763907969,
-0.08664001524448395,
0.030696846544742584,
0.019127698615193367,
-0.042407624423503876,
-0.0008786675753071904,
-0.004484700039029121,
-0.05847515910863876,
-0.05320983752608299,
0.07116023451089859,
-0.06876339018344879,
0.10180255770683289,
0.12677708268165588,
-0.08792893588542938,
-0.013534977100789547,
0.10112404078245163,
0.0007616146467626095,
-0.03333524242043495,
0.10893146693706512,
-0.07530522346496582,
-0.06727096438407898,
0.058317918330430984,
-0.030291087925434113,
0.004655525088310242,
0.08119532465934753,
0.04644010588526726,
-0.08677450567483902,
-0.05555689334869385,
-0.12400159239768982,
0.06690042465925217,
0.040241606533527374,
-0.04869300499558449,
0.01612372323870659,
-0.10425195842981339,
0.04225341975688934,
-0.06090160459280014,
-0.11201779544353485,
0.036556847393512726,
-0.11505962163209915,
0.13159026205539703,
0.08415310829877853,
0.0009121060138568282,
0.03177748620510101,
-0.06925229728221893,
0.0574856735765934,
-0.06511639058589935,
0.09913267195224762,
0.015308549627661705,
-0.06630972027778625,
0.002100009936839342,
-0.028401026502251625,
-0.049272920936346054,
0.031105002388358116,
-0.09601300954818726,
0.06389196217060089,
-0.0817880779504776,
0.11607634276151657,
-0.11960136890411377,
0.018783265724778175,
0.016599297523498535,
-0.0007482343353331089,
-0.0318906307220459,
-0.1313304603099823,
0.07521723210811615,
0.11538110673427582,
0.034846968948841095,
0.10470134019851685,
0.053341444581747055,
-0.0801599994301796,
-0.011604642495512962,
0.02528231032192707,
-0.07393280416727066,
-0.05503290891647339,
-0.08431116491556168,
0.030670782551169395,
0.08807617425918579,
-0.048503607511520386,
0.08241105824708939,
-0.017816463485360146,
-0.055809129029512405,
0.11723143607378006,
0.08290215581655502,
0.10790904611349106,
0.1258239448070526,
0.023847157135605812,
-0.0423453226685524,
-0.029777485877275467,
0.03958023339509964,
0.021961774677038193,
-0.06214680150151253,
-0.045780979096889496,
-0.026176990941166878,
-0.04745957627892494,
-0.008970825932919979,
-0.06893779337406158,
0.041454415768384933,
0.01400737464427948,
-0.05186621844768524,
-0.03953927755355835,
-0.0270066037774086,
-0.0018201838247478008,
-0.011267411522567272,
0.03619842231273651,
0.07189038395881653,
-0.001800053403712809,
-0.1058325320482254,
0.17317959666252136,
-0.036373309791088104,
-0.05823865160346031,
0.023661483079195023,
0.06031903252005577,
-0.05060037970542908,
0.018059762194752693,
-0.048315681517124176,
0.13538941740989685,
-0.06182809919118881,
-0.07480689138174057,
-0.02359149605035782,
0.14288082718849182,
-0.11483613401651382,
0.09870550781488419,
0.002122686244547367,
0.10135388374328613,
-0.17453418672084808,
-0.011665329337120056,
0.005981967784464359,
-0.113811194896698,
-0.0028768230695277452,
0.048985932022333145,
-0.10420269519090652,
0.060312420129776,
-0.05780317634344101,
0.031584665179252625,
-0.008799590170383453,
-0.0024079177528619766,
0.0017986713210120797,
-0.036954738199710846,
-0.022418713197112083,
0.02327309362590313,
0.0709342211484909,
-0.05590316280722618,
-0.05771740525960922,
0.12999707460403442,
-0.05688656494021416,
-0.08405414968729019,
0.10626132786273956,
0.062345005571842194,
0.1294030398130417,
-0.023956790566444397,
0.020244039595127106,
0.012317231856286526,
0.10258486866950989,
0.08089400827884674,
-0.053883083164691925,
-0.03511735424399376,
-0.05307453125715256,
0.011124837212264538,
0.022400863468647003,
-0.0603298656642437,
-0.05395716428756714,
-0.09196280688047409,
-0.047536469995975494,
0.06974663585424423,
-0.025429027155041695,
0.06818646192550659,
-0.00642020208761096,
0.03720314800739288,
-0.009031723253428936,
0.029902445152401924,
-0.03515581414103508,
-0.017952263355255127,
-0.089535653591156,
0.06012474745512009,
0.0963067039847374,
0.05948600918054581,
0.10020828247070312,
0.04652462527155876,
-0.046995263546705246,
-0.030068786814808846,
-0.08534969389438629,
-0.09258328378200531,
0.09068380296230316,
-0.04284992069005966,
-0.04414558783173561,
-0.015591832809150219,
0.056494876742362976,
-0.08918069303035736,
0.025637945160269737,
0.005777636542916298,
-0.08375134319067001,
-0.0519709475338459,
-0.06640225648880005,
-0.024264302104711533,
0.11942210048437119,
-0.0032707976642996073,
0.04514326527714729,
0.03759458661079407,
-0.09643733501434326,
0.05580891668796539,
0.05160406976938248,
0.11046797037124634,
-0.0035945200361311436,
-0.0052437675185501575,
-0.0191386416554451,
-0.07281535863876343,
-0.024644896388053894,
-0.08767019212245941,
0.02694595791399479,
-0.0011238731676712632,
0.10056537389755249,
0.007960180751979351,
0.11628186702728271,
0.07915717363357544,
0.09048118442296982,
-0.029085231944918633,
-0.08556290715932846,
0.039460256695747375,
-0.07995431125164032,
0.03386405110359192,
0.01598994992673397,
0.046871669590473175,
0.04759956896305084,
0.09996131807565689,
0.08618639409542084,
-0.13542941212654114,
0.04285578429698944,
-0.03175235539674759,
0.012510531581938267,
-0.02574237622320652,
-0.03623511269688606,
-0.041724830865859985,
-0.06442123651504517,
0.02051437273621559,
-0.0256941057741642,
-0.1264081746339798,
0.024088650941848755,
0.07520153373479843,
-0.061401039361953735,
-0.08133210241794586,
0.10229575634002686,
0.06310848146677017,
-0.06701620668172836,
0.019470755010843277,
0.028366167098283768,
0.055814243853092194,
-0.0820026844739914,
0.02141999453306198,
0.08916735649108887,
-0.06750020384788513,
-0.016516776755452156,
0.0016066376119852066,
0.04722458869218826,
-0.05984928458929062,
0.14551900327205658,
0.04149329662322998,
-0.04275289922952652,
-0.010903319343924522,
0.0026783891953527927,
0.053064003586769104,
-0.03299930691719055,
0.033825427293777466,
0.07757557928562164,
-0.03557140752673149,
-0.06452005356550217,
-0.0491277277469635,
-0.020967958495020866,
0.11824049800634384,
0.012777959927916527,
-0.009731660597026348,
0.019221393391489983,
-0.037036288529634476,
-0.11418388038873672,
-0.09440184384584427,
0.024434786289930344,
0.005576365161687136,
0.04300985485315323,
-0.021964769810438156,
0.09257913380861282,
0.07985176891088486,
-0.017734531313180923,
-0.01246314961463213,
0.02221357822418213,
-0.04299336299300194,
-0.1092078685760498,
0.06767618656158447,
-0.07198002934455872,
-0.03286885470151901,
0.08473169058561325,
-0.11815814673900604,
-0.09611720591783524,
0.012003783136606216,
-0.030633671209216118,
-0.00043083017226308584,
0.09276771545410156,
0.07468130439519882,
0.012174226343631744,
-0.05006631091237068,
0.04395972937345505,
-0.07876303791999817,
-0.008208063431084156,
0.011420141905546188,
-0.06103559955954552,
-0.03231502324342728,
0.02304343320429325,
-0.07721735537052155,
-0.05443338677287102,
0.1299399435520172,
-0.028521031141281128,
0.07882225513458252,
0.010613332502543926,
0.03611214831471443,
0.018588420003652573,
0.06199399009346962,
0.005040784832090139,
-0.0616627112030983,
0.06806837022304535,
-0.008547255769371986,
0.04751182720065117,
0.10717453062534332,
-0.009511450305581093,
-0.07797785848379135,
0.06749581545591354,
-0.05518164113163948,
-0.02102738618850708,
0.023144494742155075,
-0.0018877809634432197,
0.029704218730330467,
0.08058948814868927,
-0.06752980500459671,
0.015012642368674278,
-0.07139633595943451,
-0.07073286920785904,
0.04150363430380821,
0.11905073374509811,
0.06257160753011703,
-0.03432980552315712,
0.06831588596105576,
-0.05640660971403122,
-0.08664528280496597,
-0.029139794409275055,
0.046541307121515274,
0.13053137063980103,
0.10775946825742722,
-0.025589412078261375,
-0.09506258368492126,
0.056727319955825806,
0.04881025478243828,
0.08170763403177261,
-0.007037278730422258,
0.04658579081296921,
-0.11711909621953964,
0.09772668033838272,
-0.03635105490684509,
-0.07303930073976517,
0.06733233481645584,
-0.08727732300758362,
0.06951692700386047,
0.08565377444028854,
-0.0653633251786232,
-0.0024912862572818995,
0.0257682204246521,
0.09266085922718048,
-0.001578472787514329,
0.03640137240290642,
-0.05546911805868149,
0.11577126383781433,
-0.04401395842432976,
-0.08780786395072937,
-0.07870876789093018,
0.06365099549293518,
0.08917704224586487,
0.11935373395681381,
-0.045435551553964615,
-0.10956544429063797,
0.0445171482861042,
-0.013560248538851738,
-0.005209327209740877,
-0.015897514298558235,
0.01978367194533348,
-0.058777958154678345,
-0.03930430859327316,
-0.08359260112047195,
-0.03676595538854599,
-0.06962141394615173,
0.026176661252975464,
0.03955226019024849,
0.02680925652384758,
0.09563847631216049,
-0.0680440291762352,
0.123868927359581,
0.0453127883374691,
0.11197548359632492,
-0.0037873913533985615,
0.09812605381011963,
-0.09024173766374588,
0.11144887655973434,
-0.0335259884595871,
0.006956311408430338,
-0.12166020274162292,
-0.09267058223485947,
-0.0995326042175293,
-0.05688326433300972,
0.03971796855330467,
-0.012231708504259586,
-0.14500397443771362,
-0.016276802867650986,
-0.010667046532034874,
-0.031526513397693634,
0.0046088616363704205,
-0.00966979656368494,
-0.055867619812488556,
-0.07825314998626709,
-0.03131565824151039,
-0.08593528717756271,
-0.031678833067417145,
0.1452959179878235,
-0.07203181087970734,
0.025669163092970848,
0.023520344868302345,
0.01619364321231842,
-0.0698750838637352,
-0.048276688903570175,
-0.1024874895811081,
-0.03996160998940468,
0.057514842599630356,
0.04046662896871567,
-0.09191076457500458,
0.13184399902820587,
-0.08888886123895645,
-0.06601510941982269,
-0.026838036254048347,
0.016083896160125732,
0.024014420807361603,
0.011414404958486557,
0.07050595432519913,
0.0975867435336113,
-0.04894881695508957,
-0.06368471682071686,
-0.0767349973320961,
0.03704867139458656,
-0.0585986003279686,
0.05615092068910599,
-0.10319048166275024,
0.025456799194216728,
-0.008615562692284584,
0.21578267216682434,
-0.09393435716629028,
-0.014890292659401894,
0.12941990792751312,
-0.03323070704936981,
0.08654283732175827,
0.15734785795211792,
0.09964016079902649,
-0.010893639177083969,
0.06364893168210983,
0.04673156514763832,
0.014176483266055584,
0.07397015392780304,
0.11010708659887314,
-0.07563156634569168,
0.04470328986644745,
0.0005972838844172657,
-0.05190090835094452,
0.023815255612134933,
-0.11894343793392181,
0.10746052116155624,
-0.024386195465922356,
0.062144115567207336,
-0.11317524313926697,
-0.010839613154530525,
-0.027633188292384148,
0.08085689693689346,
0.09212473779916763,
0.06213226169347763,
-0.005167074967175722,
-0.04433738440275192,
-0.08262462168931961,
0.08794309198856354,
-0.08319447189569473,
-0.045497775077819824,
0.02286495640873909,
-0.03724399209022522,
-0.07046687602996826,
-0.12423456460237503,
0.05418311804533005,
0.00027408532332628965,
-0.013641759753227234,
-0.07241377979516983,
-0.030496660619974136,
0.009099947288632393,
-0.09803401678800583,
0.17043957114219666,
0.026377640664577484,
-0.0254170224070549,
-0.06449989229440689,
0.024304969236254692,
-0.05674266815185547,
-0.18775823712348938,
0.059201180934906006,
0.12451392412185669,
-0.007982196286320686,
0.029238933697342873,
0.12104643136262894,
-0.08802612125873566,
0.043848734349012375,
0.11291759461164474,
0.04393293336033821,
-0.003960421308875084,
-0.01271845493465662,
-0.10597549378871918,
-0.19528277218341827,
0.14520984888076782,
-0.020540719851851463,
-0.016762465238571167,
0.008132957853376865,
0.17879830300807953,
-0.0584024041891098,
-0.012593411840498447,
-0.08307784050703049,
-0.05332672968506813,
-0.00015376698866020888,
0.07028086483478546,
0.11638356745243073,
-0.011297322809696198,
-0.1051742359995842,
0.11634916067123413,
-0.011743604205548763,
-0.05677003413438797,
-0.16186390817165375,
0.04948902502655983,
0.14256392419338226,
0.06309368461370468,
-0.058255262672901154,
0.023510437458753586,
0.09138379245996475,
0.00714087625965476,
-0.058973439037799835,
0.07243690639734268,
0.0695314034819603,
-0.031187234446406364,
-0.11335545033216476,
-0.07912205904722214,
-0.02809126302599907,
-0.09376823157072067,
-0.011806251481175423,
0.07213844358921051,
0.06747976690530777,
0.055398620665073395,
0.03182787448167801,
-0.07821856439113617,
0.023462479934096336,
0.05671055614948273,
0.0809185728430748,
-0.03965398296713829,
-0.01137740258127451,
-0.010833607986569405,
0.07596015185117722,
0.18314756453037262,
0.06477928161621094,
0.05956501141190529,
0.040904030203819275,
-0.012674315832555294,
0.07510578632354736,
-0.09878957271575928,
0.041131239384412766,
0.07313407957553864,
0.0665886402130127,
0.1144668385386467,
0.0011218002764508128,
0.05411833897233009,
-0.13469372689723969,
0.10741700977087021,
0.12667560577392578,
-0.07636894285678864,
0.0901363343000412,
0.0027937761042267084,
0.09055229276418686,
0.06769340485334396,
0.0323619581758976,
-0.05763206630945206,
0.156656414270401,
0.12048744410276413,
-0.02626129426062107,
0.015205946750938892,
-0.05681880563497543,
0.0678713396191597,
0.12130848318338394,
-0.016906319186091423,
-0.11194182932376862,
-0.11370474845170975,
-0.10466361790895462,
-0.021631203591823578,
0.06850076466798782,
0.1470942199230194,
0.010095538571476936,
-0.011765657924115658,
-0.020030302926898003,
0.009355193935334682,
-0.02567981742322445,
-0.07187727093696594,
0.04434145614504814,
-0.024841299280524254,
-0.005873404443264008,
0.0455692782998085,
0.020322304219007492,
0.029874838888645172,
-0.04711080715060234,
0.10072001814842224,
-0.05275634676218033,
-0.09578993916511536,
0.10058773308992386,
0.07397492229938507,
-0.08595385402441025,
0.037173785269260406,
-0.030391301959753036,
-0.08120124787092209,
0.005843468476086855,
0.027321459725499153,
-0.052007026970386505,
0.028615064918994904,
-0.015010994859039783,
-0.08774006366729736,
-0.04631713777780533,
0.09468191117048264,
-0.056004781275987625,
-0.11922198534011841,
-0.05771525576710701,
0.061778485774993896,
0.05363935977220535,
0.06788013875484467,
0.043693386018276215,
-0.024205723777413368,
-0.029324593022465706,
-0.000958168413490057,
-0.024761058390140533,
0.01156445499509573,
-0.06458427011966705,
-0.040620993822813034,
0.03411554917693138,
-0.07681205123662949,
0.01201192382723093,
-0.0721549391746521,
0.030728399753570557,
0.023812483996152878,
-0.0647200345993042,
-0.020265066996216774,
0.028597857803106308,
-0.008380145765841007,
-0.011583666317164898,
-0.061290282756090164,
-0.08365675061941147,
0.06497778743505478,
-0.057112984359264374,
-0.03890194743871689,
-0.07936333864927292,
0.022576013579964638,
-0.026337262243032455,
0.007824081927537918,
-0.051810916513204575,
0.04355484992265701,
-0.0869491845369339,
-0.07955174148082733,
0.06179007142782211,
-0.01068132184445858,
-0.05422794818878174,
0.017091849818825722,
-0.02324107475578785,
0.0358143150806427,
0.10440842062234879,
-0.050429992377758026,
-0.06390141695737839,
0.05404824763536453,
0.06722615659236908,
0.05158307030797005,
0.0555909126996994,
0.08099334686994553,
0.02604854479432106,
-0.06066398322582245,
0.017671531066298485,
-0.0822092741727829,
0.07484602183103561,
-0.04085253179073334,
0.08398249000310898,
-0.07743813842535019,
-0.02749730832874775,
-0.07541490346193314,
-0.06147417426109314,
0.09567665308713913,
0.07298949360847473,
0.05440910533070564,
-0.02892475575208664,
-0.07596974819898605,
0.050296422094106674,
-0.10369804501533508,
-0.07699848711490631,
-0.038594093173742294,
0.06935989856719971,
0.0465063750743866,
-0.00748488400131464,
0.017408890649676323,
0.05215867981314659,
-0.09056395292282104,
-0.03816341608762741,
-0.049235034734010696,
0.11084187775850296,
0.025228992104530334,
0.01693335920572281,
-0.09166868031024933,
0.05149310827255249,
-0.0795540139079094,
0.03076501376926899,
0.017943140119314194,
-0.044746000319719315,
-0.006273698527365923,
-0.0778861716389656,
-0.05635827034711838,
-0.06908908486366272,
0.03525247424840927,
-0.048756279051303864,
0.05736176669597626,
-0.05702045187354088,
0.0017726985970512033,
-0.005771770142018795,
0.08824136108160019,
-0.07224595546722412,
0.04676662012934685,
0.035924170166254044,
-0.01623949594795704,
0.02931961975991726,
-0.07305438071489334,
0.09312082082033157,
-0.0897863581776619,
-0.007285399828106165,
0.040863681584596634,
-0.04962776601314545,
-0.012062045745551586,
0.04668102413415909,
0.03230023756623268,
-0.07057712227106094,
-0.09277033805847168,
0.008201653137803078,
0.0865703746676445,
0.020191019400954247,
-0.046273283660411835,
0.05762322619557381,
-0.07544074207544327,
-0.058239877223968506,
-0.03809765353798866,
-0.10893301665782928,
0.03897111490368843,
-0.034016747027635574,
-0.05951745808124542,
0.04500170797109604,
-0.009064817801117897,
0.13724660873413086,
0.013858242891728878,
0.0216840747743845,
-0.06751304119825363,
-0.03370216488838196,
0.010157778859138489,
-0.03605276718735695,
0.10665162652730942,
-0.027500705793499947,
-0.08968541026115417,
-0.014239653944969177,
-0.025785543024539948,
-0.06658998876810074,
0.011999007314443588,
0.09370701014995575,
-0.061142243444919586,
0.0774858370423317,
-0.035839539021253586,
0.06834782660007477,
0.04061614349484444,
-0.06567554920911789,
-0.1266452521085739,
0.10603899508714676,
-0.07507550716400146,
-0.036826979368925095,
0.1274048238992691,
0.09224852174520493,
0.017404548823833466,
0.08074130862951279,
0.09159460663795471,
0.16076292097568512,
-0.04359873756766319,
0.046140361577272415,
-0.13618454337120056,
0.09568129479885101,
-0.006573466584086418,
-0.008168989792466164,
0.051789749413728714,
-0.10168685764074326,
0.09271260350942612,
0.01845305599272251,
0.05156855285167694,
0.01674553006887436,
-0.05445568636059761,
-0.06566567718982697,
-0.07333451509475708,
-0.023082595318555832,
-0.06386035680770874,
-0.05547747388482094,
0.09815914928913116,
0.21696589887142181,
-0.048129476606845856,
-0.050486914813518524,
0.14384344220161438,
-0.017669321969151497,
-0.07394541054964066,
0.041556231677532196,
-0.05309056490659714,
0.060749366879463196,
0.026146486401557922,
0.06427108496427536,
0.10954811424016953,
-0.03516359627246857,
-0.08402304351329803,
0.04096173122525215,
0.1837860643863678,
0.027707725763320923,
0.0432407446205616,
0.16634856164455414,
-0.09734737128019333,
0.02559995837509632,
0.08633877336978912,
-0.05397254601120949,
0.017167774960398674,
-0.06613489240407944,
-0.0677378922700882,
-0.10171514004468918,
-0.16902805864810944,
-0.07311803102493286,
-0.053288813680410385,
0.06002558022737503,
0.03530024364590645,
-0.11258101463317871,
0.0038983800914138556,
-0.07342695444822311,
0.1016397550702095,
-0.11390597373247147,
-0.10849015414714813,
0.1484038531780243,
-0.014482123777270317,
-0.07572443038225174,
-0.12222050130367279,
0.19821341335773468,
-0.006555289030075073,
0.11216996610164642,
0.0718277245759964,
0.07999514788389206,
-0.0664893314242363,
-0.041010309010744095,
-0.11267055571079254,
-0.056908804923295975,
0.12413942068815231,
0.07392791658639908,
-0.06088057532906532,
-0.05309365689754486,
-0.14363384246826172,
0.05568772554397583,
-0.0849260613322258,
0.13198700547218323,
-0.06827733665704727,
-0.07826777547597885,
-0.056018613278865814,
0.07842112332582474,
0.011302218772470951,
-0.029538819566369057,
-0.12278047949075699,
-0.15181578695774078,
0.01938556134700775,
0.026185723021626472,
-0.09528626501560211,
-0.018978530541062355,
0.25420066714286804,
0.02655201591551304,
-0.016327328979969025,
0.09865862131118774,
0.14222687482833862,
0.04134296625852585,
0.057595402002334595,
0.02525196596980095,
-0.09414760768413544,
0.06827228516340256,
-0.10617761313915253,
-0.051302459090948105,
-0.09165122359991074,
-0.07499329745769501,
0.016997205093503,
-0.07661328464746475,
0.01441042311489582,
-0.13338512182235718,
-0.08337164670228958,
-0.07408888638019562,
-0.2798751890659332,
0.09190397709608078,
-0.11800792068243027,
-0.11488872766494751,
-0.049370791763067245,
-0.06648162752389908,
-0.04553079977631569,
0.04358641058206558,
0.06245102360844612,
0.08115878701210022,
0.07742799073457718,
0.1233958750963211,
0.018869787454605103,
0.004248567391186953,
0.0444980189204216,
0.037640299648046494,
0.03626558184623718,
-0.08881397545337677,
-0.11994226276874542,
0.0441911406815052,
0.007587776985019445,
0.015938494354486465,
0.11186294257640839,
0.18023359775543213,
0.09523872286081314,
0.006775935646146536,
-0.054199058562517166,
0.0030711123254150152,
0.005374683067202568,
0.12076760828495026,
-0.16163185238838196,
0.0853031799197197,
-0.03868844360113144,
-0.01002398319542408,
0.10787633061408997,
0.004140475299209356,
0.015157562680542469,
-0.0841977521777153,
0.028407955542206764,
0.06695050746202469,
-0.20318983495235443,
0.14031662046909332,
0.015697011724114418,
0.07500122487545013,
-0.015743054449558258,
0.15052196383476257,
0.019048398360610008,
0.12035927176475525,
-0.103236623108387,
0.10196984559297562,
-0.01562521792948246,
0.18307480216026306,
-0.011080896481871605,
0.03178998827934265,
-0.11147202551364899,
-0.10558868944644928,
-0.14213110506534576,
-0.047800563275814056,
0.026524817571043968,
0.025430288165807724,
0.028790779411792755,
0.04743501916527748,
0.08661329001188278,
0.15393467247486115,
0.04385571554303169,
-0.07336712628602982,
-0.16675381362438202,
0.07129712402820587,
-0.008869404904544353,
-0.05380403995513916,
-0.20923545956611633,
0.020686132833361626,
0.05749302729964256,
0.0172754917293787,
-0.009957317262887955,
0.00590478302910924,
0.06169708073139191,
-0.1852113902568817,
0.015118004754185677,
-0.06366586685180664,
0.09356076270341873,
-0.05457218363881111,
0.09399350732564926,
0.043813157826662064,
0.06144239753484726,
0.015264343470335007,
-0.02727113850414753,
0.046980760991573334,
0.055516354739665985,
-0.084954172372818,
-0.0332900695502758,
-0.016473092138767242,
0.041911762207746506,
-0.03906312212347984,
-0.08298203349113464,
-0.0954197347164154,
0.08406130969524384,
0.002342784311622381,
0.01719566248357296,
-0.02842782251536846,
0.06954176723957062,
0.009529834613204002,
0.086680106818676,
-0.09073904901742935,
-0.013883107341825962,
-0.0876377522945404,
0.029026994481682777,
0.030117856338620186,
-0.07615133374929428,
-0.015919679775834084,
-0.0005350984865799546,
0.05604229122400284,
0.03545301780104637,
-0.026929067447781563,
-0.05149919167160988,
0.028778163716197014,
-0.06643614172935486,
0.06564977020025253,
-0.02658982202410698,
0.05511556565761566,
-0.0023913574405014515,
-0.019097376614809036,
0.0037532425485551357,
0.0013960879296064377,
-0.034946974366903305,
0.06826493889093399,
-0.027586793527007103,
0.005020813085138798,
-0.054292917251586914,
0.062322087585926056,
-0.03502354770898819,
-0.05115687847137451,
-0.012034915387630463,
-0.02004024013876915,
0.05525589734315872,
-0.025056926533579826,
0.028345907106995583,
0.09523019194602966,
-0.028337951749563217,
0.07817345857620239,
-0.034367479383945465,
0.05406779795885086,
0.020109355449676514,
-0.0852748453617096,
0.04533502459526062,
-0.00902977492660284,
0.01684156060218811,
-0.0018626443343237042,
-0.05525623634457588,
0.04326247796416283,
0.08008614927530289,
-0.001432865159586072,
0.02731492929160595,
0.08731278032064438,
-0.02587265521287918,
-0.0365951843559742,
-0.0450625941157341,
-0.06970014423131943,
0.07567571848630905,
0.09275823086500168,
-0.00043032236862927675,
0.0158071368932724,
-0.08808302134275436,
0.05307240039110184,
0.0482768714427948,
0.038415007293224335,
0.03903396427631378,
