-0.05446692928671837,
-0.07552257180213928,
-0.501328706741333,
-0.0253286249935627,
0.2585618495941162,
-0.03586062788963318,
0.008746429346501827,
0.0482613779604435,
0.072930246591568,
0.06402463465929031,
0.21588607132434845,
0.07714883238077164,
-0.185934379696846,
-0.14828963577747345,
-0.12404193729162216,
-0.08220285922288895,
-0.023659981787204742,
-0.11038777977228165,
-0.048116691410541534,
0.2528586983680725,
-0.03733508288860321,
-0.12720650434494019,
0.020425494760274887,
0.10331461578607559,
0.11807680875062943,
-0.06089074909687042,
-0.05035628378391266,
-0.20450863242149353,
0.012394714169204235,
-0.12158893793821335,
-0.015003127977252007,
-0.16907629370689392,
-0.2806350290775299,
-0.016458841040730476,
-0.12849818170070648,
-0.2535165250301361,
0.07112705707550049,
0.04628213122487068,
-0.07722485065460205,
-0.07335440814495087,
-0.2802217900753021,
0.14979246258735657,
-0.1781899780035019,
-0.09356003254652023,
0.0880521833896637,
-0.015434930101037025,
-0.01854868233203888,
-0.10900575667619705,
-0.16225825250148773,
-0.0931815579533577,
-0.17906051874160767,
0.07020344585180283,
0.09806010127067566,
0.15179453790187836,
0.20010457932949066,
-0.1889936476945877,
-0.008995147421956062,
0.04958067461848259,
-0.027502762153744698,
-0.1343696415424347,
0.001974185463041067,
0.002488364465534687,
0.041388146579265594,
0.16879281401634216,
0.025141384452581406,
0.1816239207983017,
-0.0705014169216156,
0.4406513571739197,
0.0401264987885952,
0.40361499786376953,
-0.1292402595281601,
0.14430133998394012,
0.048861876130104065,
0.2249090075492859,
0.10328711569309235,
-0.04073319956660271,
-0.06773495674133301,
0.08629436045885086,
0.1474573314189911,
-0.09743588417768478,
0.11384636908769608,
0.39708614349365234,
0.31977933645248413,
0.11279234290122986,
0.21369095146656036,
-0.05588722601532936,
-0.03282564878463745,
-0.08718281984329224,
-0.16450543701648712,
0.02453054115176201,
-0.10053730756044388,
-0.08991621434688568,
0.0772053524851799,
-0.0023818693589419127,
0.15853343904018402,
-0.07348813861608505,
-0.07941805571317673,
0.2821258306503296,
0.31667014956474304,
-0.23504140973091125,
0.29594388604164124,
0.0693935677409172,
-0.08702310919761658,
-0.0913686528801918,
0.029110804200172424,
0.02348739467561245,
0.00655005406588316,
0.07516899704933167,
0.10589637607336044,
-0.1031271293759346,
-0.3274035155773163,
-0.019237037748098373,
-0.19387124478816986,
-0.058252155780792236,
-0.2754461169242859,
0.26415643095970154,
0.16079802811145782,
-0.03384324535727501,
-0.22468233108520508,
-0.10588452219963074,
0.11995042860507965,
-0.003648710437119007,
0.2399415522813797,
0.33580583333969116,
0.112337127327919,
-0.0189456045627594,
0.20609831809997559,
0.250094473361969,
-0.12978573143482208,
0.19025513529777527,
-0.3302105665206909,
0.1662440001964569,
-0.050683360546827316,
-0.14774595201015472,
-0.12522847950458527,
-0.32769402861595154,
-0.067652627825737,
0.11077149957418442,
-0.11084728688001633,
-0.08493643999099731,
0.1960141807794571,
0.26120418310165405,
0.10261761397123337,
0.11986313760280609,
-0.17582613229751587,
0.1519422084093094,
-0.0029540325049310923,
-0.044268105179071426,
-0.12055385112762451,
-0.15866269171237946,
0.04253721609711647,
-0.131389319896698,
0.018324226140975952,
0.018311524763703346,
-0.045643940567970276,
0.002032768912613392,
0.06613931804895401,
0.004650741349905729,
-0.2797909677028656,
-0.044499751180410385,
-0.19346226751804352,
0.03461088985204697,
-0.30989912152290344,
0.1117437332868576,
0.24646474421024323,
0.13074544072151184,
0.07741231471300125,
-0.09028676152229309,
-0.18512862920761108,
0.05224616080522537,
0.13668328523635864,
0.15709027647972107,
0.2509172558784485,
0.03542980179190636,
0.08841685205698013,
-0.0024567171931266785,
0.043570149689912796,
0.024541892111301422,
-0.2766604423522949,
0.08196160942316055,
0.23350197076797485,
0.28184136748313904,
0.1860620528459549,
-0.25709712505340576,
-0.24390096962451935,
0.30290964245796204,
-0.015627853572368622,
-0.09283247590065002,
0.07887335866689682,
-0.19439028203487396,
-0.14777803421020508,
-0.10858355462551117,
-0.24663104116916656,
-0.013721125200390816,
0.38348740339279175,
0.17926116287708282,
0.23865029215812683,
0.08994009345769882,
0.12935850024223328,
0.08295516669750214,
-0.13714870810508728,
-0.09390321373939514,
0.31214234232902527,
-0.1977844536304474,
0.039215315133333206,
-0.0729379802942276,
-0.026423819363117218,
0.015302471816539764,
-0.25398460030555725,
-0.06108914688229561,
-0.20016391575336456,
-0.16648611426353455,
0.16646091639995575,
0.08104094862937927,
-0.0402342714369297,
-0.18900714814662933,
0.2110598087310791,
0.1515718549489975,
0.1323404312133789,
0.02059767208993435,
0.029323110356926918,
0.017733804881572723,
0.07717297226190567,
-0.33470186591148376,
0.23426023125648499,
0.0037341369315981865,
-0.08692066371440887,
0.26220107078552246,
-0.31365448236465454,
0.10429437458515167,
-0.09191906452178955,
-0.1382121443748474,
0.07141424715518951,
-0.027896039187908173,
-0.10119657963514328,
-0.1507556438446045,
-0.09037914127111435,
0.1906883269548416,
-0.040431395173072815,
-0.06064433231949806,
-0.02233329974114895,
-0.21920739114284515,
-0.11985862255096436,
-0.0929674357175827,
0.3664064109325409,
-0.023494895547628403,
-0.017940925434231758,
-0.12738165259361267,
-0.022788353264331818,
-0.10330244898796082,
0.32818564772605896,
0.20631232857704163,
0.09186714887619019,
-0.011370492167770863,
0.3540419340133667,
-0.23706063628196716,
-0.0005019340896978974,
-0.10422487556934357,
0.09658624231815338,
0.296260803937912,
0.13281022012233734,
-0.20400488376617432,
-0.13396067917346954,
0.11055826395750046,
-0.0898260772228241,
-0.014637579210102558,
-0.17606696486473083,
-0.3495514690876007,
0.1353774070739746,
-0.2410924732685089,
-0.07028597593307495,
-0.16323722898960114,
0.03383725881576538,
-0.19220931828022003,
0.373160183429718,
0.12390322983264923,
-0.05185141786932945,
-0.03059842810034752,
0.12581531703472137,
0.17142465710639954,
-0.14186488091945648,
-0.07376556843519211,
0.15787182748317719,
0.1233467236161232,
0.022461961954832077,
0.10796976834535599,
-0.024022676050662994,
-0.13570107519626617,
-0.05387697368860245,
0.05737597495317459,
-0.16320261359214783,
-0.3186286985874176,
-0.236249178647995,
0.235387921333313,
-0.17580831050872803,
0.08797524869441986,
0.1254223734140396,
-0.16028055548667908,
-0.06748495250940323,
0.2724457383155823,
0.003005090868100524,
-0.0159902460873127,
0.25339075922966003,
0.37266626954078674,
-0.08792895078659058,
-0.04062977433204651,
-0.2656174302101135,
0.3005983829498291,
-0.09498292952775955,
0.1916801631450653,
-0.08781807869672775,
0.1765480935573578,
-0.0688694566488266,
-0.06756220012903214,
-0.14348573982715607,
0.11415678262710571,
-0.052114177495241165,
0.04862004145979881,
0.0006586657254956663,
-0.017111456021666527,
-0.055312156677246094,
-0.0844622328877449,
0.18028418719768524,
0.4319910407066345,
0.042408186942338943,
-0.1658167541027069,
-0.1660521924495697,
0.007352905813604593,
0.10540565103292465,
-0.004034207668155432,
0.19875463843345642,
-0.04925067350268364,
-0.22876034677028656,
-0.2652115523815155,
-0.11284102499485016,
0.13669179379940033,
0.07134085148572922,
-0.08697474747896194,
-0.09061174094676971,
0.37283381819725037,
0.09129121899604797,
0.004050582647323608,
0.06123803183436394,
-0.024023832753300667,
-0.0750671774148941,
-0.0844774916768074,
-0.2572729289531708,
-0.0666583776473999,
0.26898738741874695,
-0.17881375551223755,
0.15731966495513916,
0.1909365952014923,
0.13700388371944427,
-0.07149296998977661,
-0.0007153691840358078,
0.014282665215432644,
0.004168120678514242,
0.30976080894470215,
-0.24057644605636597,
-0.07759389281272888,
-0.19652868807315826,
0.06943732500076294,
0.010147340595722198,
0.10616088658571243,
0.2774082124233246,
-0.1191309466958046,
-0.11346270889043808,
-0.11944206804037094,
-0.0019301396096125245,
0.08410399407148361,
-0.12634718418121338,
0.52226322889328,
0.05551063269376755,
-0.05890622362494469,
-0.1339906007051468,
0.07716762274503708,
0.29481905698776245,
0.024001594632864,
0.1703512966632843,
-0.15322493016719818,
-0.21982550621032715,
0.39438551664352417,
0.07774900645017624,
-0.1651647835969925,
0.01707484945654869,
-0.2908901572227478,
0.03563366457819939,
-0.21940942108631134,
-0.006943895947188139,
-0.15164898335933685,
-0.154955193400383,
0.03952356055378914,
-0.3295259177684784,
-0.06553004682064056,
-0.044802580028772354,
-0.09291132539510727,
0.14495089650154114,
-0.21606773138046265,
-0.03812624141573906,
-0.08583534508943558,
0.4075205624103546,
0.12081584334373474,
-0.10117162019014359,
-0.026154594495892525,
0.15737608075141907,
0.03521003946661949,
-0.23944883048534393,
-0.2656135857105255,
0.00738832913339138,
-0.1355510652065277,
0.19833821058273315,
-0.09398519992828369,
-0.27631059288978577,
0.08727848529815674,
0.016759401187300682,
-0.09596824645996094,
0.028520487248897552,
-0.21991752088069916,
-0.023808542639017105,
0.1208655834197998,
-0.16591554880142212,
0.0803002119064331,
-0.1480536013841629,
-0.008059450425207615,
-0.040223345160484314,
-0.12444230169057846,
-0.10880117863416672,
-0.003971651196479797,
-0.19452150166034698,
0.09428682178258896,
-0.0025242792908102274,
0.04993602633476257,
-0.11740797013044357,
-0.0341937355697155,
-0.1434495896100998,
0.29228121042251587,
-0.3243388533592224,
-0.13196012377738953,
-0.10199157893657684,
-0.017292937263846397,
0.06662659347057343,
-0.035143911838531494,
0.2939866781234741,
-0.23736777901649475,
0.11065930128097534,
0.13013331592082977,
-0.2843850255012512,
-0.09005282819271088,
-0.003594560083001852,
0.15931445360183716,
0.04888543486595154,
0.25565099716186523,
-0.02950514853000641,
-0.0012733066687360406,
-0.14390705525875092,
-0.24255627393722534,
-0.021585427224636078,
0.11531104892492294,
-0.03851727023720741,
-0.2246367186307907,
0.29065680503845215,
-0.00628791144117713,
-0.221673846244812,
0.2154168039560318,
-0.047728281468153,
-0.006079974118620157,
0.2679063081741333,
0.25039926171302795,
-0.04098027944564819,
0.3942706286907196,
-0.11516723036766052,
-0.024217838421463966,
0.12364620715379715,
0.05295252427458763,
0.22670575976371765,
0.23508575558662415,
0.13213326036930084,
-0.11926857382059097,
-0.07765268534421921,
0.031128698959946632,
-0.0432765856385231,
-0.14676426351070404,
0.18570567667484283,
0.017769616097211838,
0.05225208401679993,
-0.12372919917106628,
-0.08505482226610184,
-0.0650792196393013,
0.15344564616680145,
-0.175882026553154,
0.27189967036247253,
-0.06438232958316803,
-0.03639378398656845,
0.17373746633529663,
-0.10983967036008835,
-0.018906567245721817,
-0.07622550427913666,
-0.026682373136281967,
0.3568497598171234,
-0.06620719283819199,
-0.06136646121740341,
0.008728698827326298,
-0.17031033337116241,
0.18363432586193085,
-0.040059883147478104,
0.00664097024127841,
0.03109370917081833,
-0.08935611695051193,
-0.11704293638467789,
0.051664721220731735,
0.059226907789707184,
0.08121791481971741,
-0.08053718507289886,
-0.05755942314863205,
0.28512346744537354,
-0.07087569683790207,
-0.22655083239078522,
-0.12480771541595459,
-0.13767163455486298,
0.4893411099910736,
-0.20872808992862701,
0.4947469234466553,
-0.13113228976726532,
0.007182068191468716,
0.06048376113176346,
0.0025056933518499136,
-0.07767920196056366,
0.08850588649511337,
0.5079721212387085,
-0.04198776185512543,
-0.2759501039981842,
-0.2510695159435272,
0.03315845876932144,
0.17743661999702454,
-0.15181811153888702,
-0.03110923245549202,
-0.1852838099002838,
-0.08548874408006668,
0.026799334213137627,
-0.07125041633844376,
-0.01887200027704239,
-0.07459153234958649,
-0.07430791854858398,
-0.14849555492401123,
0.14271239936351776,
-0.22380319237709045,
-0.35909345746040344,
-0.14463657140731812,
-0.1226540207862854,
0.173162043094635,
-0.3024120330810547,
-0.09342740476131439,
-0.1736156940460205,
-0.08220543712377548,
-0.07391531020402908,
-0.11843568086624146,
-0.12818726897239685,
0.017302142456173897,
-0.17463335394859314,
-0.18789154291152954,
0.1345413774251938,
-0.11625692248344421,
0.17939497530460358,
0.002180636627599597,
-0.1721128523349762,
-0.23248189687728882,
0.1334327906370163,
-0.08947461098432541,
0.06244278699159622,
-0.040404532104730606,
-0.05010359734296799,
-0.06657778471708298,
-0.21187330782413483,
0.2175995111465454,
0.16247424483299255,
-0.18867354094982147,
0.062257103621959686,
0.08987047523260117,
0.24962374567985535,
-0.09491375088691711,
0.043984305113554,
-0.12391947954893112,
0.1857229471206665,
0.014515017159283161,
0.033766523003578186,
0.14204901456832886,
-0.06766770035028458,
-0.0016508925473317504,
0.3517058193683624,
0.01786809228360653,
0.06347401440143585,
-0.31922101974487305,
-0.15138846635818481,
0.023841755464673042,
0.012992525473237038,
-0.2515512704849243,
0.1104339137673378,
0.20319896936416626,
-0.09282730519771576,
0.052785709500312805,
0.14101733267307281,
0.09577853977680206,
0.3678828179836273,
-0.2617911994457245,
0.06567274779081345,
-0.32938116788864136,
-0.09598734974861145,
0.03277158737182617,
-0.040836166590452194,
-0.32283127307891846,
-0.277540385723114,
-0.18955320119857788,
-0.2396828681230545,
0.05637631192803383,
-0.04339603707194328,
0.060959938913583755,
-0.1285688281059265,
-0.12824282050132751,
0.09033036231994629,
-0.16505113244056702,
0.14711147546768188,
0.08807097375392914,
0.3961853086948395,
0.20337805151939392,
-0.09314808249473572,
-0.1429240107536316,
-0.12202806025743484,
0.13357998430728912,
-0.16246730089187622,
0.035388048738241196,
0.33025771379470825,
0.14189878106117249,
-0.014976996928453445,
-0.11244994401931763,
0.17700587213039398,
-0.10564109683036804,
0.1409747302532196,
-0.14954963326454163,
0.18611572682857513,
-0.05109340324997902,
0.04279845952987671,
-0.13886035978794098,
0.17000500857830048,
0.23432844877243042,
-0.2213093489408493,
0.10847525298595428,
-0.164571151137352,
0.13517004251480103,
0.2959844768047333,
0.048066992312669754,
0.07816646993160248,
-0.1384986788034439,
-0.10753414034843445,
-0.06970784813165665,
-0.08453764021396637,
0.15856698155403137,
-0.16324202716350555,
-0.17327426373958588,
0.1301940530538559,
-0.06951548904180527,
-0.05885101482272148,
0.3679274320602417,
-0.10516076534986496,
0.07444307953119278,
-0.015355223789811134,
0.09201104193925858,
-0.24333620071411133,
0.0276760533452034,
0.07006662338972092,
-0.20266476273536682,
0.1432538777589798,
0.034419916570186615,
-0.006724256556481123,
0.039654940366744995,
0.3752414584159851,
0.006704577244818211,
0.05084129795432091,
-0.03875310719013214,
-0.033124472945928574,
-0.17662344872951508,
0.058483801782131195,
-0.1864040493965149,
-0.02075723558664322,
0.06157490238547325,
0.0903766080737114,
0.2417142391204834,
-0.2803218364715576,
0.33439478278160095,
0.07904194295406342,
-0.1987025886774063,
0.091483935713768,
0.020792178809642792,
-0.07889702916145325,
0.4610626995563507,
0.27144864201545715,
0.2718800902366638,
-0.0017159483395516872,
-0.11601479351520538,
0.29838234186172485,
-0.03094249777495861,
-0.21931084990501404,
-0.10098760575056076,
0.10573416948318481,
-0.28689688444137573,
-0.16422325372695923,
0.024218423292040825,
0.021134840324521065,
-0.1424182951450348,
0.08505996316671371,
0.033086974173784256,
-0.012226010672748089,
-0.07024987787008286,
0.20072317123413086,
-0.03588685765862465,
-0.04790878668427467,
-0.08678790926933289,
0.03728058561682701,
-0.2513079047203064,
-0.07418212294578552,
-0.2179662138223648,
0.11561838537454605,
-0.029983459040522575,
0.10393672436475754,
0.12089799344539642,
-0.02513580396771431,
-0.07224789261817932,
0.15414273738861084,
0.2652394771575928,
0.004999930504709482,
-0.17323532700538635,
-0.08657636493444443,
-0.2605966031551361,
-0.11492418497800827,
0.15754935145378113,
0.031068162992596626,
0.1367918848991394,
-0.03384728729724884,
-0.009378599002957344,
0.0671849250793457,
-0.23930785059928894,
0.02371852472424507,
-0.30625754594802856,
0.15101434290409088,
0.23573128879070282,
-0.13163894414901733,
-0.05821545422077179,
0.03675681725144386,
0.07251584529876709,
-0.017133021727204323,
0.08497671782970428,
-0.21192879974842072,
0.07302798330783844,
-0.07997465133666992,
0.3413426876068115,
-0.0029473111499100924,
-0.2668876647949219,
-0.30337315797805786,
0.05521506071090698,
-0.23541828989982605,
0.11194583028554916,
-0.04128027707338333,
-0.04217081889510155,
0.06986188888549805,
0.18555322289466858,
-0.09477794915437698,
-0.09168983995914459,
0.09059980511665344,
0.025155959650874138,
-0.07760152220726013,
-0.20215463638305664,
0.03953128680586815,
-0.058521419763565063,
0.2144932746887207,
-0.131461501121521,
-0.02388530783355236,
-0.050142981112003326,
0.03968093544244766,
0.41116863489151,
0.11638499796390533,
-0.09988990426063538,
-0.23532992601394653,
0.01341276429593563,
0.02284308709204197,
-0.0651979148387909,
0.17069879174232483,
0.08922602236270905,
0.2209492027759552,
-0.032432977110147476,
0.35622864961624146,
-0.07855042815208435,
-0.16136716306209564,
0.26887351274490356,
-0.08919452130794525,
-0.02196899987757206,
-0.12965691089630127,
0.17336058616638184,
0.17689058184623718,
0.2886984646320343,
0.3372911214828491,
0.0019300734857097268,
0.06290911138057709,
-0.18462422490119934,
0.4426030218601227,
0.17351770401000977,
0.013698715716600418,
0.018800057470798492,
-0.09873194247484207,
0.32845669984817505,
-0.03725256025791168,
0.11443398892879486,
-0.2093929946422577,
-0.02109125629067421,
-0.09723655879497528,
0.051768478006124496,
-0.1087263822555542,
-0.1892942637205124,
0.34378138184547424,
0.02523668296635151,
0.0481293760240078,
0.05987398326396942,
-0.4083044230937958,
0.05976027250289917,
0.03735566884279251,
-0.06721798330545425,
-0.02804199606180191,
0.05610884726047516,
-0.2807720899581909,
0.04652439430356026,
0.07088503986597061,
-0.013743273913860321,
0.17475727200508118,
-0.09723074734210968,
-0.0959397405385971,
-0.04855415225028992,
-0.23645932972431183,
-0.061388030648231506,
-0.10737990587949753,
-0.22182658314704895,
0.04112127423286438,
0.014906086027622223,
